tree
version=v4
num_class=21
num_tree_per_iteration=21
label_index=0
max_feature_idx=125
objective=multiclass num_class:21
feature_names=Column_0 Column_1 Column_2 Column_3 Column_4 Column_5 Column_6 Column_7 Column_8 Column_9 Column_10 Column_11 Column_12 Column_13 Column_14 Column_15 Column_16 Column_17 Column_18 Column_19 Column_20 Column_21 Column_22 Column_23 Column_24 Column_25 Column_26 Column_27 Column_28 Column_29 Column_30 Column_31 Column_32 Column_33 Column_34 Column_35 Column_36 Column_37 Column_38 Column_39 Column_40 Column_41 Column_42 Column_43 Column_44 Column_45 Column_46 Column_47 Column_48 Column_49 Column_50 Column_51 Column_52 Column_53 Column_54 Column_55 Column_56 Column_57 Column_58 Column_59 Column_60 Column_61 Column_62 Column_63 Column_64 Column_65 Column_66 Column_67 Column_68 Column_69 Column_70 Column_71 Column_72 Column_73 Column_74 Column_75 Column_76 Column_77 Column_78 Column_79 Column_80 Column_81 Column_82 Column_83 Column_84 Column_85 Column_86 Column_87 Column_88 Column_89 Column_90 Column_91 Column_92 Column_93 Column_94 Column_95 Column_96 Column_97 Column_98 Column_99 Column_100 Column_101 Column_102 Column_103 Column_104 Column_105 Column_106 Column_107 Column_108 Column_109 Column_110 Column_111 Column_112 Column_113 Column_114 Column_115 Column_116 Column_117 Column_118 Column_119 Column_120 Column_121 Column_122 Column_123 Column_124 Column_125
feature_infos=[0:0.33302521705627441] [0.0024517066776752472:1.0976886749267578] [0.10000029951334:1] [5.2806677558692172e-05:0.99847030639648438] [0.0012114595156162977:0.99985074996948242] [0:0.31569603085517883] [0:0.89999967813491821] [0:1] [-22.679203033447266:25.696609497070312] [-8.9404983520507812:14.407222747802734] [0.11133582890033722:188.3104248046875] [0.00040676092612557113:86.544952392578125] [0:70.629997253417969] [0:5.5999984741210938] [0:70.629997253417969] [0:359.5] [0:356.58987426757812] [0:100] [0:95.036857604980469] [0:100] [2.0328133106231689:100] [0:0.33293086290359497] [0.010766918770968914:1.0974138975143433] [0.11099239438772202:1] [0.00030047248583287001:0.99731194972991943] [0.0021788459271192551:0.99915730953216553] [0:0.31140679121017456] [0:0.88900762796401978] [0:1] [-24.031105041503906:27.267263412475586] [-8.9404983520507812:10.512152671813965] [0.41093841195106506:197.28590393066406] [0.011360418982803822:39.505970001220703] [0:70.629997253417969] [-0.23999786376953125:8.1199989318847656] [-0.22000026702880859:70.629997253417969] [0:359.5] [0:356.58987426757812] [0:100] [0:95.036857604980469] [0:100] [2.0328133106231689:100] [0:0.33283412456512451] [0.016168838366866112:1.097121000289917] [0.12504923343658447:1] [0.00082113791722804308:0.99618703126907349] [0.0011956098023802042:0.9981427788734436] [0:0.31315112113952637] [0:0.87495076656341553] [0:0.99999845027923584] [-17.299798965454102:28.365604400634766] [-20.243671417236328:15.572875022888184] [1.3251668214797974:291.04559326171875] [0.078783415257930756:61.368236541748047] [0:70.629997253417969] [-0.43000030517578125:10.060001373291016] [-0.73000001907348633:70.629997253417969] [0:359.5] [0:356.58987426757812] [0:100] [0:95.036857604980469] [0:100] [2.0328133106231689:100] [0.0019113603048026562:0.33291882276535034] [0.07576373964548111:1.097355842590332] [0.10712945461273193:1] [0.0025407199282199144:0.99531859159469604] [0.0019918594043701887:0.98890233039855957] [2.8260766171683827e-08:0.3186076283454895] [5.1011785018317823e-08:0.89287054538726807] [0:0.99999529123306274] [-21.807611465454102:28.566734313964844] [-17.852958679199219:14.399692535400391] [4.8067564964294434:331.55319213867188] [0.56620073318481445:73.575981140136719] [0.009998321533203125:70.5] [-1.839996337890625:10.929996490478516] [-1.380000114440918:70.629997253417969] [0:359.5] [0:356.58987426757812] [0:100] [0:95.036857604980469] [0:100] [2.0328133106231689:100] [0.0030291141010820866:0.33292651176452637] [0.086588561534881592:1.0973947048187256] [0.11391079425811768:0.99999982118606567] [0.00033120461739599705:0.99859493970870972] [0.0013344194740056992:0.98422384262084961] [1.2381484282286692e-07:0.31264603137969971] [1.8766786524793133e-07:0.88608920574188232] [0:0.99999409914016724] [-38.672569274902344:46.583259582519531] [-32.704532623291016:29.834758758544922] [20.558282852172852:567.7333984375] [4.9664816856384277:178.12161254882812] [0.029998779296875:70.5] [-1.9899978637695312:12.139999389648438] [-4.1199951171875:70.629997253417969] [0:359.5] [0:356.58987426757812] [0:100] [0:95.036857604980469] [0:100] [2.0328133106231689:100] [0.0029746838845312595:0.33270621299743652] [0.2857062816619873:1.0967442989349365] [0.13820987939834595:0.99999982118606567] [0.0024315887130796909:0.99495625495910645] [0.00039485449087806046:0.93330401182174683] [1.0663674032684867e-07:0.31024804711341858] [1.9171932308381656e-07:0.86179012060165405] [0:0.99997490644454956] [-74.568923950195312:69.472190856933594] [-50.951133728027344:51.965709686279297] [88.182563781738281:1342.453369140625] [26.679191589355469:571.5806884765625] [0.059999942779541016:70.470001220703125] [-5.3799991607666016:17] [-4.8899993896484375:70.629997253417969] [0:359.5] [0:356.58987426757812] [0:100] [0:95.036857604980469] [0:100] [2.0328133106231689:100]
tree_sizes=241 1840 1824 241 241 1831 241 241 241 241 242 242 242 242 242 242 242 242 242 242 1831 224 1832 1834 224 224 1832 224 224 224 224 224 224 224 224 224 224 224 224 224 224 1840 224 1829 1843 224 224 1846 224 224 224 224 224 224 224 224 224 224 224 224 224 224 1831 224 1836 1841 224 224 1852 224 224 224 224 224 224 224 224 224 224 224 224 224 224 1832 224 1849 1843 224 224 1845 224 224 224 224 224 224 224 224 224 224 225 225 225 225 1836 225 1850 1855 225 225 1858 225 225 225 225 225 225 225 225 225 225 225 225 225 225 1844 225 1849 1852 225 225 1858 225 225 225 225 225 225 225 225 225 225 225 225 225 225 1840 225 1860 1847 225 225 1854 225 225 225 225 225 225 225 225 225 225 225 225 225 225 1847 225 1847 1855 225 225 1869 225 225 225 225 225 225 225 225 225 225 225 225 225 225 1828 225 1852 1859 225 225 1875 225 225 225 225 225 225 225 225 225 225 225 225 225 225 1853 225 1851 1862 225 225 1860 225 225 225 225 225 225 225 225 225 225 225 225 225 225 1858 225 1856 1868 225 225 1868 225 225 225 225 225 225 225 225 225 225 225 225 225 225 1852 225 1858 1858 225 225 1875 225 225 225 225 225 225 225 225 225 225 225 225 225 225 1856 225 1827 1862 225 225 1871 225 225 225 225 225 225 225 225 225 225 225 225 225 225 1863 225 1854 1860 225 225 1863 225 225 225 225 225 225 225 225 225 225 225 225 225 225 1864 225 1857 1868 225 225 1865 225 225 225 225 225 225 225 225 225 225 225 225 225 225 1866 225 1854 1855 225 225 1867 225 225 225 225 225 225 225 225 225 225 225 225 225 225 1868 225 1873 1875 225 225 1876 225 225 225 225 225 225 225 225 225 225 225 225 225 225 1870 225 1860 1866 225 225 1867 225 225 225 225 225 225 225 225 225 225 225 225 225 225 1865 225 1843 1865 225 225 1871 225 225 225 225 225 225 225 225 225 225 225 225 225 225 1846 225 1858 1874 225 225 1871 225 225 225 225 225 225 225 225 225 225 225 225 225 225 1877 225 1831 1849 225 225 1864 225 225 225 225 225 225 225 225 225 225 225 225 225 225 1874 225 1861 1865 225 225 1850 225 225 225 225 225 225 225 225 225 225 225 225 225 225 1858 225 1854 1868 225 225 1871 225 225 225 225 225 225 225 225 225 225 225 225 225 225 1858 225 1868 1848 225 225 1854 225 225 225 225 225 225 225 225 225 225 225 225 225 225 1861 225 1875 1860 225 225 1872 225 225 225 225 225 225 225 225 225 225 225 225 225 225 1859 225 1856 1849 225 225 1867 225 225 225 225 225 225 225 225 225 225 225 225 225 225 1867 225 1856 1853 225 225 1861 225 225 225 225 225 225 225 225 225 225 225 225 225 225 1878 225 1862 1877 225 225 1851 225 225 225 225 225 225 225 225 225 225 225 225 225 225 1841 225 1849 1870 225 225 1873 225 225 225 225 225 225 225 225 225 225 225 225 225 225 1856 225 1839 1868 225 225 1856 225 225 225 225 225 225 225 225 225 225 225 225 225 225 1866 225 1856 1849 225 225 1846 225 225 225 225 225 225 225 225 225 225 225 225 225 225 1849 225 1848 1851 225 225 1837 225 225 225 225 225 225 225 225 225 225 225 225 225 225 1861 225 1856 1843 225 225 1873 225 225 225 225 225 225 225 225 225 225 225 225 225 225 1851 225 1818 1870 225 225 1858 225 225 225 225 225 225 225 225 225 225 225 225 225 225 1849 225 1859 1851 225 225 1855 225 225 225 225 225 225 225 225 225 225 225 225 225 225 1844 225 1854 1868 225 225 1854 225 225 225 225 225 225 225 225 225 225 225 225 225 225 1872 225 1845 1840 225 225 1876 225 225 225 225 225 225 225 225 225 225 225 225 225 225 1830 225 1832 1865 225 225 1837 225 225 225 225 225 225 225 225 225 225 225 225 225 225 1856 225 1841 1844 225 225 1869 225 225 225 225 225 225 225 225 225 225 225 225 225 225 1886 225 1832 1863 225 225 1851 225 225 225 225 225 225 225 225 225 225 225 225 225 225 1847 225 1845 1819 225 225 1837 225 225 225 225 225 225 225 225 225 225 225 225 225 225 1852 225 1862 1823 225 225 1862 225 225 225 225 225 225 225 225 225 225 225 225 225 225 1876 225 1840 1840 225 225 1839 225 225 225 225 225 225 225 225 225 225 225 225 225 225 1852 225 1855 1872 225 225 1839 225 225 225 225 225 225 225 225 225 225 225 225 225 225 1863 225 1841 1851 225 225 1840 225 225 225 225 225 225 225 225 225 225 225 225 225 225 1827 225 1834 1853 225 225 1849 225 225 225 225 225 225 225 225 225 225 225 225 225 225 1878 225 1834 1870 225 225 1843 225 225 225 225 225 225 225 226 226 226 226 226 226 226 1841 226 1854 1814 226 226 1851 226 226 226 226 226 226 226 226 226 226 226 226 226 226 1859 226 1848 1794 226 226 1852 226 226 226 226 226 226 226 226 226 226 226 226 226 226 1856

Tree=0
num_leaves=1
num_cat=0
split_feature=
split_gain=
threshold=
decision_type=
left_child=
right_child=
leaf_value=-34.538776391283193
leaf_weight=0
leaf_count=0
internal_value=
internal_weight=
internal_count=
is_linear=0
shrinkage=1


Tree=1
num_leaves=16
num_cat=0
split_feature=97 28 118 98 55 97 28 18 89 119 49 47 119 33 118
split_gain=135578 13638.9 6774.36 3073.72 1573.55 1474.36 2172.13 936.405 1772.9 912.575 854.729 660.485 551.489 1065.13 491.377
threshold=0.39000022411346441 0.074317783117294325 1.1299999356269839 68.204998016357436 0.22000312805175784 0.64999991655349743 0.043228864669799812 4.7431843280792245 1.4746508895768786e-05 8.6199994087219256 0.060622781515121467 0.016047696582973007 7.5900003910064706 0.45999932289123541 1.000000059604645
decision_type=2 2 2 2 2 2 2 2 2 2 2 2 2 2 2
left_child=1 2 7 5 -3 6 14 8 9 -1 -5 -9 13 -10 -2
right_child=3 4 -4 10 -6 -7 -8 11 12 -11 -12 -13 -14 -15 -16
leaf_value=-1.4347959586713646 -0.9283164784816289 -1.0689861227399264 -1.4736033362509136 -0.74535648214390982 -1.4147162049966586 -1.5511345299689729 -1.4844755475470792 -0.62084609300503735 -0.76374860551372337 -0.60351810562492536 -1.4169434600351329 -0.751363555747533 -0.61714707283495107 -1.5500916937744926 -1.4021931070986906
leaf_weight=232.55703431367874 410.10057663917542 992.32670018076897 438.0240915119648 250.0613272190094 1121.9418214559555 28193.372721746564 2150.73579852283 7721.8937845230103 594.52080546319485 68.350096106529236 108.77667734026909 1940.6842836588621 930.22813725471497 77.935780316591263 111.27729061245918
leaf_count=1116 1968 4762 2102 1200 5384 135295 10321 37056 2853 328 522 9313 4464 374 534
internal_value=-1.29836 -0.784054 -0.701557 -1.53091 -1.25245 -1.53768 -1.39569 -0.672318 -0.80053 -1.24597 -0.948939 -0.64706 -0.716897 -0.854884 -1.02946
internal_weight=0 14118.5 12004.2 31224.3 2114.27 30865.5 2672.11 11566.2 1903.59 300.907 358.838 9662.58 1602.68 672.457 521.378
internal_count=217592 67752 57606 149840 10146 148118 12823 55504 9135 1444 1722 46369 7691 3227 2502
is_linear=0
shrinkage=1


Tree=2
num_leaves=16
num_cat=0
split_feature=118 20 15 15 16 97 18 18 117 18 20 20 16 17 68
split_gain=38152.8 42567.5 25551.2 6968.77 3529.52 10973.2 6681.96 3346.36 2773.01 2391.3 1486.91 1416.61 1369.95 1343.21 1279.78
threshold=2.0900011062622075 50.245096206665046 205.760368347168 50.081966400146491 159.43093109130862 0.50999879837036144 26.429204940795902 40.712385177612312 28.340000152587894 12.864280700683596 9.4771237373352069 23.780637741088871 212.10754394531253 1.2257418632507326 0.0041705444455146798
decision_type=2 2 2 2 2 2 2 2 2 2 2 2 2 2 2
left_child=4 2 3 8 5 -1 11 -3 13 -5 -6 -7 -4 -2 -8
right_child=1 7 12 9 10 6 14 -9 -10 -11 -12 -13 -14 -15 -16
leaf_value=-1.6875462718782837 -0.91825366515379681 -1.6979151979449525 -1.3023112731442901 -1.2644149250938428 -1.2607544965518029 -1.0457736039188212 -1.5782314559367716 -0.80025347730694896 -0.76440790689923865 -0.6865809220401381 -1.7138410626363036 -1.6016035790809808 -1.6374573430579153 -1.5152448924975157 -0.88915463597887412
leaf_weight=7089.2772082239389 187.20482504367828 5619.0928587913513 668.6676280349493 301.2597332149744 295.91628840565681 211.8952251970768 116.63450221717358 171.17449061572552 386.01782329380512 5837.8055825382471 13839.89056956768 1364.4209935516119 1804.2417783737183 774.24672719836235 1425.0414536297321
leaf_count=38475 1016 30496 3629 1635 1606 1150 633 929 2095 31683 75112 7405 9792 4202 7734
internal_value=-1.48271 -1.24016 -0.98945 -0.805338 -1.63964 -1.55002 -1.23734 -1.67138 -1.21721 -0.714937 -1.70436 -1.52689 -1.54683 -1.399 -0.941286
internal_weight=0 15749.7 9959.44 7486.53 24343.1 10207.3 3117.99 5790.27 1347.47 6139.07 14135.8 1576.32 2472.91 961.452 1541.68
internal_count=217592 85477 54052 40631 132115 55397 16922 31425 7313 33318 76718 8555 13421 5218 8367
is_linear=0
shrinkage=1


Tree=3
num_leaves=1
num_cat=0
split_feature=
split_gain=
threshold=
decision_type=
left_child=
right_child=
leaf_value=-34.538776391283193
leaf_weight=0
leaf_count=0
internal_value=
internal_weight=
internal_count=
is_linear=0
shrinkage=1


Tree=4
num_leaves=1
num_cat=0
split_feature=
split_gain=
threshold=
decision_type=
left_child=
right_child=
leaf_value=-34.538776391283193
leaf_weight=0
leaf_count=0
internal_value=
internal_weight=
internal_count=
is_linear=0
shrinkage=1


Tree=5
num_leaves=16
num_cat=0
split_feature=118 20 15 70 15 18 118 18 117 18 118 89 17 16 117
split_gain=45194 33996.7 20454.7 7059.35 6415.16 3431.06 3180.91 3139.24 2490.77 2160.8 1691.43 1416.25 1205.2 1120.95 1064.09
threshold=1.9599993228912356 50.713560104370124 205.760368347168 0.34743034839630133 50.081966400146491 5.7957317829132089 0.34000009298324591 39.735406875610359 28.340000152587894 12.864280700683596 2.190000176429749 1.143640611189767e-05 1.2257418632507326 212.10754394531253 29.954999923706058
decision_type=2 2 2 2 2 2 2 2 2 2 2 2 2 2 2
left_child=3 2 4 5 8 6 11 10 12 -6 -3 -1 -2 -4 -5
right_child=1 7 13 14 9 -7 -8 -9 -10 -11 -12 -13 -14 -15 -16
leaf_value=-0.93243036203433682 -1.3204154150834151 -1.0781560028878201 -1.008864898185363 -1.0664588344858754 -1.0184181109267718 -1.5225204108845545 -0.93580290092946727 -1.4910632088373448 -1.4519110628828888 -1.5239116782716013 -0.64764120118900204 -1.4704279307502985 -0.80001522774902334 -0.73204489610896983 -1.3771477020544185
leaf_weight=218.1785079985857 220.05396795272827 388.22021050751209 804.36393588781357 1876.5018763393164 356.12900684773922 21672.398461192846 749.97559721767902 193.38075971603394 455.52838441729546 6738.9443841129541 6112.7491438686848 1901.5080090612173 931.68682833015919 2146.7764941751957 576.39135923981667
leaf_count=1047 1056 1863 3860 9005 1709 104002 3599 928 2186 32339 29334 9125 4471 10302 2766
internal_value=-1.29836 -1.05617 -1.26251 -1.46298 -1.41681 -1.49531 -1.2898 -0.696972 -1.05602 -1.49854 -0.67335 -1.41505 -0.899444 -0.807495 -1.13947
internal_weight=0 18347.8 11653.5 26995 8702.34 24542.1 2869.66 6694.35 1607.27 7095.07 6500.97 2119.69 1151.74 2951.14 2452.89
internal_count=217592 88048 55923 129544 41761 117773 13771 32125 7713 34048 31197 10172 5527 14162 11771
is_linear=0
shrinkage=1


Tree=6
num_leaves=1
num_cat=0
split_feature=
split_gain=
threshold=
decision_type=
left_child=
right_child=
leaf_value=-34.538776391283193
leaf_weight=0
leaf_count=0
internal_value=
internal_weight=
internal_count=
is_linear=0
shrinkage=1


Tree=7
num_leaves=1
num_cat=0
split_feature=
split_gain=
threshold=
decision_type=
left_child=
right_child=
leaf_value=-34.538776391283193
leaf_weight=0
leaf_count=0
internal_value=
internal_weight=
internal_count=
is_linear=0
shrinkage=1


Tree=8
num_leaves=1
num_cat=0
split_feature=
split_gain=
threshold=
decision_type=
left_child=
right_child=
leaf_value=-34.538776391283193
leaf_weight=0
leaf_count=0
internal_value=
internal_weight=
internal_count=
is_linear=0
shrinkage=1


Tree=9
num_leaves=1
num_cat=0
split_feature=
split_gain=
threshold=
decision_type=
left_child=
right_child=
leaf_value=-34.538776391283193
leaf_weight=0
leaf_count=0
internal_value=
internal_weight=
internal_count=
is_linear=0
shrinkage=1


Tree=10
num_leaves=1
num_cat=0
split_feature=
split_gain=
threshold=
decision_type=
left_child=
right_child=
leaf_value=-34.538776391283193
leaf_weight=0
leaf_count=0
internal_value=
internal_weight=
internal_count=
is_linear=0
shrinkage=1


Tree=11
num_leaves=1
num_cat=0
split_feature=
split_gain=
threshold=
decision_type=
left_child=
right_child=
leaf_value=-34.538776391283193
leaf_weight=0
leaf_count=0
internal_value=
internal_weight=
internal_count=
is_linear=0
shrinkage=1


Tree=12
num_leaves=1
num_cat=0
split_feature=
split_gain=
threshold=
decision_type=
left_child=
right_child=
leaf_value=-34.538776391283193
leaf_weight=0
leaf_count=0
internal_value=
internal_weight=
internal_count=
is_linear=0
shrinkage=1


Tree=13
num_leaves=1
num_cat=0
split_feature=
split_gain=
threshold=
decision_type=
left_child=
right_child=
leaf_value=-34.538776391283193
leaf_weight=0
leaf_count=0
internal_value=
internal_weight=
internal_count=
is_linear=0
shrinkage=1


Tree=14
num_leaves=1
num_cat=0
split_feature=
split_gain=
threshold=
decision_type=
left_child=
right_child=
leaf_value=-34.538776391283193
leaf_weight=0
leaf_count=0
internal_value=
internal_weight=
internal_count=
is_linear=0
shrinkage=1


Tree=15
num_leaves=1
num_cat=0
split_feature=
split_gain=
threshold=
decision_type=
left_child=
right_child=
leaf_value=-34.538776391283193
leaf_weight=0
leaf_count=0
internal_value=
internal_weight=
internal_count=
is_linear=0
shrinkage=1


Tree=16
num_leaves=1
num_cat=0
split_feature=
split_gain=
threshold=
decision_type=
left_child=
right_child=
leaf_value=-34.538776391283193
leaf_weight=0
leaf_count=0
internal_value=
internal_weight=
internal_count=
is_linear=0
shrinkage=1


Tree=17
num_leaves=1
num_cat=0
split_feature=
split_gain=
threshold=
decision_type=
left_child=
right_child=
leaf_value=-34.538776391283193
leaf_weight=0
leaf_count=0
internal_value=
internal_weight=
internal_count=
is_linear=0
shrinkage=1


Tree=18
num_leaves=1
num_cat=0
split_feature=
split_gain=
threshold=
decision_type=
left_child=
right_child=
leaf_value=-34.538776391283193
leaf_weight=0
leaf_count=0
internal_value=
internal_weight=
internal_count=
is_linear=0
shrinkage=1


Tree=19
num_leaves=1
num_cat=0
split_feature=
split_gain=
threshold=
decision_type=
left_child=
right_child=
leaf_value=-34.538776391283193
leaf_weight=0
leaf_count=0
internal_value=
internal_weight=
internal_count=
is_linear=0
shrinkage=1


Tree=20
num_leaves=16
num_cat=0
split_feature=16 47 118 118 70 55 56 16 12 117 56 96 20 97 91
split_gain=40916.5 39774.6 39286.8 10714.5 5017.81 2547.78 1652.14 1366.13 1566.13 1335.7 1185.59 1109.35 1101.23 924.829 866.674
threshold=151.29492950439456 0.012793495319783689 2.139999628067017 0.27000236511230474 0.3034693598747254 0.24999994039535525 65.555000305175795 112.66989135742189 65.975002288818374 29.98499965667725 0.49999994039535528 1.5100059509277346 9.4771237373352069 0.29999947547912603 0.068637132644653334
decision_type=2 2 2 2 2 2 2 2 2 2 2 2 2 2 2
left_child=7 6 3 -3 5 -5 -2 -1 -9 10 -6 -4 -7 -8 -12
right_child=1 2 11 4 9 12 13 8 -10 -11 14 -13 -14 -15 -16
leaf_value=-1.7102558738691651 -1.6905906126282324 -1.4289763051038193 -1.0390599228376938 -1.1620025355721568 -0.92218399596796574 -1.5000131331275246 -1.6917011626448097 -1.6039966194606829 -1.0345246448599488 -0.8470644535323959 -1.0794092640226716 -1.6867207192415326 -0.7017901808484357 -0.78560652904364481 -1.5952316518777117
leaf_weight=16636.354772016406 6694.4150624871254 1252.0243958383799 109.26423351466656 536.73981826007366 231.24218054115772 69.833295956254005 69.464782521128654 2944.0538332164288 206.73603710532188 347.1396558880806 181.30861008167267 3324.7282117009163 6898.2029921114445 128.24267542362213 463.03713123500347
leaf_count=90289 36332 6795 593 2913 1255 379 377 15978 1122 1884 984 18044 37438 696 2513
internal_value=-1.48271 -1.28326 -1.08262 -0.881836 -0.803344 -0.742132 -1.67376 -1.68739 -1.56663 -1.17905 -1.31067 -1.66611 -0.70979 -1.10396 -1.45009
internal_weight=0 20305.6 13413.5 9979.53 8727.5 7504.78 6892.12 19787.1 3150.79 1222.73 875.588 3433.99 6968.04 197.707 644.346
internal_count=217592 110203 72798 54161 47366 40730 37405 107389 17100 6636 4752 18637 37817 1073 3497
is_linear=0
shrinkage=1


Tree=21
num_leaves=1
num_cat=0
split_feature=
split_gain=
threshold=
decision_type=
left_child=
right_child=
leaf_value=0
leaf_weight=0
leaf_count=0
internal_value=
internal_weight=
internal_count=
is_linear=0
shrinkage=1


Tree=22
num_leaves=16
num_cat=0
split_feature=97 28 118 98 97 49 76 34 20 16 118 16 47 48 65
split_gain=66259.4 5892.99 2733.86 1589.23 859.255 1222.8 497.559 488.444 388.201 287.021 412.766 253.769 250.869 199.772 197.747
threshold=0.4299988746643067 0.15450200438499453 1.2750015258789065 68.204998016357436 0.7100048065185548 0.029705852270126346 0.33499908447265631 0.14999973773956302 47.287584304809577 236.32990264892581 0.29000473022460943 141.31239318847659 8.8746979599818601e-05 0.061404686421155937 0.97562712430953991
decision_type=2 2 2 2 2 2 2 2 2 2 2 2 2 2 2
left_child=1 2 6 4 5 11 9 -3 -5 -1 13 -2 -12 -11 -8
right_child=3 7 -4 8 -6 -7 14 -9 -10 10 12 -13 -14 -15 -16
leaf_value=0.36783398003205675 0.27524531215626319 0.1258393742407389 -0.17162519733543921 -0.052300608788741043 -0.22808608257196578 -0.17295836385629229 -0.025104330401735781 -0.11210037806854936 0.3767511416754194 0.3525555992154436 -0.18726745632544253 -0.024746453447653891 0.23383908353983057 0.095085572333730939 0.27699265610294116
leaf_weight=13452.473335966468 331.35976874828339 473.29449450969696 407.26206867396832 137.54059188067913 21880.287112236023 2182.2908390760422 184.17861437797546 1274.0690335482359 218.12834280729294 977.48732016980648 112.48310600221157 170.99917674064636 113.87698049843311 137.49926695227623 163.71262596547604
leaf_count=52090 1491 2023 2280 644 131855 12270 796 6464 883 3778 503 848 459 548 660
internal_value=0 0.300589 0.339724 -0.208906 -0.214984 -0.108197 0.353478 -0.0476515 0.210833 0.359037 0.270815 0.17313 0.0245824 0.320805 0.117058
internal_weight=0 17296.3 15549 24920.6 24564.9 2684.65 15141.7 1747.36 355.669 14793.8 1341.35 502.359 226.36 1114.99 347.891
internal_count=217592 69601 61114 147991 146464 14609 58834 8487 1527 57378 5288 2339 962 4326 1456
is_linear=0
shrinkage=0.2


Tree=23
num_leaves=16
num_cat=0
split_feature=118 20 16 47 20 16 76 18 20 18 49 16 20 16 18
split_gain=19995.9 17324.8 8614.61 2781.31 2697.92 3657.61 2425.37 1664 1337.38 1309.76 974.659 1271.61 693.757 1073.54 643.176
threshold=1.9599993228912356 51.891283035278327 191.81971740722659 0.0051773402374237784 32.660594940185554 199.66645050048831 0.29499816894531256 44.085401535034187 10.180995464324953 39.097375869750984 0.012622952461242678 121.32833099365236 38.016912460327156 111.07422637939455 21.743239402771
decision_type=2 2 2 2 2 2 2 2 2 2 2 2 2 2 2
left_child=4 2 3 -2 5 6 -1 -6 -4 -3 -9 -12 -5 -14 -8
right_child=1 9 8 12 7 -7 14 10 -10 -11 11 -13 13 -15 -16
leaf_value=-0.12892249351726578 -0.028568315236805898 -0.20216295586741412 0.42665268149415658 0.40958024809769528 -0.20478993135519188 -0.18424292267826903 0.050747650732448392 -0.16307679303716183 -0.12597036460592101 0.3227274964893741 0.35781318341116247 -0.22607799897570141 0.34217627872554734 -0.018624130508235637 0.32083761948864636
leaf_weight=951.11132553219795 725.37518970668316 4377.5269822329283 191.24833899736404 7191.7419302016497 13148.813495032489 2831.2328146398067 457.26493587344885 566.06852115690708 2083.388059578836 198.7932910323143 511.33939069509506 210.65606299042702 2302.1148845404387 385.04596769809723 1541.8639962747693
leaf_count=6159 3575 30063 960 28449 87231 18892 2520 3752 12606 810 2306 1450 9660 1925 7234
internal_value=0 0.154897 0.273671 0.349428 -0.137305 -0.0218562 0.13398 -0.183538 -0.0795066 -0.179362 0.0334041 0.187452 0.377183 0.290477 0.259059
internal_weight=0 17455.2 12878.9 10604.3 20218.4 5781.47 2950.24 14436.9 2274.64 4576.32 1288.06 721.995 9878.9 2687.16 1999.13
internal_count=217592 88048 57175 43609 129544 34805 15913 94739 13566 30873 7508 3756 40034 11585 9754
is_linear=0
shrinkage=0.2


Tree=24
num_leaves=1
num_cat=0
split_feature=
split_gain=
threshold=
decision_type=
left_child=
right_child=
leaf_value=0
leaf_weight=0
leaf_count=0
internal_value=
internal_weight=
internal_count=
is_linear=0
shrinkage=1


Tree=25
num_leaves=1
num_cat=0
split_feature=
split_gain=
threshold=
decision_type=
left_child=
right_child=
leaf_value=0
leaf_weight=0
leaf_count=0
internal_value=
internal_weight=
internal_count=
is_linear=0
shrinkage=1


Tree=26
num_leaves=16
num_cat=0
split_feature=118 20 16 70 47 18 118 15 20 18 119 14 91 17 18
split_gain=23755.1 11223.4 9562.22 4423.65 3569.97 2708.48 1637.58 1560.77 1333.51 1053.89 911.01 1873.63 856.944 806.516 702.718
threshold=1.91999888420105 50.713560104370124 161.36851501464847 0.31131318211555487 0.0051773402374237784 6.2344417572021493 0.31000900268554693 42.034482955932624 12.486021041870119 39.097375869750984 7.5900003910064706 0.2300071716308594 0.057120084762573249 1.6865784525871279 18.185620307922367
decision_type=2 2 2 2 2 2 2 2 2 2 2 2 2 2 2
left_child=3 2 4 5 -2 6 10 13 -4 -3 11 -1 -5 -6 -9
right_child=1 9 8 12 7 -7 -8 14 -10 -11 -12 -13 -14 -15 -16
leaf_value=-0.1069853097523636 0.33262561252266293 0.35090813970482682 -0.036223756075590273 -0.11195200442686049 -0.1598203198011138 -0.1978483834576667 0.22761069850081586 -0.0083332963972467203 0.3264654914409354 -0.14889622137433947 -0.22569013938670213 0.56796414084252145 0.15871322825061304 0.22088389976369252 -0.21700948633101502
leaf_weight=709.3495769649744 682.01282475888729 8177.6223093122244 458.81689889729023 594.7981326431036 345.23129610717297 17229.282650798559 944.89222407341003 745.30509498715401 3489.226197630167 172.310232385993 1003.8726256787777 214.1885057836771 2193.010032787919 626.55049456655979 4820.2467573583126
leaf_count=3932 3032 31587 2172 2776 1848 101263 4044 3681 14188 971 5846 926 9898 2592 28836
internal_value=0 0.1652 0.034056 -0.13513 -0.102804 -0.167873 0.0119294 -0.14823 0.284316 0.340594 -0.093806 0.0495501 0.100965 0.0856364 -0.189065
internal_weight=0 19517.3 11167.4 22889.4 7219.35 20101.6 2872.3 6537.33 3948.04 8349.93 1927.41 923.538 2787.81 971.782 5565.55
internal_count=217592 88907 56349 128685 39989 116011 14748 36957 16360 32558 10704 4858 12674 4440 32517
is_linear=0
shrinkage=0.2


Tree=27
num_leaves=1
num_cat=0
split_feature=
split_gain=
threshold=
decision_type=
left_child=
right_child=
leaf_value=0
leaf_weight=0
leaf_count=0
internal_value=
internal_weight=
internal_count=
is_linear=0
shrinkage=1


Tree=28
num_leaves=1
num_cat=0
split_feature=
split_gain=
threshold=
decision_type=
left_child=
right_child=
leaf_value=0
leaf_weight=0
leaf_count=0
internal_value=
internal_weight=
internal_count=
is_linear=0
shrinkage=1


Tree=29
num_leaves=1
num_cat=0
split_feature=
split_gain=
threshold=
decision_type=
left_child=
right_child=
leaf_value=0
leaf_weight=0
leaf_count=0
internal_value=
internal_weight=
internal_count=
is_linear=0
shrinkage=1


Tree=30
num_leaves=1
num_cat=0
split_feature=
split_gain=
threshold=
decision_type=
left_child=
right_child=
leaf_value=0
leaf_weight=0
leaf_count=0
internal_value=
internal_weight=
internal_count=
is_linear=0
shrinkage=1


Tree=31
num_leaves=1
num_cat=0
split_feature=
split_gain=
threshold=
decision_type=
left_child=
right_child=
leaf_value=0
leaf_weight=0
leaf_count=0
internal_value=
internal_weight=
internal_count=
is_linear=0
shrinkage=1


Tree=32
num_leaves=1
num_cat=0
split_feature=
split_gain=
threshold=
decision_type=
left_child=
right_child=
leaf_value=0
leaf_weight=0
leaf_count=0
internal_value=
internal_weight=
internal_count=
is_linear=0
shrinkage=1


Tree=33
num_leaves=1
num_cat=0
split_feature=
split_gain=
threshold=
decision_type=
left_child=
right_child=
leaf_value=0
leaf_weight=0
leaf_count=0
internal_value=
internal_weight=
internal_count=
is_linear=0
shrinkage=1


Tree=34
num_leaves=1
num_cat=0
split_feature=
split_gain=
threshold=
decision_type=
left_child=
right_child=
leaf_value=0
leaf_weight=0
leaf_count=0
internal_value=
internal_weight=
internal_count=
is_linear=0
shrinkage=1


Tree=35
num_leaves=1
num_cat=0
split_feature=
split_gain=
threshold=
decision_type=
left_child=
right_child=
leaf_value=0
leaf_weight=0
leaf_count=0
internal_value=
internal_weight=
internal_count=
is_linear=0
shrinkage=1


Tree=36
num_leaves=1
num_cat=0
split_feature=
split_gain=
threshold=
decision_type=
left_child=
right_child=
leaf_value=0
leaf_weight=0
leaf_count=0
internal_value=
internal_weight=
internal_count=
is_linear=0
shrinkage=1


Tree=37
num_leaves=1
num_cat=0
split_feature=
split_gain=
threshold=
decision_type=
left_child=
right_child=
leaf_value=0
leaf_weight=0
leaf_count=0
internal_value=
internal_weight=
internal_count=
is_linear=0
shrinkage=1


Tree=38
num_leaves=1
num_cat=0
split_feature=
split_gain=
threshold=
decision_type=
left_child=
right_child=
leaf_value=0
leaf_weight=0
leaf_count=0
internal_value=
internal_weight=
internal_count=
is_linear=0
shrinkage=1


Tree=39
num_leaves=1
num_cat=0
split_feature=
split_gain=
threshold=
decision_type=
left_child=
right_child=
leaf_value=0
leaf_weight=0
leaf_count=0
internal_value=
internal_weight=
internal_count=
is_linear=0
shrinkage=1


Tree=40
num_leaves=1
num_cat=0
split_feature=
split_gain=
threshold=
decision_type=
left_child=
right_child=
leaf_value=0
leaf_weight=0
leaf_count=0
internal_value=
internal_weight=
internal_count=
is_linear=0
shrinkage=1


Tree=41
num_leaves=16
num_cat=0
split_feature=16 47 118 55 70 118 95 16 118 55 20 96 20 12 97
split_gain=22827.9 17833 15139.6 3587.91 1994.68 957.869 789.497 715.823 751.425 1083.71 709.182 706.556 568.297 535.982 520.663
threshold=141.31239318847659 0.008872187230736019 2.2400035858154301 0.13000297546386722 0.39944916963577276 0.039999485015869148 37.483039855957038 109.49741363525392 2.139999628067017 0.28999936580657965 29.665274620056156 1.3000020980834963 35.822175979614265 0.21000009775161746 2.3399972915649419
decision_type=2 2 2 2 2 2 2 2 2 2 2 2 2 2 2
left_child=7 -2 3 13 5 -5 -7 -1 9 -9 -6 -4 -11 -3 -8
right_child=1 2 11 4 10 6 14 8 -10 12 -12 -13 -14 -15 -16
leaf_value=-0.20723133483650252 -0.18974381089286357 -0.12210597281371292 0.35738619080293765 -0.13799698091272355 -0.057358817534531009 0.15593394252195045 0.39828117811368657 -0.15633729337265201 -0.21201213925891463 0.011163956317602393 0.24092695891144655 -0.18983027289832982 0.39811061558090638 0.14915917548136157 -0.27802094959976353
leaf_weight=13008.058597147465 5365.8905467316508 715.14837681502104 97.468100875616074 142.99862298369408 549.99936980009079 581.05266214907169 10559.603891074657 695.06602974236012 1069.3009396195412 296.46809054911137 758.53509214520454 2980.6172222346067 311.17384776473045 491.65867166221142 45.731102019548416
leaf_count=88579 35844 3976 465 729 2845 2426 42008 4254 6963 1710 3490 19963 1608 2520 212
internal_value=0 0.127955 0.228691 0.317887 0.34935 0.376353 0.382928 -0.188806 -0.0877645 0.0142216 0.115552 -0.172503 0.20932 -0.0115913 0.395365
internal_weight=0 22288.7 16922.8 13844.7 12637.9 11329.4 11186.4 15380.1 2372.01 1302.71 1308.53 3078.09 607.642 1206.81 10605.3
internal_count=217592 114478 78634 58206 51710 45375 44646 103114 14535 7572 6335 20428 3318 6496 42220
is_linear=0
shrinkage=0.2


Tree=42
num_leaves=1
num_cat=0
split_feature=
split_gain=
threshold=
decision_type=
left_child=
right_child=
leaf_value=0
leaf_weight=0
leaf_count=0
internal_value=
internal_weight=
internal_count=
is_linear=0
shrinkage=1


Tree=43
num_leaves=16
num_cat=0
split_feature=76 118 7 98 118 49 16 18 119 56 16 49 115 16 97
split_gain=39156.5 4807.87 2138.72 850.364 416.166 377.872 355.946 305.454 562.689 802.903 305.996 297.772 273.431 270.347 258.224
threshold=0.34999895095825201 1.4300012588500979 0.11339277029037477 68.204998016357436 0.66999888420104992 0.055290400981903083 168.86225128173831 5.1257569789886483 7.5900003910064706 1.0900003910064699 231.00313568115237 0.025122821331024173 356.71894836425787 209.9018478393555 0.86000156402587902
decision_type=2 2 2 2 2 2 2 2 2 2 2 2 2 2 2
left_child=1 2 7 4 5 -2 -4 8 9 10 -1 -9 -12 -13 -5
right_child=3 -3 6 14 -6 -7 -8 11 -10 -11 12 13 -14 -15 -16
leaf_value=0.27690212836190542 0.063875775791766509 -0.19075353796467073 0.13256522850001443 0.26022596998590147 -0.21302200316152212 -0.15867989413145961 -0.05197353459760843 0.29539005919702777 0.29733163306815613 -0.26402328557785254 -0.15240913431347111 0.25243764798309931 0.17218611010610405 0.07746824254948402 -0.1572015678594918
leaf_weight=563.50101707875729 378.47207306325436 1086.2812286093831 758.95294715464115 208.27825859189034 17037.462535947561 1575.3824260756373 930.89976110309362 10151.005019277334 1279.7294726669788 195.49911023676395 161.7262155264616 1421.4723247140646 289.85210604965687 470.03048285096884 82.861431866884232
leaf_count=2225 1776 7876 3294 872 129952 10106 4758 40787 5155 921 725 5652 1201 1890 402
internal_value=0 0.21659 0.243866 -0.197796 -0.202996 -0.11557 0.0309072 0.268629 0.204867 0.107121 0.178601 0.281814 0.055937 0.208958 0.141422
internal_weight=0 17308.9 16222.7 19282.5 18991.3 1953.85 1689.85 14532.8 2490.31 1210.58 1015.08 12042.5 451.578 1891.5 291.14
internal_count=217592 74484 66608 143108 141834 11882 8052 58556 10227 5072 4151 48329 1926 7542 1274
is_linear=0
shrinkage=0.2


Tree=44
num_leaves=16
num_cat=0
split_feature=20 16 118 20 47 76 18 118 16 18 118 16 118 110 91
split_gain=12714 11992.6 6208.83 1955.56 1520.86 1075.57 937.731 821.587 653.948 630.999 583.072 542.506 391.257 387.346 317.956
threshold=50.245096206665046 179.70291900634768 0.68000125885009777 11.958138942718508 0.0029365473892539744 0.25000002980232244 20.305809974670414 3.2899951934814458 38.188652038574226 43.29066467285157 1.4799996614456179 220.81128692626956 3.3299987316131596 0.12481007352471353 0.35657200217247015
decision_type=2 2 2 2 2 2 2 2 2 2 2 2 2 2 2
left_child=1 2 5 11 -4 -1 7 14 -8 -2 -11 -3 -5 -14 -6
right_child=9 3 4 12 6 -7 8 -9 -10 10 -12 -13 13 -15 -16
leaf_value=-0.17251162783490875 -0.19411493603046434 0.28285990841538189 -0.074614692229060212 -0.19334916462831772 -0.07380514997916475 0.078116339775573557 -0.1534587362357096 0.2416736182642914 0.29518723723661067 -0.16114506250814287 0.24904863951649234 -0.075607486602868201 -0.15431644997320304 0.071284632191768157 0.15960005093490282
leaf_weight=1846.4479672387242 10029.232593588531 527.85772161930799 572.83139701932669 5047.0428355112672 638.34173195809126 1088.8013874664903 131.82573004066944 1618.9192973524332 9161.7830121219158 306.9574281051755 252.74581705033779 248.31831619888544 818.71660330891609 484.61704821139574 368.0667854771018
leaf_count=15230 85583 2619 3056 41930 3407 5863 633 6691 37116 2406 1033 1551 5590 3174 1710
internal_value=0 0.0830808 0.182204 -0.131494 0.243709 -0.0795437 0.259007 0.153459 0.288823 -0.182581 0.0240866 0.168177 -0.168122 -0.0704315 0.0115565
internal_weight=0 22553.6 15427 7126.55 12491.8 2935.25 11918.9 2625.33 9293.61 10588.9 559.703 776.176 6350.38 1303.33 1006.41
internal_count=217592 128570 73706 54864 52613 21093 49557 11808 37749 89022 3439 4170 50694 8764 5117
is_linear=0
shrinkage=0.2


Tree=45
num_leaves=1
num_cat=0
split_feature=
split_gain=
threshold=
decision_type=
left_child=
right_child=
leaf_value=0
leaf_weight=0
leaf_count=0
internal_value=
internal_weight=
internal_count=
is_linear=0
shrinkage=1


Tree=46
num_leaves=1
num_cat=0
split_feature=
split_gain=
threshold=
decision_type=
left_child=
right_child=
leaf_value=0
leaf_weight=0
leaf_count=0
internal_value=
internal_weight=
internal_count=
is_linear=0
shrinkage=1


Tree=47
num_leaves=16
num_cat=0
split_feature=118 20 16 70 15 18 115 106 117 7 18 89 20 16 117
split_gain=13714 5606.45 5000.37 3048.44 2498.47 2314.47 1033.66 1071.41 968.199 865.299 845.474 783.654 775.436 647.417 575.281
threshold=2.00000011920929 51.662399291992195 147.16988372802737 0.22273337841033938 52.565790176391609 6.5662896633148202 301.63645935058599 0.89103505015373241 8.4600019454956072 0.85500732064247142 10.421048164367678 1.4746508895768786e-05 14.240618705749513 220.81128692626956 7.8300011157989511
decision_type=2 2 2 2 2 2 2 2 2 2 2 2 2 2 2
left_child=3 2 4 5 8 6 7 -1 -2 14 -6 -8 13 -4 -5
right_child=1 -3 12 9 10 -7 11 -9 -10 -11 -12 -13 -14 -15 -16
leaf_value=0.41268767038420906 0.27542650929751428 0.26186106686109839 -0.15574599261207978 0.09472260135682771 0.19131290554667779 -0.18165223280716686 0.22172985712296256 -0.083285988419216028 -0.028927950064655563 0.20362223213749886 -0.18687064208636195 -0.11170466031982372 0.23539949045007075 0.27947444067601424 -0.095335264486925961
leaf_weight=455.05207794904709 838.60279133915901 7589.7656663879752 403.33331566303968 1168.8765511587262 251.22224514186382 13429.214139744639 340.30183143168688 282.30017828196287 833.75413746386766 1092.7008975148201 4023.6193141341209 1644.1083696037531 3642.6470544338226 206.82564111053944 1400.1072088330984
leaf_count=1931 3385 30742 2285 5531 1033 97468 1488 1713 4214 4802 30082 10330 14621 805 7162
internal_value=0 0.131702 0.0348512 -0.110214 -0.0835653 -0.147568 0.0206055 0.222801 0.12369 0.054548 -0.164646 -0.0545248 0.200447 -0.00821928 -0.00885975
internal_weight=0 17789.8 10200 19812.7 5947.2 16151 2721.76 737.352 1672.36 3661.68 4274.84 1984.41 4252.81 610.159 2568.98
internal_count=217592 87167 56425 130425 38714 112930 15462 3644 7599 17495 31115 11818 17711 3090 12693
is_linear=0
shrinkage=0.2


Tree=48
num_leaves=1
num_cat=0
split_feature=
split_gain=
threshold=
decision_type=
left_child=
right_child=
leaf_value=0
leaf_weight=0
leaf_count=0
internal_value=
internal_weight=
internal_count=
is_linear=0
shrinkage=1


Tree=49
num_leaves=1
num_cat=0
split_feature=
split_gain=
threshold=
decision_type=
left_child=
right_child=
leaf_value=0
leaf_weight=0
leaf_count=0
internal_value=
internal_weight=
internal_count=
is_linear=0
shrinkage=1


Tree=50
num_leaves=1
num_cat=0
split_feature=
split_gain=
threshold=
decision_type=
left_child=
right_child=
leaf_value=0
leaf_weight=0
leaf_count=0
internal_value=
internal_weight=
internal_count=
is_linear=0
shrinkage=1


Tree=51
num_leaves=1
num_cat=0
split_feature=
split_gain=
threshold=
decision_type=
left_child=
right_child=
leaf_value=0
leaf_weight=0
leaf_count=0
internal_value=
internal_weight=
internal_count=
is_linear=0
shrinkage=1


Tree=52
num_leaves=1
num_cat=0
split_feature=
split_gain=
threshold=
decision_type=
left_child=
right_child=
leaf_value=0
leaf_weight=0
leaf_count=0
internal_value=
internal_weight=
internal_count=
is_linear=0
shrinkage=1


Tree=53
num_leaves=1
num_cat=0
split_feature=
split_gain=
threshold=
decision_type=
left_child=
right_child=
leaf_value=0
leaf_weight=0
leaf_count=0
internal_value=
internal_weight=
internal_count=
is_linear=0
shrinkage=1


Tree=54
num_leaves=1
num_cat=0
split_feature=
split_gain=
threshold=
decision_type=
left_child=
right_child=
leaf_value=0
leaf_weight=0
leaf_count=0
internal_value=
internal_weight=
internal_count=
is_linear=0
shrinkage=1


Tree=55
num_leaves=1
num_cat=0
split_feature=
split_gain=
threshold=
decision_type=
left_child=
right_child=
leaf_value=0
leaf_weight=0
leaf_count=0
internal_value=
internal_weight=
internal_count=
is_linear=0
shrinkage=1


Tree=56
num_leaves=1
num_cat=0
split_feature=
split_gain=
threshold=
decision_type=
left_child=
right_child=
leaf_value=0
leaf_weight=0
leaf_count=0
internal_value=
internal_weight=
internal_count=
is_linear=0
shrinkage=1


Tree=57
num_leaves=1
num_cat=0
split_feature=
split_gain=
threshold=
decision_type=
left_child=
right_child=
leaf_value=0
leaf_weight=0
leaf_count=0
internal_value=
internal_weight=
internal_count=
is_linear=0
shrinkage=1


Tree=58
num_leaves=1
num_cat=0
split_feature=
split_gain=
threshold=
decision_type=
left_child=
right_child=
leaf_value=0
leaf_weight=0
leaf_count=0
internal_value=
internal_weight=
internal_count=
is_linear=0
shrinkage=1


Tree=59
num_leaves=1
num_cat=0
split_feature=
split_gain=
threshold=
decision_type=
left_child=
right_child=
leaf_value=0
leaf_weight=0
leaf_count=0
internal_value=
internal_weight=
internal_count=
is_linear=0
shrinkage=1


Tree=60
num_leaves=1
num_cat=0
split_feature=
split_gain=
threshold=
decision_type=
left_child=
right_child=
leaf_value=0
leaf_weight=0
leaf_count=0
internal_value=
internal_weight=
internal_count=
is_linear=0
shrinkage=1


Tree=61
num_leaves=1
num_cat=0
split_feature=
split_gain=
threshold=
decision_type=
left_child=
right_child=
leaf_value=0
leaf_weight=0
leaf_count=0
internal_value=
internal_weight=
internal_count=
is_linear=0
shrinkage=1


Tree=62
num_leaves=16
num_cat=0
split_feature=16 47 118 118 97 20 95 117 76 12 96 16 96 70 26
split_gain=14337.2 10274 8587.75 2286.69 1323.92 1073.63 696.212 573.344 488.23 600.423 476.794 442.136 586.113 441.606 374.262
threshold=133.39736175537112 0.0055153386201709518 2.2999994754791264 0.2299996614456177 2.3399972915649419 12.486021041870119 39.678318023681648 30.005000114440922 0.29499816894531256 0.28000044822692877 1.3000020980834963 101.48734664916994 29.82499980926514 0.01377186179161072 0.036331763491034515
decision_type=2 2 2 2 2 2 2 2 2 2 2 2 2 2 2
left_child=11 -2 3 14 5 7 -7 -5 9 -8 -4 -1 -13 -14 -3
right_child=1 2 10 4 -6 6 8 -9 -10 -11 -12 12 13 -15 -16
leaf_value=-0.1951929445585088 -0.19087321629187201 -0.11977080350457725 0.26105516730032963 -0.16231720263523322 -0.22722899990946119 0.12423011402263989 -0.1274436726895663 0.30482168040160917 0.29964842340607112 0.25093371020074962 -0.17505465403535173 -0.14510039409629341 -0.18274826165097693 0.26350887784579424 0.089998382059573237
leaf_weight=9687.5198136270046 4002.253217369318 712.29000328481197 104.21916936337948 356.4471146017313 226.00426200777292 1144.1513632982969 239.70615839213133 149.03763563930988 10366.836838617921 558.84037625789642 2650.6057979017496 1791.6355129852891 130.47235329449177 277.04862524569035 651.29359699785709
leaf_count=83449 33563 4563 467 1732 1245 4909 1358 606 41661 2311 22152 13722 957 1566 3331
internal_value=0 0.097678 0.16498 0.226854 0.252622 0.261084 0.272815 -0.0245855 0.288041 0.137353 -0.158556 -0.176815 -0.0958576 0.120635 -0.019578
internal_weight=0 21161.7 17159.4 14404.6 13041 12815 12309.5 505.485 11165.4 798.547 2754.82 11886.7 2199.16 407.521 1363.58
internal_count=217592 117898 84335 61716 53822 52577 50239 2338 45330 3669 22619 99694 16245 2523 7894
is_linear=0
shrinkage=0.2


Tree=63
num_leaves=1
num_cat=0
split_feature=
split_gain=
threshold=
decision_type=
left_child=
right_child=
leaf_value=0
leaf_weight=0
leaf_count=0
internal_value=
internal_weight=
internal_count=
is_linear=0
shrinkage=1


Tree=64
num_leaves=16
num_cat=0
split_feature=97 28 97 49 118 55 16 18 86 119 20 26 65 118 10
split_gain=24636.5 2460.66 899.251 836.923 734.047 429.139 227.984 206.8 418.431 331.334 262.95 227.929 180.836 174.751 168.613
threshold=0.45999932289123541 0.050702601671218879 0.79000002145767223 0.029705852270126346 2.3500013351440434 0.3199987411499024 214.07646179199222 5.6607711315155038 0.99997189640998851 7.8000006675720224 64.128967285156264 0.027467570267617706 0.98949587345123302 0.79000067710876476 0.69226190447807323
decision_type=2 2 2 2 2 2 2 2 2 2 2 2 2 2 2
left_child=1 4 3 12 7 6 14 8 13 10 -10 -9 -2 -1 -3
right_child=2 5 -4 -5 -6 -7 -8 11 9 -11 -12 -13 -14 -15 -16
leaf_value=0.21502474683665673 0.034012094639606132 0.12273917677313702 -0.20160949409078013 -0.13669026508898902 -0.20546239981825024 -0.11561514523833093 -0.045229932139221829 0.24504070210509515 0.355701569464134 0.28048038004029885 -0.21030380872167442 0.137194669294365 0.25293046630572608 -0.19105205122370719 -0.15669698568172158
leaf_weight=1999.7773624956608 331.22309336066246 1259.0197395309806 13026.973555069417 1846.1465769708157 162.49815656244755 802.40152217447758 592.36871775239706 8858.5661639273167 37.952456712722778 106.3498347401619 243.32485762238503 859.98351038247347 277.28502546995878 43.308113358914852 92.736432954668999
leaf_count=8951 1707 5505 128216 14984 1477 5343 2828 41106 155 455 1290 3698 1241 232 404
internal_value=0 0.178614 -0.180686 -0.0696435 0.2168 0.00744102 0.0582302 0.222448 0.170273 -0.0202343 -0.133933 0.235498 0.133769 0.206417 0.103569
internal_weight=0 15058.3 15481.6 2454.65 12311.8 2746.53 1944.12 12149.3 2430.71 387.627 281.277 9718.55 608.508 2043.09 1351.76
internal_count=217592 71444 146148 17932 57364 14080 8737 55887 11083 1900 1445 44804 2948 9183 5909
is_linear=0
shrinkage=0.2


Tree=65
num_leaves=16
num_cat=0
split_feature=20 16 118 18 89 20 55 15 10 18 118 117 110 15 20
split_gain=8180.67 6960.5 3728.34 1172.66 948.632 905.269 795.474 754.384 658.114 466.263 372.169 368.394 329.262 315.453 296.614
threshold=50.713560104370124 199.66645050048831 0.81999999284744274 22.873151779174808 0.066394709050655379 7.7442069053649911 0.17000389099121097 32.04651069641114 0.45034442842006689 43.29066467285157 2.2999994754791264 6.8300001621246347 0.13119239360094073 207.74858856201175 20.180501937866214
decision_type=2 2 2 2 2 2 2 2 2 2 2 2 2 2 2
left_child=1 2 6 4 -4 -3 -1 -5 11 -2 -11 -6 -7 -9 -15
right_child=9 5 3 7 8 12 -8 13 -10 10 -12 -13 -14 14 -16
leaf_value=-0.1512606486859685 -0.18268822890035868 0.28593430828723171 -0.10193177747585194 -0.06345125543807166 -0.020458848847117187 -0.18310278440052374 0.046484237149351709 0.25112602166817943 -0.10150915889170152 -0.12097078607911778 0.24735935420464289 0.20920045141653901 -0.06245996667174384 0.31312121257542702 -0.10427740320817913
leaf_weight=1664.2360192909837 7655.1376866325736 195.2934877127409 775.8882579728961 335.27499527484179 317.75998301059008 3655.2790556550026 1592.2407917119563 7416.3378655165434 375.68890564143658 277.08401294797659 181.67722329497337 2313.4711206406355 1202.6146904043853 104.74044346064329 194.6735663190484
leaf_count=16790 84069 903 4306 1689 1625 37277 9181 33642 1942 2509 731 10507 10799 465 1157
internal_value=0 0.0669014 0.134934 0.187083 0.0952347 -0.136264 -0.0545741 0.230239 0.14611 -0.170951 0.0248942 0.181466 -0.153237 0.243001 0.0417362
internal_weight=0 20143.5 15090.3 11833.8 3782.81 5053.19 3256.48 8051.03 3006.92 8113.9 458.761 2631.23 4857.89 7715.75 299.414
internal_count=217592 130283 81304 55333 18380 48979 25971 36953 14074 87309 3240 12132 48076 35264 1622
is_linear=0
shrinkage=0.2


Tree=66
num_leaves=1
num_cat=0
split_feature=
split_gain=
threshold=
decision_type=
left_child=
right_child=
leaf_value=0
leaf_weight=0
leaf_count=0
internal_value=
internal_weight=
internal_count=
is_linear=0
shrinkage=1


Tree=67
num_leaves=1
num_cat=0
split_feature=
split_gain=
threshold=
decision_type=
left_child=
right_child=
leaf_value=0
leaf_weight=0
leaf_count=0
internal_value=
internal_weight=
internal_count=
is_linear=0
shrinkage=1


Tree=68
num_leaves=16
num_cat=0
split_feature=118 47 18 91 18 15 15 70 119 117 117 20 94 97 75
split_gain=7855.86 3817.76 2221.46 1960.87 1517.48 1279.74 1842.57 899.183 799.554 788.696 700.199 564.791 609.631 473.627 472.905
threshold=1.6300005912780764 0.013415228109806778 20.946855545043949 0.066765189170837416 7.2129859924316415 206.73759460449222 29.705882072448734 0.12105795741081239 7.5900003910064706 7.2100005149841317 29.714999198913578 54.688457489013679 92.394947052001967 2.0849990844726567 3.5800002813339238
decision_type=2 2 2 2 2 2 2 2 2 2 2 2 2 2 2
left_child=3 -2 9 4 8 6 -4 -5 14 -3 -9 -11 -13 -7 -1
right_child=1 2 5 7 -6 13 -8 10 -10 11 -12 12 -14 -15 -16
leaf_value=0.04337509794316146 0.22613686655040152 0.23070029461069119 0.21558264251628312 -0.088923197772901266 -0.18688067332430175 -0.042324772724860876 -0.18257767552446785 0.14783663066487049 -0.14164047979357788 -0.00063859039282602146 -0.08801461658993473 0.21458625812770188 -0.065900147600681427 0.1699731052546789 0.35199443590205881
leaf_weight=1020.9148593097925 6024.2100412845612 1702.6676120012999 541.91708923131227 2137.577938310802 8288.0420418456197 721.04701878130436 3271.6853739321232 1923.3520152568817 918.5489736944437 2169.2480181828141 682.06081660836935 1376.8552543744445 400.00817516446114 1007.9338749423623 246.5704338401556
leaf_count=6255 27850 7980 2456 18033 74904 3922 29898 9724 7291 11371 4003 6461 2153 4298 993
internal_value=0 0.0977664 0.0286658 -0.0994722 -0.147784 -0.0612901 -0.125999 0.00721703 0.000443719 0.11693 0.0860941 0.0678411 0.151443 0.0814373 0.103412
internal_weight=0 17215.6 11191.4 15217.1 10474.1 5542.58 3813.6 4742.99 2186.03 5648.78 2605.41 3946.11 1776.86 1728.98 1267.49
internal_count=217592 96389 68539 121203 89443 40574 32354 31760 14539 27965 13727 19985 8614 8220 7248
is_linear=0
shrinkage=0.2


Tree=69
num_leaves=1
num_cat=0
split_feature=
split_gain=
threshold=
decision_type=
left_child=
right_child=
leaf_value=0
leaf_weight=0
leaf_count=0
internal_value=
internal_weight=
internal_count=
is_linear=0
shrinkage=1


Tree=70
num_leaves=1
num_cat=0
split_feature=
split_gain=
threshold=
decision_type=
left_child=
right_child=
leaf_value=0
leaf_weight=0
leaf_count=0
internal_value=
internal_weight=
internal_count=
is_linear=0
shrinkage=1


Tree=71
num_leaves=1
num_cat=0
split_feature=
split_gain=
threshold=
decision_type=
left_child=
right_child=
leaf_value=0
leaf_weight=0
leaf_count=0
internal_value=
internal_weight=
internal_count=
is_linear=0
shrinkage=1


Tree=72
num_leaves=1
num_cat=0
split_feature=
split_gain=
threshold=
decision_type=
left_child=
right_child=
leaf_value=0
leaf_weight=0
leaf_count=0
internal_value=
internal_weight=
internal_count=
is_linear=0
shrinkage=1


Tree=73
num_leaves=1
num_cat=0
split_feature=
split_gain=
threshold=
decision_type=
left_child=
right_child=
leaf_value=0
leaf_weight=0
leaf_count=0
internal_value=
internal_weight=
internal_count=
is_linear=0
shrinkage=1


Tree=74
num_leaves=1
num_cat=0
split_feature=
split_gain=
threshold=
decision_type=
left_child=
right_child=
leaf_value=0
leaf_weight=0
leaf_count=0
internal_value=
internal_weight=
internal_count=
is_linear=0
shrinkage=1


Tree=75
num_leaves=1
num_cat=0
split_feature=
split_gain=
threshold=
decision_type=
left_child=
right_child=
leaf_value=0
leaf_weight=0
leaf_count=0
internal_value=
internal_weight=
internal_count=
is_linear=0
shrinkage=1


Tree=76
num_leaves=1
num_cat=0
split_feature=
split_gain=
threshold=
decision_type=
left_child=
right_child=
leaf_value=0
leaf_weight=0
leaf_count=0
internal_value=
internal_weight=
internal_count=
is_linear=0
shrinkage=1


Tree=77
num_leaves=1
num_cat=0
split_feature=
split_gain=
threshold=
decision_type=
left_child=
right_child=
leaf_value=0
leaf_weight=0
leaf_count=0
internal_value=
internal_weight=
internal_count=
is_linear=0
shrinkage=1


Tree=78
num_leaves=1
num_cat=0
split_feature=
split_gain=
threshold=
decision_type=
left_child=
right_child=
leaf_value=0
leaf_weight=0
leaf_count=0
internal_value=
internal_weight=
internal_count=
is_linear=0
shrinkage=1


Tree=79
num_leaves=1
num_cat=0
split_feature=
split_gain=
threshold=
decision_type=
left_child=
right_child=
leaf_value=0
leaf_weight=0
leaf_count=0
internal_value=
internal_weight=
internal_count=
is_linear=0
shrinkage=1


Tree=80
num_leaves=1
num_cat=0
split_feature=
split_gain=
threshold=
decision_type=
left_child=
right_child=
leaf_value=0
leaf_weight=0
leaf_count=0
internal_value=
internal_weight=
internal_count=
is_linear=0
shrinkage=1


Tree=81
num_leaves=1
num_cat=0
split_feature=
split_gain=
threshold=
decision_type=
left_child=
right_child=
leaf_value=0
leaf_weight=0
leaf_count=0
internal_value=
internal_weight=
internal_count=
is_linear=0
shrinkage=1


Tree=82
num_leaves=1
num_cat=0
split_feature=
split_gain=
threshold=
decision_type=
left_child=
right_child=
leaf_value=0
leaf_weight=0
leaf_count=0
internal_value=
internal_weight=
internal_count=
is_linear=0
shrinkage=1


Tree=83
num_leaves=16
num_cat=0
split_feature=16 47 118 118 95 97 117 20 117 12 75 75 33 96 16
split_gain=9127.67 6183.54 4842.27 1390.77 885.089 522.842 521.032 473.544 633.532 444.369 402.703 400.622 382.674 374.69 354.658
threshold=129.29311370849612 0.0055153386201709518 2.2999994754791264 0.36000156402587896 39.678318023681648 2.389999628067017 9.8200006484985369 17.611133575439457 30.005000114440922 66.255001068115249 1.8299999833106997 1.7700014114379885 0.44000017642974859 1.3000020980834963 97.077808380126967
decision_type=2 2 2 2 2 2 2 2 2 2 2 2 2 2 2
left_child=14 -2 3 6 9 7 10 8 -6 11 12 -5 -3 -4 -1
right_child=1 2 13 4 5 -7 -8 -9 -10 -11 -12 -13 -14 -15 -16
leaf_value=-0.18408138496263418 -0.17566177343899392 -0.10482000511176025 0.2232610483409746 0.14967133934876806 -0.04858495130156245 -0.22458117564547503 0.18667497250719089 0.24232364379859062 0.27547951734235954 0.25108672102817969 -0.19680412483819487 -0.11974503354360749 0.14812910840658919 -0.1566179897637969 -0.088925122160176284
leaf_weight=7246.59353774786 3167.0038566999137 445.29871371388435 109.07162034511566 346.82973363995552 541.81590800732374 103.14465410262346 551.48901355266571 9035.4465082213283 435.06738834828138 318.23498146981001 457.75528302043676 607.43461519479752 516.97621301561594 2172.885812073946 1998.9029303193092
leaf_count=80029 33932 3330 469 1492 2586 670 2841 40336 1920 1260 2614 3012 2338 22808 17955
internal_value=0 0.0791891 0.13079 0.176781 0.203631 0.223407 0.0216909 0.228022 0.0957413 0.0464266 -0.042383 -0.021825 0.0310753 -0.138461 -0.163508
internal_weight=0 18808.5 15641.5 13359.5 11388 10115.5 1971.52 10012.3 976.883 1272.5 1420.03 954.264 962.275 2281.96 9245.5
internal_count=217592 119608 85676 62399 51276 45512 11123 44842 4506 5764 8282 4504 5668 23277 97984
is_linear=0
shrinkage=0.2


Tree=84
num_leaves=1
num_cat=0
split_feature=
split_gain=
threshold=
decision_type=
left_child=
right_child=
leaf_value=0
leaf_weight=0
leaf_count=0
internal_value=
internal_weight=
internal_count=
is_linear=0
shrinkage=1


Tree=85
num_leaves=16
num_cat=0
split_feature=76 118 49 76 34 117 116 20 68 107 16 115 118 118 16
split_gain=16134.6 1923.84 1305.47 440.19 342.896 324.599 252.288 188.276 397.293 167.727 166.687 148.391 132.647 128.439 197.618
threshold=0.37999820709228521 2.0900011062622075 0.036119371652603156 0.60000133514404308 0.11000156402587892 68.819999694824233 157.76402282714847 65.765460968017592 2.7433942705101803e-05 0.95967954397201549 214.07646179199222 400.76249694824224 0.90999889373779308 1.3499999642372134 129.29311370849612
decision_type=2 2 2 2 2 2 2 2 2 2 2 2 2 2 2
left_child=1 2 6 5 10 13 -1 -8 9 -9 -4 -11 -10 14 -2
right_child=3 -3 4 -5 -6 -7 7 8 12 11 -12 -13 -14 -15 -16
leaf_value=0.093854593599718594 0.02070608148270767 -0.19551473297060701 0.14941598398366737 -0.19343432417262377 -0.031615014823438113 0.20466452000759958 0.22159944302382956 0.16209090122774686 0.20691124682850362 -0.28985138725548759 0.0020366490997599709 0.0057423305915524176 -0.11338764181690419 -0.19774673652170177 -0.13914056008839687
leaf_weight=887.95968229696155 494.17670968174934 634.04312042891979 1077.7846567183733 9819.0743967592716 1340.083661865443 139.15498644113541 6916.9408056586981 139.26534689962864 1655.4805892333388 108.59784270823002 429.20718380063772 181.41436396539211 53.386529020965099 507.31970610097051 827.26860209181905
leaf_count=4738 2805 7610 4935 123280 7504 744 38292 740 8958 639 1813 1009 317 6312 7896
internal_value=0 0.14454 0.161398 -0.176131 0.0419889 -0.0897978 0.195589 0.205565 0.153695 -0.0183141 0.107441 -0.104946 0.196905 -0.112204 -0.0793632
internal_weight=0 13424.2 12790.1 11787 2847.08 1967.92 9943.05 9055.09 2138.14 429.278 1506.99 290.012 1708.87 1828.77 1321.45
internal_count=217592 76555 68945 141037 14252 17757 54693 49955 11663 2388 6748 1648 9275 17013 10701
is_linear=0
shrinkage=0.2


Tree=86
num_leaves=16
num_cat=0
split_feature=95 20 16 18 16 68 20 20 15 17 16 97 91 16 56
split_gain=5669.1 3067.96 1662.24 1192.48 989.013 1234.65 697.391 654.006 628.464 593.936 429.393 362.162 357.887 333.981 332.826
threshold=45.450510025024421 56.16639709472657 143.1603698730469 29.348990440368656 208.0392990112305 0.0041705444455146798 15.844579696655275 27.194172859191898 57.165178298950202 1.308616638183594 42.985900878906257 0.70000010728836071 0.35657200217247015 222.39414978027347 3.190000176429749
decision_type=2 2 2 2 2 2 2 2 2 2 2 2 2 2 2
left_child=1 2 8 7 5 -5 13 -2 9 -1 -11 -7 -9 -4 -8
right_child=3 -3 6 4 -6 11 14 12 -10 10 -12 -13 -14 -15 -16
leaf_value=0.26753176170065868 -0.00045065363016077168 -0.1696943691167021 0.21248423746035808 -0.17840341284694297 -0.15983579124882175 0.0040314056327366938 -0.012512056301549251 -0.18769809829426576 0.2132205657006972 -0.1644941535410552 0.085174595969482972 0.18032641723661169 -0.04401682909882787 -0.1150532409044796 -0.20137104427313141
leaf_weight=472.97925905138254 1051.8485049419105 1531.2942540571094 726.34314558655024 707.16137413680553 1282.472218580544 675.26719304919243 1623.8465495109558 5749.3148481808603 5940.8728261999786 406.49250870943069 855.32216536253691 1504.7792392112315 788.54167680069804 150.29256600886583 484.65303123369813
leaf_count=2138 8411 20783 3850 9379 16416 5309 14560 75477 32997 2897 4771 8180 6938 1222 4264
internal_value=0 0.0950222 0.133045 -0.0996132 -0.0136872 0.0512307 0.00640912 -0.14682 0.182295 0.0763912 0.00474402 0.125719 -0.170368 0.15633 -0.0559226
internal_weight=0 12192.1 10660.8 11759.4 4169.68 2887.21 2985.14 7589.71 7675.67 1734.79 1261.81 2180.05 6537.86 876.636 2108.5
internal_count=217592 87482 66699 130110 39284 22868 23896 90826 42803 9806 7668 13489 82415 5072 18824
is_linear=0
shrinkage=0.2


Tree=87
num_leaves=1
num_cat=0
split_feature=
split_gain=
threshold=
decision_type=
left_child=
right_child=
leaf_value=0
leaf_weight=0
leaf_count=0
internal_value=
internal_weight=
internal_count=
is_linear=0
shrinkage=1


Tree=88
num_leaves=1
num_cat=0
split_feature=
split_gain=
threshold=
decision_type=
left_child=
right_child=
leaf_value=0
leaf_weight=0
leaf_count=0
internal_value=
internal_weight=
internal_count=
is_linear=0
shrinkage=1


Tree=89
num_leaves=16
num_cat=0
split_feature=118 20 91 16 18 15 117 117 75 119 12 110 28 12 94
split_gain=4509.88 2141.89 1810.78 1700.48 1373.72 1303.66 919.778 792.336 756.816 554.226 516.941 451.538 432.402 431.59 400.965
threshold=2.0900011062622075 55.416912078857429 0.047184944152832038 139.44738769531253 7.2129859924316415 60.384614944458015 7.7599987983703622 29.454999923706058 1.7299996614456179 7.9100000858306894 7.1649999618530282 0.11570588499307634 0.7955167591571809 0.56999981403350841 88.740131378173842
decision_type=2 2 2 2 2 2 2 2 2 2 2 2 2 2 2
left_child=2 3 4 5 9 7 8 -2 -4 -1 -10 -5 -8 -13 -11
right_child=1 -3 6 11 -6 -7 12 -9 10 14 -12 13 -14 -15 -16
leaf_value=0.096342932187572727 0.13950429955060498 0.19884573214551526 -0.06486824619518565 0.1859431875904049 -0.17637227869766325 -0.14515872938661484 -0.089940314438065508 -0.17462649432008798 0.15522242376103068 0.17477563463303414 1.2292615889882317 -0.008244327302669446 0.087003324667686566 0.21895672237256375 -0.19660209256179365
leaf_weight=1235.4220640733838 1500.3649174496531 4691.986831471324 811.47727607935667 2217.9059609770775 6423.1765345707536 2613.2420340850949 2919.9897107966244 408.66114377230406 1914.9184348396957 144.94843742996454 18.094449937343597 1302.1788525208831 681.330780018121 450.0077805891633 588.11898320168257
leaf_count=7573 7369 26288 7742 10854 72897 29293 23118 2809 10155 844 137 6684 3630 2180 6019
internal_value=0 0.0903945 -0.070612 0.0304757 -0.131576 -0.0533782 0.0100059 0.072259 0.0972283 0.0145961 0.165276 0.125992 -0.0564645 0.0501069 -0.12317
internal_weight=0 13184.3 14737.5 8492.36 8391.67 4522.27 6345.81 1909.03 2744.49 1968.49 1933.01 3970.09 3601.32 1752.19 733.067
internal_count=217592 85477 132115 59189 87333 39471 44782 10178 18034 14436 10292 19718 26748 8864 6863
is_linear=0
shrinkage=0.2


Tree=90
num_leaves=1
num_cat=0
split_feature=
split_gain=
threshold=
decision_type=
left_child=
right_child=
leaf_value=0
leaf_weight=0
leaf_count=0
internal_value=
internal_weight=
internal_count=
is_linear=0
shrinkage=1


Tree=91
num_leaves=1
num_cat=0
split_feature=
split_gain=
threshold=
decision_type=
left_child=
right_child=
leaf_value=0
leaf_weight=0
leaf_count=0
internal_value=
internal_weight=
internal_count=
is_linear=0
shrinkage=1


Tree=92
num_leaves=1
num_cat=0
split_feature=
split_gain=
threshold=
decision_type=
left_child=
right_child=
leaf_value=0
leaf_weight=0
leaf_count=0
internal_value=
internal_weight=
internal_count=
is_linear=0
shrinkage=1


Tree=93
num_leaves=1
num_cat=0
split_feature=
split_gain=
threshold=
decision_type=
left_child=
right_child=
leaf_value=0
leaf_weight=0
leaf_count=0
internal_value=
internal_weight=
internal_count=
is_linear=0
shrinkage=1


Tree=94
num_leaves=1
num_cat=0
split_feature=
split_gain=
threshold=
decision_type=
left_child=
right_child=
leaf_value=0
leaf_weight=0
leaf_count=0
internal_value=
internal_weight=
internal_count=
is_linear=0
shrinkage=1


Tree=95
num_leaves=1
num_cat=0
split_feature=
split_gain=
threshold=
decision_type=
left_child=
right_child=
leaf_value=0
leaf_weight=0
leaf_count=0
internal_value=
internal_weight=
internal_count=
is_linear=0
shrinkage=1


Tree=96
num_leaves=1
num_cat=0
split_feature=
split_gain=
threshold=
decision_type=
left_child=
right_child=
leaf_value=0
leaf_weight=0
leaf_count=0
internal_value=
internal_weight=
internal_count=
is_linear=0
shrinkage=1


Tree=97
num_leaves=1
num_cat=0
split_feature=
split_gain=
threshold=
decision_type=
left_child=
right_child=
leaf_value=0
leaf_weight=0
leaf_count=0
internal_value=
internal_weight=
internal_count=
is_linear=0
shrinkage=1


Tree=98
num_leaves=1
num_cat=0
split_feature=
split_gain=
threshold=
decision_type=
left_child=
right_child=
leaf_value=0
leaf_weight=0
leaf_count=0
internal_value=
internal_weight=
internal_count=
is_linear=0
shrinkage=1


Tree=99
num_leaves=1
num_cat=0
split_feature=
split_gain=
threshold=
decision_type=
left_child=
right_child=
leaf_value=0
leaf_weight=0
leaf_count=0
internal_value=
internal_weight=
internal_count=
is_linear=0
shrinkage=1


Tree=100
num_leaves=1
num_cat=0
split_feature=
split_gain=
threshold=
decision_type=
left_child=
right_child=
leaf_value=0
leaf_weight=0
leaf_count=0
internal_value=
internal_weight=
internal_count=
is_linear=0
shrinkage=1


Tree=101
num_leaves=1
num_cat=0
split_feature=
split_gain=
threshold=
decision_type=
left_child=
right_child=
leaf_value=0
leaf_weight=0
leaf_count=0
internal_value=
internal_weight=
internal_count=
is_linear=0
shrinkage=1


Tree=102
num_leaves=1
num_cat=0
split_feature=
split_gain=
threshold=
decision_type=
left_child=
right_child=
leaf_value=0
leaf_weight=0
leaf_count=0
internal_value=
internal_weight=
internal_count=
is_linear=0
shrinkage=1


Tree=103
num_leaves=1
num_cat=0
split_feature=
split_gain=
threshold=
decision_type=
left_child=
right_child=
leaf_value=0
leaf_weight=0
leaf_count=0
internal_value=
internal_weight=
internal_count=
is_linear=0
shrinkage=1


Tree=104
num_leaves=16
num_cat=0
split_feature=118 55 16 70 26 117 65 118 94 56 76 16 19 77 117
split_gain=5977.26 6276.18 1536.67 1143.07 890.858 755.521 508.296 492.323 433.209 362.359 295.193 276.141 267.442 272.413 575.614
threshold=2.2999994754791264 0.18000125885009768 83.863872528076186 0.23598605394363406 0.028087143786251548 8.8899998664855975 0.99274441599845897 0.020002365112304691 59.03442573547364 0.32000041007995611 0.73000097274780285 200.75810241699222 95.882350921630874 0.20000010728836062 11.180001258850099
decision_type=2 2 2 2 2 2 2 2 2 2 2 2 2 2 2
left_child=1 4 -3 6 10 9 7 -4 -9 -5 -1 -6 -2 14 -14
right_child=12 2 3 5 11 -7 -8 8 -10 -11 -12 -13 13 -15 -16
leaf_value=-0.18551899583246284 -0.17778591020518372 -0.10439771571308587 -0.17554595619323193 0.17949509596352844 -0.070356542480231432 0.1409347922352244 -0.088888543838503045 -0.015219558292431719 0.21109159811193046 -0.12176123497067418 0.18427137459848497 0.11586141450868355 -0.12047030915959839 -0.099273264908347009 1.9705265722351553
leaf_weight=3748.0350788868964 5886.3991948738694 997.69412190467119 140.50275031104684 188.37333595752716 690.14241313189268 1336.4986366257071 258.17782178521156 352.71816307678819 8296.4531408026814 1049.5140816569328 88.384780041873455 591.5531165972352 11.608697324991228 31.392332825809717 9.6382170319557172
leaf_count=52825 81645 10525 826 905 5768 6580 1985 1922 44161 6313 624 2857 143 394 119
internal_value=0 0.0580386 0.133801 0.154248 -0.128771 0.0366616 0.187705 0.19583 0.201862 -0.0759181 -0.177 0.0155904 -0.173772 0.275031 0.828067
internal_weight=0 17738 12619.9 11622.2 5118.12 2574.39 9047.85 8789.67 8649.17 1237.89 3836.42 1281.7 5939.04 52.6392 21.2469
internal_count=217592 135291 73217 62692 62074 13798 48894 46909 46083 7218 53449 8625 82301 656 262
is_linear=0
shrinkage=0.2


Tree=105
num_leaves=1
num_cat=0
split_feature=
split_gain=
threshold=
decision_type=
left_child=
right_child=
leaf_value=0
leaf_weight=0
leaf_count=0
internal_value=
internal_weight=
internal_count=
is_linear=0
shrinkage=1


Tree=106
num_leaves=16
num_cat=0
split_feature=76 118 7 97 96 68 115 119 16 106 16 118 47 63 54
split_gain=10496.8 1209.69 993.952 450.592 281.786 253.312 244.062 809.171 163.994 162.839 157.351 217.494 191.986 156.95 125.817
threshold=0.37999820709228521 2.3500013351440434 0.045775175094604499 0.86000156402587902 68.674999237060561 0.010810811538249256 295.69136047363287 5.1949996948242196 199.66645050048831 0.86289137601852428 211.56378173828128 0.79000067710876476 0.039553327485919006 0.14078909158706668 67.354999542236342
decision_type=2 2 2 2 2 2 2 2 2 2 2 2 2 2 2
left_child=1 2 6 4 8 -4 7 -1 13 -9 -8 12 -12 -2 -15
right_child=3 -3 5 -5 -6 -7 10 9 -10 -11 11 -13 -14 14 -16
leaf_value=-0.31325498404981755 0.091517486486417582 -0.19795501675210248 0.15821307851999536 -0.18923875700330958 0.18421953304416594 -0.0096239247810838754 0.20302096704628703 -0.084728457585132311 -0.1697257730879988 0.16628602453858235 0.17353443678032496 -0.15401417474715706 -0.013356935176408742 -0.1164389253771079 0.11352861215088746
leaf_weight=172.73695943132043 229.75939946249127 455.26352454721928 440.30458706989884 7054.7426463048905 143.67487373948097 1964.8839533813298 4770.4920822679996 112.53481998294592 905.22911201789975 1270.2141629084945 1917.4532088413835 96.996286068111658 248.33833926171064 890.01883486658335 106.55576128512621
leaf_count=1013 1625 7155 2507 117345 772 10607 32420 619 12008 7851 12640 634 1109 8335 952
internal_value=0 0.121511 0.13474 -0.164278 -0.086884 0.0211011 0.166563 0.0948728 -0.105157 0.145857 0.182418 0.138983 0.152105 -0.0574955 -0.0918503
internal_weight=0 11449.2 10994 9329.98 2275.24 2405.19 8588.77 1555.49 2131.56 1382.75 7033.28 2262.79 2165.79 1226.33 996.575
internal_count=217592 76555 69400 141037 23692 13114 56286 9483 22920 8470 46803 14383 13749 10912 9287
is_linear=0
shrinkage=0.2


Tree=107
num_leaves=16
num_cat=0
split_feature=118 20 16 18 20 68 65 26 20 91 117 16 96 15 110
split_gain=3789.94 1949.73 1506.22 1463.32 1079.21 968.559 893.098 481.88 389.091 352.245 302.696 234.937 228.903 210.201 263.265
threshold=3.2899951934814458 57.146675109863288 202.84024810791018 31.456521034240726 26.680038452148441 0.0046158758923411378 0.99461540579795849 0.010833845473825933 12.941174983978273 0.41831398010253912 29.554999351501468 59.777536392211921 29.785000801086429 173.50876617431643 0.080233529210090651
decision_type=2 2 2 2 2 2 2 2 2 2 2 2 2 2 2
left_child=2 5 3 4 12 -2 11 10 -4 -6 -7 -5 -1 -9 -15
right_child=1 -3 8 6 9 7 -8 13 -10 -11 -12 -13 -14 14 -16
leaf_value=0.13294481049273277 -0.19512905347807163 -0.16445144394447592 0.028983667173561961 -0.026222006351736372 -0.15116050828335373 0.0046678774051515512 -0.15215810478299335 0.21532303854663379 -0.18532439585658086 0.0097868576019263433 0.21899678981610449 0.15730978095762443 -0.075564222984767185 -0.066476861765232279 0.1704060261132094
leaf_weight=938.62717238813639 311.37102135270834 897.62152792140841 372.86539527028799 316.40791222825646 3694.4825848210603 1008.9319040849805 514.33528774231672 4012.6873832158744 3716.8319547958672 637.8269701115787 356.78135250508785 2359.1982962042093 271.52404311671853 245.75076811015606 793.99447390809655
leaf_count=5479 3202 17154 2800 2215 48155 7289 8805 27129 64554 4648 2125 14524 1798 2316 5399
internal_value=0 0.112422 -0.0656206 -0.0187098 -0.0808214 0.149353 0.0892079 0.166065 -0.165786 -0.127465 0.0606595 0.135606 0.0861612 0.194558 0.114417
internal_weight=0 7627.14 12822.1 8732.4 5542.46 6729.52 3189.94 6418.15 4089.7 4332.31 1365.71 2675.61 1210.15 5052.43 1039.75
internal_count=217592 64614 152978 85624 60080 47460 25544 44258 67354 52803 9414 16739 7277 34844 7715
is_linear=0
shrinkage=0.2


Tree=108
num_leaves=1
num_cat=0
split_feature=
split_gain=
threshold=
decision_type=
left_child=
right_child=
leaf_value=0
leaf_weight=0
leaf_count=0
internal_value=
internal_weight=
internal_count=
is_linear=0
shrinkage=1


Tree=109
num_leaves=1
num_cat=0
split_feature=
split_gain=
threshold=
decision_type=
left_child=
right_child=
leaf_value=0
leaf_weight=0
leaf_count=0
internal_value=
internal_weight=
internal_count=
is_linear=0
shrinkage=1


Tree=110
num_leaves=16
num_cat=0
split_feature=18 91 16 16 118 7 117 118 17 12 15 18 89 115 117
split_gain=2565.27 2180.54 1192.85 1573.81 1145.98 861.381 687.266 655.39 595.177 556.177 430.008 325.097 304.899 270.57 540.284
threshold=11.134665012359621 0.034466564655303962 35.864513397216804 127.285945892334 0.30500030517578131 0.85500732064247142 6.9600002765655526 2.3500013351440434 0.86393490433692943 65.975002288818374 22.561475753784183 22.715201377868656 0.059453422203660018 358.15296936035162 4.5249996185302743
decision_type=2 2 2 2 2 2 2 2 2 2 2 2 2 2 2
left_child=4 7 -3 10 13 6 -5 -2 -6 -10 -4 -12 -8 14 -1
right_child=1 2 3 5 8 -7 12 -9 9 -11 11 -13 -14 -15 -16
leaf_value=0.55641000149147157 -0.17864724031958662 0.22458195993380917 0.073294649576548951 0.13085018185275485 -0.048397215060784309 0.16538402775682665 0.089455314182971327 0.02346819584726351 0.18161070827382464 -0.10195367273977618 -0.038177460388347316 -0.16802981555481739 -0.069751031218409518 -0.10416343529264541 -0.011476670529042153
leaf_weight=77.839494004845619 4256.7262949459255 948.63616666570306 474.67200449481606 1265.4614870920777 575.72273457050323 1894.9326852448285 582.21177407354116 755.66650386154652 4962.8027343526483 293.01008208096027 1102.5831713341177 2566.06878336519 2772.4087492674589 1068.0928534679115 481.79989463835955
leaf_count=507 61369 6052 2792 9035 3560 11057 4404 5859 30694 2299 8394 32402 21855 12473 4840
internal_value=0 -0.0379358 0.00967079 -0.00945719 0.103239 0.0518312 0.00525736 -0.148176 0.144655 0.165802 -0.105828 -0.129004 -0.0421199 -0.0451395 0.0675099
internal_weight=0 16619.4 11607 10658.3 7459.27 6515.01 4620.08 5012.39 5831.54 5255.81 4143.32 3668.65 3354.62 1627.73 559.639
internal_count=217592 163219 95991 89939 54373 46351 35294 67228 36553 32993 43588 40796 26259 17820 5347
is_linear=0
shrinkage=0.2


Tree=111
num_leaves=1
num_cat=0
split_feature=
split_gain=
threshold=
decision_type=
left_child=
right_child=
leaf_value=0
leaf_weight=0
leaf_count=0
internal_value=
internal_weight=
internal_count=
is_linear=0
shrinkage=1


Tree=112
num_leaves=1
num_cat=0
split_feature=
split_gain=
threshold=
decision_type=
left_child=
right_child=
leaf_value=0
leaf_weight=0
leaf_count=0
internal_value=
internal_weight=
internal_count=
is_linear=0
shrinkage=1


Tree=113
num_leaves=1
num_cat=0
split_feature=
split_gain=
threshold=
decision_type=
left_child=
right_child=
leaf_value=0
leaf_weight=0
leaf_count=0
internal_value=
internal_weight=
internal_count=
is_linear=0
shrinkage=1


Tree=114
num_leaves=1
num_cat=0
split_feature=
split_gain=
threshold=
decision_type=
left_child=
right_child=
leaf_value=0
leaf_weight=0
leaf_count=0
internal_value=
internal_weight=
internal_count=
is_linear=0
shrinkage=1


Tree=115
num_leaves=1
num_cat=0
split_feature=
split_gain=
threshold=
decision_type=
left_child=
right_child=
leaf_value=0
leaf_weight=0
leaf_count=0
internal_value=
internal_weight=
internal_count=
is_linear=0
shrinkage=1


Tree=116
num_leaves=1
num_cat=0
split_feature=
split_gain=
threshold=
decision_type=
left_child=
right_child=
leaf_value=0
leaf_weight=0
leaf_count=0
internal_value=
internal_weight=
internal_count=
is_linear=0
shrinkage=1


Tree=117
num_leaves=1
num_cat=0
split_feature=
split_gain=
threshold=
decision_type=
left_child=
right_child=
leaf_value=0
leaf_weight=0
leaf_count=0
internal_value=
internal_weight=
internal_count=
is_linear=0
shrinkage=1


Tree=118
num_leaves=1
num_cat=0
split_feature=
split_gain=
threshold=
decision_type=
left_child=
right_child=
leaf_value=0
leaf_weight=0
leaf_count=0
internal_value=
internal_weight=
internal_count=
is_linear=0
shrinkage=1


Tree=119
num_leaves=1
num_cat=0
split_feature=
split_gain=
threshold=
decision_type=
left_child=
right_child=
leaf_value=0
leaf_weight=0
leaf_count=0
internal_value=
internal_weight=
internal_count=
is_linear=0
shrinkage=1


Tree=120
num_leaves=1
num_cat=0
split_feature=
split_gain=
threshold=
decision_type=
left_child=
right_child=
leaf_value=0
leaf_weight=0
leaf_count=0
internal_value=
internal_weight=
internal_count=
is_linear=0
shrinkage=1


Tree=121
num_leaves=1
num_cat=0
split_feature=
split_gain=
threshold=
decision_type=
left_child=
right_child=
leaf_value=0
leaf_weight=0
leaf_count=0
internal_value=
internal_weight=
internal_count=
is_linear=0
shrinkage=1


Tree=122
num_leaves=1
num_cat=0
split_feature=
split_gain=
threshold=
decision_type=
left_child=
right_child=
leaf_value=0
leaf_weight=0
leaf_count=0
internal_value=
internal_weight=
internal_count=
is_linear=0
shrinkage=1


Tree=123
num_leaves=1
num_cat=0
split_feature=
split_gain=
threshold=
decision_type=
left_child=
right_child=
leaf_value=0
leaf_weight=0
leaf_count=0
internal_value=
internal_weight=
internal_count=
is_linear=0
shrinkage=1


Tree=124
num_leaves=1
num_cat=0
split_feature=
split_gain=
threshold=
decision_type=
left_child=
right_child=
leaf_value=0
leaf_weight=0
leaf_count=0
internal_value=
internal_weight=
internal_count=
is_linear=0
shrinkage=1


Tree=125
num_leaves=16
num_cat=0
split_feature=16 42 91 94 119 55 116 56 117 10 54 18 91 96 75
split_gain=3928.25 2560.54 2164.22 844.985 574.517 555.097 360.007 353.367 348.41 277.158 608.818 263.707 250.08 264.495 324.624
threshold=117.61610412597658 0.09294005855917932 0.29694515466690069 69.388317108154311 27.785000801086429 0.36999994516372686 140.00598144531253 0.35000133514404302 9.0800008773803729 0.81097710132598888 66.524997711181655 29.768560409545902 0.021450698375701908 4.50000023841858 2.2199983596801762
decision_type=2 2 2 2 2 2 2 2 2 2 2 2 2 2 2
left_child=9 -2 3 6 7 8 -3 -4 -5 -1 -11 -12 -7 14 -14
right_child=1 2 4 5 -6 12 -8 -9 -10 10 11 -13 13 -15 -16
leaf_value=-0.15546301830172271 -0.16760736190785955 -0.158346263561853 0.051904075369185038 -0.0046305715675827273 0.11555005998101114 0.21910522613980979 0.049840036350160849 -0.18793388518984921 0.14722553970236893 -0.19727079367293435 0.54710102683151962 -0.039665464382376253 0.13388235764763617 0.18567062890210059 -0.10565447379281823
leaf_weight=5195.1760979034007 1822.096668291837 427.01981009542942 296.16071939840913 1244.3969521149993 412.09266540408134 3348.0223287269473 1497.0978649780154 1442.9325781241059 1174.9840631969273 191.72146677598357 92.673037406057119 45.768190134316683 722.77112846821547 1757.1693144254386 329.46344948559999
leaf_count=88460 31877 4351 2502 8941 2303 21847 10494 16922 7210 3024 707 663 4806 11199 2286
internal_value=0 0.0540562 0.0859792 0.123418 -0.0967776 0.15029 0.00363721 -0.14709 0.0691191 -0.144171 0.0335139 0.353118 0.182183 0.138183 0.0588814
internal_weight=0 14474.2 12652.1 10500.9 2151.19 8576.81 1924.12 1739.09 2419.38 5525.34 330.163 138.441 6157.43 2809.4 1052.23
internal_count=217592 124738 92861 71134 21727 56289 14845 19424 16151 92854 4394 1370 40138 18291 7092
is_linear=0
shrinkage=0.2


Tree=126
num_leaves=1
num_cat=0
split_feature=
split_gain=
threshold=
decision_type=
left_child=
right_child=
leaf_value=0
leaf_weight=0
leaf_count=0
internal_value=
internal_weight=
internal_count=
is_linear=0
shrinkage=1


Tree=127
num_leaves=16
num_cat=0
split_feature=76 28 118 118 118 16 17 119 56 19 116 86 73 90 12
split_gain=6951.52 1025.5 489.605 318.778 268.986 265.996 247.767 313.137 386.792 203.596 202.684 199.656 187.234 182.052 169.564
threshold=0.42000126838684088 0.023875296115875248 2.3500013351440434 1.1299999356269839 1.0499998331069949 129.29311370849612 4.771390676498414 8.1399998664855975 1.0900003910064699 71.960784912109389 224.9682312011719 0.99040529131889354 23.033229827880863 0.0032040798105299477 0.41999864578247076
decision_type=2 2 2 2 2 2 2 2 2 2 2 2 2 2 2
left_child=1 2 6 5 13 11 7 8 9 10 -1 -2 -8 -3 -15
right_child=3 4 -4 -5 -6 -7 12 -9 -10 -11 -12 -13 -14 14 -16
leaf_value=-0.16207637725228338 -0.048881832440045042 0.20700956599771639 -0.1863882616151501 -0.18701633953740718 -0.16197332949001977 -0.14989388896772904 0.10604720103940574 0.19315761415776406 -0.26532186043217143 0.17458688535301575 0.08809491069910752 0.21825611517134474 0.19454866579142599 0.057247763803016841 -0.044091707683199394
leaf_weight=215.78764302656054 687.91751063615084 203.25012503191829 178.17564132995903 4971.7722199261189 346.63820309564471 1343.2445548735559 1281.2646398749202 673.53710225410759 161.94033085927367 413.5722626671195 324.10305694490671 133.65299202874303 3768.7539437562227 1435.5276995711029 1223.2080858759582
leaf_count=1331 5747 1328 3781 107381 5342 23719 9101 5714 934 2664 2009 843 32666 7197 7835
internal_value=0 0.0980818 0.14091 -0.159124 0.00441809 -0.095066 0.149437 0.0854777 0.0204551 0.0689928 -0.0118955 -0.00542386 0.172095 0.0245711 0.0106244
internal_weight=0 10225.8 7017.13 7136.59 3208.62 2164.82 6838.96 1788.94 1115.4 953.463 539.891 821.571 5050.02 2861.99 2658.74
internal_count=217592 79902 58200 137690 21702 30309 54419 12652 6938 6004 3340 6590 41767 16360 15032
is_linear=0
shrinkage=0.2


Tree=128
num_leaves=16
num_cat=0
split_feature=20 118 26 16 20 18 89 15 110 44 15 20 20 118 7
split_gain=2554.79 2053.43 663.711 657.909 451.593 426.362 389.169 383.065 287.787 233.09 205.942 199.052 158.018 297.465 146.436
threshold=53.490203857421882 1.6900014877319338 0.01228692661970854 207.32118988037112 22.044817924499515 40.387535095214851 0.1021341383457184 180.30303192138675 0.12028059363365175 0.98490664362907421 43.221622467041023 8.7017631530761737 59.686273574829109 1.91999888420105 0.01820442080497742
decision_type=2 2 2 2 2 2 2 2 2 2 2 2 2 2 2
left_child=1 3 6 4 -1 14 -3 10 -9 -7 -4 -5 13 -2 -6
right_child=12 2 7 11 5 9 -8 8 -10 -11 -12 -13 -14 -15 -16
leaf_value=0.1014433631201426 -0.16342284657496225 -0.079160678985328664 0.07044410927212931 0.11141670396907975 -0.17013087445363617 0.13977373926178902 0.088525311891591685 -0.041294999643736216 0.14141948957169848 -0.07996138238090976 0.19202993765496015 -0.17070706152672391 -0.18209551153884029 0.05999680485333047 -0.058689784299519265
leaf_weight=1137.984048049897 724.55088106542826 992.7554763071239 660.68853846751153 106.68283238261938 633.82390900887549 633.50219653174281 1251.5256781093776 678.26540148258209 701.37880127876997 277.76882706210017 3558.6978569850326 1605.0938344225287 2391.7680010907352 355.24183323606849 1843.2993460409343
leaf_count=6982 15499 9122 3833 550 12396 3838 8539 6742 4777 4401 29640 33938 55630 5904 15801
internal_value=0 0.0381316 0.106244 -0.0475066 -0.00756427 -0.0441742 0.0143496 0.143078 0.0515928 0.0727952 0.172992 -0.153124 -0.153425 -0.0899198 -0.0872043
internal_weight=0 14081.5 7843.31 6238.15 4526.38 3388.39 2244.28 5599.03 1379.64 911.271 4219.39 1711.78 3471.56 1079.79 2477.12
internal_count=217592 140559 62653 77906 43418 36436 17661 44992 11519 8239 33473 34488 77033 21403 28197
is_linear=0
shrinkage=0.2


Tree=129
num_leaves=1
num_cat=0
split_feature=
split_gain=
threshold=
decision_type=
left_child=
right_child=
leaf_value=0
leaf_weight=0
leaf_count=0
internal_value=
internal_weight=
internal_count=
is_linear=0
shrinkage=1


Tree=130
num_leaves=1
num_cat=0
split_feature=
split_gain=
threshold=
decision_type=
left_child=
right_child=
leaf_value=0
leaf_weight=0
leaf_count=0
internal_value=
internal_weight=
internal_count=
is_linear=0
shrinkage=1


Tree=131
num_leaves=16
num_cat=0
split_feature=18 91 7 16 118 117 118 68 117 75 16 89 15 2 17
split_gain=1617.71 1505.89 759.632 814.43 642.896 605.935 604.464 357.964 313.973 578.465 313.746 324.651 290.009 285.833 276.403
threshold=10.957216262817385 0.052684903144836433 0.90786775946617138 33.701129913330085 1.2099993228912356 6.9600002765655526 2.639999628067017 0.01987856533378363 8.4000000953674334 1.8500000238418581 127.285945892334 0.1030900962650776 215.31372070312503 0.98435959219932567 0.86393490433692943
decision_type=2 2 2 2 2 2 2 2 2 2 2 2 2 2 2
left_child=4 6 3 -3 8 12 -2 -6 9 -1 -7 -12 -5 -4 -9
right_child=1 2 13 5 7 10 -8 14 -10 -11 11 -13 -14 -15 -16
leaf_value=-0.01350214291236514 -0.15412093615136371 0.20820498891297148 0.029671591791853243 0.0054378392613320913 0.21732969573908179 -0.12044733847057282 0.033951275475425376 -0.062626910699067603 -0.08876967775030728 0.25858100120537886 0.055278664737086973 -0.074677814645474752 0.16468786452763526 0.19530341676005364 0.12097060081638343
leaf_weight=1131.7751726694405 3986.9626531116664 623.10009279474616 667.77217925712466 1194.9407935254276 1467.3813797719777 2281.0475118197501 825.01751890778542 385.05024925246835 860.76034753397107 431.81331288814545 1268.3727657645941 1952.6845117658377 741.11150405555964 1108.7033293768764 2213.6153598167002
leaf_count=11175 69108 4775 5315 10500 11134 29888 7344 2592 10815 2286 9381 15831 4944 6988 15516
internal_value=0 -0.0301909 0.0146554 -0.0114339 0.0897544 -0.0298332 -0.121876 0.138359 0.0082364 0.0616386 -0.0636946 -0.0235042 0.066398 0.133043 0.0937665
internal_weight=0 14649.7 9837.73 8061.26 6490.4 7438.16 4811.98 4066.05 2424.35 1563.59 5502.1 3221.06 1936.05 1776.48 2598.67
internal_count=217592 164074 87622 75319 53518 70544 76452 29242 24276 13461 55100 25212 15444 12303 18108
is_linear=0
shrinkage=0.2


Tree=132
num_leaves=1
num_cat=0
split_feature=
split_gain=
threshold=
decision_type=
left_child=
right_child=
leaf_value=0
leaf_weight=0
leaf_count=0
internal_value=
internal_weight=
internal_count=
is_linear=0
shrinkage=1


Tree=133
num_leaves=1
num_cat=0
split_feature=
split_gain=
threshold=
decision_type=
left_child=
right_child=
leaf_value=0
leaf_weight=0
leaf_count=0
internal_value=
internal_weight=
internal_count=
is_linear=0
shrinkage=1


Tree=134
num_leaves=1
num_cat=0
split_feature=
split_gain=
threshold=
decision_type=
left_child=
right_child=
leaf_value=0
leaf_weight=0
leaf_count=0
internal_value=
internal_weight=
internal_count=
is_linear=0
shrinkage=1


Tree=135
num_leaves=1
num_cat=0
split_feature=
split_gain=
threshold=
decision_type=
left_child=
right_child=
leaf_value=0
leaf_weight=0
leaf_count=0
internal_value=
internal_weight=
internal_count=
is_linear=0
shrinkage=1


Tree=136
num_leaves=1
num_cat=0
split_feature=
split_gain=
threshold=
decision_type=
left_child=
right_child=
leaf_value=0
leaf_weight=0
leaf_count=0
internal_value=
internal_weight=
internal_count=
is_linear=0
shrinkage=1


Tree=137
num_leaves=1
num_cat=0
split_feature=
split_gain=
threshold=
decision_type=
left_child=
right_child=
leaf_value=0
leaf_weight=0
leaf_count=0
internal_value=
internal_weight=
internal_count=
is_linear=0
shrinkage=1


Tree=138
num_leaves=1
num_cat=0
split_feature=
split_gain=
threshold=
decision_type=
left_child=
right_child=
leaf_value=0
leaf_weight=0
leaf_count=0
internal_value=
internal_weight=
internal_count=
is_linear=0
shrinkage=1


Tree=139
num_leaves=1
num_cat=0
split_feature=
split_gain=
threshold=
decision_type=
left_child=
right_child=
leaf_value=0
leaf_weight=0
leaf_count=0
internal_value=
internal_weight=
internal_count=
is_linear=0
shrinkage=1


Tree=140
num_leaves=1
num_cat=0
split_feature=
split_gain=
threshold=
decision_type=
left_child=
right_child=
leaf_value=0
leaf_weight=0
leaf_count=0
internal_value=
internal_weight=
internal_count=
is_linear=0
shrinkage=1


Tree=141
num_leaves=1
num_cat=0
split_feature=
split_gain=
threshold=
decision_type=
left_child=
right_child=
leaf_value=0
leaf_weight=0
leaf_count=0
internal_value=
internal_weight=
internal_count=
is_linear=0
shrinkage=1


Tree=142
num_leaves=1
num_cat=0
split_feature=
split_gain=
threshold=
decision_type=
left_child=
right_child=
leaf_value=0
leaf_weight=0
leaf_count=0
internal_value=
internal_weight=
internal_count=
is_linear=0
shrinkage=1


Tree=143
num_leaves=1
num_cat=0
split_feature=
split_gain=
threshold=
decision_type=
left_child=
right_child=
leaf_value=0
leaf_weight=0
leaf_count=0
internal_value=
internal_weight=
internal_count=
is_linear=0
shrinkage=1


Tree=144
num_leaves=1
num_cat=0
split_feature=
split_gain=
threshold=
decision_type=
left_child=
right_child=
leaf_value=0
leaf_weight=0
leaf_count=0
internal_value=
internal_weight=
internal_count=
is_linear=0
shrinkage=1


Tree=145
num_leaves=1
num_cat=0
split_feature=
split_gain=
threshold=
decision_type=
left_child=
right_child=
leaf_value=0
leaf_weight=0
leaf_count=0
internal_value=
internal_weight=
internal_count=
is_linear=0
shrinkage=1


Tree=146
num_leaves=16
num_cat=0
split_feature=118 65 16 20 117 117 75 75 116 56 95 75 96 28 97
split_gain=2720.68 2681.98 804.469 800.053 756.192 558.486 812.238 343.52 302.487 300.333 285.098 272.044 269.536 255.343 245.253
threshold=2.3500013351440434 0.98668211698532116 85.061309814453139 21.126561164855961 30.005000114440922 7.2749996185302743 2.0649986267089848 1.6800012588500979 153.70535278320315 0.18000125885009768 39.265914916992195 66.854999542236342 1.3000020980834963 0.18325978517532351 0.2000083923339844
decision_type=2 2 2 2 2 2 2 2 2 2 2 2 2 2 2
left_child=1 2 -1 4 7 6 8 -4 -5 -8 11 -7 -2 -3 -12
right_child=12 13 3 5 -6 10 9 -9 -10 -11 14 -13 -14 -15 -16
leaf_value=-0.086874065871554759 0.1202558696562744 -0.18371604813739223 0.04050713113849095 -0.18403380961852731 0.19355489245413043 -0.085822839149288163 0.1724987166758849 -0.17248927316303533 0.13542623717098409 -0.18636267752086941 0.040916955582494773 0.16022962220040496 -0.16196243116472797 0.067337301658912177 0.19075032860867105
leaf_weight=1043.0438663754612 140.64331235736609 1977.0689944066107 460.9408416133374 126.63233310729265 477.474554348737 347.35766942799091 109.91172422654927 883.24990332871675 1859.5505999904126 616.64361202903092 484.10007491707802 372.47703591361642 3606.7499687038362 176.51947728171945 4488.9677527491003
leaf_count=16486 1313 44410 3125 1035 3396 2271 823 6339 14134 4760 4320 1809 80205 1302 31864
internal_value=0 0.0413671 0.0804449 0.0975092 -0.0226508 0.12355 0.0488686 -0.09945 0.115059 -0.132075 0.159137 0.0414965 -0.151371 -0.163138 0.176165
internal_weight=0 13423.9 11270.3 10227.3 1821.67 8405.64 2712.74 1344.19 1986.18 726.555 5692.9 719.835 3747.39 2153.59 4973.07
internal_count=217592 136074 90362 73876 12860 61016 20752 9464 15169 5583 40264 4080 81518 45712 36184
is_linear=0
shrinkage=0.2


Tree=147
num_leaves=1
num_cat=0
split_feature=
split_gain=
threshold=
decision_type=
left_child=
right_child=
leaf_value=0
leaf_weight=0
leaf_count=0
internal_value=
internal_weight=
internal_count=
is_linear=0
shrinkage=1


Tree=148
num_leaves=16
num_cat=0
split_feature=97 49 34 97 49 116 10 16 20 89 47 116 15 118 119
split_gain=4696.32 975.971 228.585 225.46 225.453 215.122 204.743 154.164 138.705 317.097 157.984 109.391 105.076 98.345 90.9593
threshold=0.66500091552734386 0.025122821331024173 0.28000003099441534 1.0599985122680666 0.029705852270126346 162.57627868652347 0.69226190447807323 212.10754394531253 65.426383972167983 2.220729493274121e-05 0.018137774430215362 182.12110137939456 190.09433746337893 0.38999962806701666 7.5900003910064706
decision_type=2 2 2 2 2 2 2 2 2 2 2 2 2 2 2
left_child=1 5 6 4 12 13 7 11 10 14 -7 -3 -2 -1 -10
right_child=3 2 -4 -5 -6 8 -8 -9 9 -11 -12 -13 -14 -15 -16
leaf_value=0.066367732817659661 0.15292747113613203 0.0028767580669359773 -0.087454764299586277 -0.18000865869827798 -0.12827495689060373 0.18451055178262959 -0.19168621349647616 -0.03299309469829443 -0.16065031642435817 0.13786471263158664 0.069707980668517008 0.10855529371186812 -0.11777324597445343 -0.11536620156344286 0.18015380568867487
leaf_weight=566.21866920217872 199.04583355225623 586.27137025818229 941.01712317578495 4104.7953223474324 997.79049827158451 2979.7839305773377 161.17145358212292 785.32892954908311 216.22642617858946 1065.0013441182673 571.42737994343042 1181.1936261672527 80.575213862583041 150.83741268515587 36.632547214627266
leaf_count=4606 1532 3613 11523 111525 20999 32708 966 4457 1822 10015 3903 7178 1210 1170 365
internal_value=0 0.0778381 -0.00251433 -0.157173 -0.0837957 0.130412 0.0269372 0.04074 0.145474 0.0900617 0.166038 0.0735015 0.0749227 0.0281388 -0.111277
internal_weight=0 9241.11 3654.98 5382.21 1277.41 5586.13 2713.97 2552.79 4869.07 1317.86 3551.21 1767.46 279.621 717.056 252.859
internal_count=217592 82326 27737 135266 23741 54589 16214 15248 48813 12202 36611 10791 2742 5776 2187
is_linear=0
shrinkage=0.2


Tree=149
num_leaves=16
num_cat=0
split_feature=20 118 16 18 47 20 116 74 16 56 117 20 17 89 16
split_gain=1716.52 1410.34 689.053 479.433 455.966 449.848 325.299 316.399 309.561 334.41 252.674 215.429 207.469 186.986 172.046
threshold=56.408662796020515 3.4150009155273442 211.56378173828128 32.591348648071296 0.0070149246603250512 23.230510711669925 153.70535278320315 13.937406063079836 125.38026046752931 3.190000176429749 7.2749996185302743 7.7442069053649911 1.6865784525871279 0.037695124745368964 268.05703735351568
decision_type=2 2 2 2 2 2 2 2 2 2 2 2 2 2 2
left_child=1 2 3 5 -3 -1 12 -5 -6 10 -10 -4 -7 -12 -15
right_child=-2 4 11 7 8 6 -8 -9 9 -11 13 -13 -14 14 -16
leaf_value=0.078833042123126695 -0.15922389123743816 -0.047437139574192932 0.16214468040999888 0.12796347526955457 0.17674833393772071 0.30399133624469288 -0.11454137886406957 -0.024051453415770002 -0.12254206248739818 -0.16882058355919394 -0.11291003475093386 -0.15325364432902444 -0.0037234161370145696 0.18029750163687219 -0.15568168050463282
leaf_weight=1019.2800699714571 2294.7871555825695 620.50605322234333 91.569522745907307 1623.667750408873 2725.7748040016741 100.83582900837064 2190.0941448565573 826.43786832503974 175.27446874044836 211.17830063030124 110.65622786059976 1604.4550402611494 669.85594105161726 1013.5066941343248 64.86669384688139
leaf_count=6515 66760 6232 425 12528 27141 574 29619 10883 1824 1484 1131 39316 5460 7026 674
internal_value=0 0.0283461 -0.0228265 0.0070836 0.112836 -0.0357643 -0.0752156 0.0766878 0.135957 0.0653833 0.101635 -0.136225 0.0365374 0.134681 0.160088
internal_weight=0 13048 8126.2 6430.17 4921.76 3980.07 2960.79 2450.11 4301.26 1575.48 1364.3 1696.02 770.692 1189.03 1078.37
internal_count=217592 150832 105320 65579 45512 42168 35653 23411 39280 12139 10655 39741 6034 8831 7700
is_linear=0
shrinkage=0.2


Tree=150
num_leaves=1
num_cat=0
split_feature=
split_gain=
threshold=
decision_type=
left_child=
right_child=
leaf_value=0
leaf_weight=0
leaf_count=0
internal_value=
internal_weight=
internal_count=
is_linear=0
shrinkage=1


Tree=151
num_leaves=1
num_cat=0
split_feature=
split_gain=
threshold=
decision_type=
left_child=
right_child=
leaf_value=0
leaf_weight=0
leaf_count=0
internal_value=
internal_weight=
internal_count=
is_linear=0
shrinkage=1


Tree=152
num_leaves=16
num_cat=0
split_feature=18 70 119 12 117 117 54 16 15 15 115 95 12 118 20
split_gain=1049.14 997.987 502.727 725.265 707.641 808.791 769.083 452.747 558.584 566.177 404.13 339.79 280.166 221.456 207.492
threshold=15.985852718353273 0.094463378190994277 5.1949996948242196 0.48999881744384771 29.554999351501468 30.460000038146976 66.524997711181655 226.13543701171878 29.705882072448734 165.30000305175784 391.81745910644537 41.481964111328132 0.64999866485595714 2.2999994754791264 38.954252243041999
decision_type=2 2 2 2 2 2 2 2 2 2 2 2 2 2 2
left_child=2 11 10 -4 12 -6 -7 8 -3 -10 -1 -2 -5 14 -12
right_child=1 7 3 4 5 6 -8 -9 9 -11 13 -13 -14 -15 -16
leaf_value=0.17663749276851481 -0.0049007199524388661 0.13570801570589403 -0.098898360186970791 0.0078954474979149366 -0.15550878644119628 0.21648920361831192 -0.093070911374439694 0.12719679516056137 -0.11309995081265962 0.025765393655601095 0.28619051673124546 -0.14913281728389333 0.2479368821772171 0.1610689321493903 -0.040629652812842351
leaf_weight=2018.6755748521537 840.85973360389471 868.22309228777885 1455.06304397434 247.34443407319486 807.82806360907853 833.74385417066514 522.03413824923337 1127.7112750299275 2196.2333743423223 2524.2542213220149 84.847505966201425 2929.891127480194 910.22208820842206 411.06066216900945 922.93232052586973
leaf_count=15722 10844 6442 15322 1724 10908 7289 5775 8561 34123 18931 638 60378 6831 3612 10492
internal_value=0 -0.0346283 0.0608224 0.018846 0.0704319 0.00290533 0.0972949 0.0116 -0.0117255 -0.0388425 0.119146 -0.11697 0.196646 0.0373497 -0.0131138
internal_weight=0 10487.2 8213.75 4776.24 3321.17 2163.61 1355.78 6716.42 5588.71 4720.49 3437.52 3770.75 1157.57 1418.84 1007.78
internal_count=217592 139279 78313 47849 32527 23972 13064 68057 59496 53054 30464 71222 8555 14742 11130
is_linear=0
shrinkage=0.2


Tree=153
num_leaves=1
num_cat=0
split_feature=
split_gain=
threshold=
decision_type=
left_child=
right_child=
leaf_value=0
leaf_weight=0
leaf_count=0
internal_value=
internal_weight=
internal_count=
is_linear=0
shrinkage=1


Tree=154
num_leaves=1
num_cat=0
split_feature=
split_gain=
threshold=
decision_type=
left_child=
right_child=
leaf_value=0
leaf_weight=0
leaf_count=0
internal_value=
internal_weight=
internal_count=
is_linear=0
shrinkage=1


Tree=155
num_leaves=1
num_cat=0
split_feature=
split_gain=
threshold=
decision_type=
left_child=
right_child=
leaf_value=0
leaf_weight=0
leaf_count=0
internal_value=
internal_weight=
internal_count=
is_linear=0
shrinkage=1


Tree=156
num_leaves=1
num_cat=0
split_feature=
split_gain=
threshold=
decision_type=
left_child=
right_child=
leaf_value=0
leaf_weight=0
leaf_count=0
internal_value=
internal_weight=
internal_count=
is_linear=0
shrinkage=1


Tree=157
num_leaves=1
num_cat=0
split_feature=
split_gain=
threshold=
decision_type=
left_child=
right_child=
leaf_value=0
leaf_weight=0
leaf_count=0
internal_value=
internal_weight=
internal_count=
is_linear=0
shrinkage=1


Tree=158
num_leaves=1
num_cat=0
split_feature=
split_gain=
threshold=
decision_type=
left_child=
right_child=
leaf_value=0
leaf_weight=0
leaf_count=0
internal_value=
internal_weight=
internal_count=
is_linear=0
shrinkage=1


Tree=159
num_leaves=1
num_cat=0
split_feature=
split_gain=
threshold=
decision_type=
left_child=
right_child=
leaf_value=0
leaf_weight=0
leaf_count=0
internal_value=
internal_weight=
internal_count=
is_linear=0
shrinkage=1


Tree=160
num_leaves=1
num_cat=0
split_feature=
split_gain=
threshold=
decision_type=
left_child=
right_child=
leaf_value=0
leaf_weight=0
leaf_count=0
internal_value=
internal_weight=
internal_count=
is_linear=0
shrinkage=1


Tree=161
num_leaves=1
num_cat=0
split_feature=
split_gain=
threshold=
decision_type=
left_child=
right_child=
leaf_value=0
leaf_weight=0
leaf_count=0
internal_value=
internal_weight=
internal_count=
is_linear=0
shrinkage=1


Tree=162
num_leaves=1
num_cat=0
split_feature=
split_gain=
threshold=
decision_type=
left_child=
right_child=
leaf_value=0
leaf_weight=0
leaf_count=0
internal_value=
internal_weight=
internal_count=
is_linear=0
shrinkage=1


Tree=163
num_leaves=1
num_cat=0
split_feature=
split_gain=
threshold=
decision_type=
left_child=
right_child=
leaf_value=0
leaf_weight=0
leaf_count=0
internal_value=
internal_weight=
internal_count=
is_linear=0
shrinkage=1


Tree=164
num_leaves=1
num_cat=0
split_feature=
split_gain=
threshold=
decision_type=
left_child=
right_child=
leaf_value=0
leaf_weight=0
leaf_count=0
internal_value=
internal_weight=
internal_count=
is_linear=0
shrinkage=1


Tree=165
num_leaves=1
num_cat=0
split_feature=
split_gain=
threshold=
decision_type=
left_child=
right_child=
leaf_value=0
leaf_weight=0
leaf_count=0
internal_value=
internal_weight=
internal_count=
is_linear=0
shrinkage=1


Tree=166
num_leaves=1
num_cat=0
split_feature=
split_gain=
threshold=
decision_type=
left_child=
right_child=
leaf_value=0
leaf_weight=0
leaf_count=0
internal_value=
internal_weight=
internal_count=
is_linear=0
shrinkage=1


Tree=167
num_leaves=16
num_cat=0
split_feature=118 68 95 16 75 118 20 117 117 75 75 115 17 54 118
split_gain=1850.46 1799.31 773.257 681.681 583.99 499.109 394.003 420.473 324.944 431.531 266.919 265.642 228.548 227.812 227.556
threshold=3.2000026702880864 0.005091921193525196 38.634595870971687 93.503929138183608 66.854999542236342 -0.069999814033508287 21.738314628601078 29.98499965667725 7.2749996185302743 2.1199991703033452 1.8100003004074099 639.28244018554699 8.5249295234680194 0.48999881744384771 2.3500013351440434
decision_type=2 2 2 2 2 2 2 2 2 2 2 2 2 2 2
left_child=1 -1 4 12 -3 -5 7 10 9 13 -7 -2 -4 -8 -10
right_child=11 2 3 5 -6 6 8 -9 14 -11 -12 -13 -14 -15 -16
leaf_value=-0.17536683213677917 -0.17389323923517519 -0.12984131804121388 0.13979381842475003 -0.17763757609358141 0.13839035452140233 0.060704846343761443 -0.15145950407520381 0.18839427068415507 0.15276976858680802 -0.10492148988438771 -0.14625022334225488 0.2853527200947828 -0.11407870098844833 0.13455773099571586 0.42952911896278068
leaf_weight=1504.9535004468635 2297.0429565478116 1321.7034211419523 169.81152467802167 250.5287509970367 430.39827782660723 445.02989974990487 120.29038145765662 393.66227927990258 4314.7125081792474 465.91457884386182 566.73063806258142 51.510684268549085 861.18935126625001 1505.7347519397736 122.2005978282541
leaf_count=44653 65642 15361 2725 2427 2840 3122 2063 3352 35649 4009 4539 520 16499 12025 2166
internal_value=0 0.0297021 0.0578405 0.0809954 -0.0639511 0.100301 0.109077 0.0130172 0.129755 0.0647747 -0.0552196 -0.163821 -0.0722645 0.113399 0.160392
internal_weight=0 12472.9 10967.9 9215.81 1752.1 8184.8 7934.28 1405.42 6528.85 2091.94 1011.76 2348.55 1031 1626.03 4436.91
internal_count=217592 151430 106777 88576 18201 69352 66925 11013 55912 18097 7661 66162 19224 14088 37815
is_linear=0
shrinkage=0.2


Tree=168
num_leaves=1
num_cat=0
split_feature=
split_gain=
threshold=
decision_type=
left_child=
right_child=
leaf_value=0
leaf_weight=0
leaf_count=0
internal_value=
internal_weight=
internal_count=
is_linear=0
shrinkage=1


Tree=169
num_leaves=16
num_cat=0
split_feature=118 28 54 33 16 73 90 115 119 16 34 10 16 107 118
split_gain=3247.14 608.346 409.499 248.179 193.34 236.924 187.578 161.256 365.029 149.532 146.958 131.665 130.155 120.004 112.074
