tree
version=v4
num_class=21
num_tree_per_iteration=21
label_index=0
max_feature_idx=104
objective=multiclass num_class:21
feature_names=Column_0 Column_1 Column_2 Column_3 Column_4 Column_5 Column_6 Column_7 Column_8 Column_9 Column_10 Column_11 Column_12 Column_13 Column_14 Column_15 Column_16 Column_17 Column_18 Column_19 Column_20 Column_21 Column_22 Column_23 Column_24 Column_25 Column_26 Column_27 Column_28 Column_29 Column_30 Column_31 Column_32 Column_33 Column_34 Column_35 Column_36 Column_37 Column_38 Column_39 Column_40 Column_41 Column_42 Column_43 Column_44 Column_45 Column_46 Column_47 Column_48 Column_49 Column_50 Column_51 Column_52 Column_53 Column_54 Column_55 Column_56 Column_57 Column_58 Column_59 Column_60 Column_61 Column_62 Column_63 Column_64 Column_65 Column_66 Column_67 Column_68 Column_69 Column_70 Column_71 Column_72 Column_73 Column_74 Column_75 Column_76 Column_77 Column_78 Column_79 Column_80 Column_81 Column_82 Column_83 Column_84 Column_85 Column_86 Column_87 Column_88 Column_89 Column_90 Column_91 Column_92 Column_93 Column_94 Column_95 Column_96 Column_97 Column_98 Column_99 Column_100 Column_101 Column_102 Column_103 Column_104
feature_infos=[0:0.3292161226272583] [0.218536376953125:1.0865166187286377] [0.31862783432006836:1] [0.012516181915998459:0.98529046773910522] [0.0064298384822905064:0.96675783395767212] [0:0.26597931981086731] [0:0.68137216567993164] [0:0.99996626377105713] [-1.3157830238342285:1.0176486968994141] [-1.3383442163467407:0.8277428150177002] [0.035717017948627472:0.82754945755004883] [0.013800788670778275:0.51390314102172852] [0:0.519989013671875] [0:0.410003662109375] [0:0.4499969482421875] [0:357.14285278320312] [35.333137512207031:339.67361450195312] [0:78.823532104492188] [2.7140538692474365:72.926551818847656] [8.2352943420410156:100] [13.932374954223633:91.38519287109375] [0:0.32900092005729675] [0.086483590304851532:1.0852230787277222] [0.3092726469039917:1] [0.0093975551426410675:0.98014295101165771] [0.010351905599236488:0.98755830526351929] [0:0.28354644775390625] [0:0.6907273530960083] [0:0.99967443943023682] [-3.3510129451751709:1.7030746936798096] [-1.4022285938262939:1.3018780946731567] [0.06453898549079895:20.043811798095703] [0.016688311472535133:0.63392877578735352] [0:3.8800048828125] [-0.040008544921875:3.7700042724609375] [-0.029998779296875:0.4499969482421875] [0:357.14285278320312] [35.333137512207031:339.67361450195312] [0:78.823532104492188] [2.7140538692474365:72.926551818847656] [8.2352943420410156:100] [13.932374954223633:91.38519287109375] [0.015345919877290726:0.32250696420669556] [0.029890147969126701:1.0678987503051758] [0.45867669582366943:0.99996942281723022] [0.0018586504738777876:0.99133509397506714] [0.0024569507222622633:0.99694377183914185] [1.8844528312911279e-05:0.22323077917098999] [3.0582541512558237e-05:0.54132330417633057] [3.6358833312988281e-06:0.99924761056900024] [-17.201431274414062:16.135261535644531] [-2.1220107078552246:1.6961236000061035] [0.19592750072479248:81.140586853027344] [0.064784087240695953:2.0114972591400146] [0.0099945068359375:4.0200042724609375] [-0.07000732421875:3.910003662109375] [-0.0800018310546875:0.6100006103515625] [0:357.14285278320312] [35.333137512207031:339.67361450195312] [0:78.823532104492188] [2.7140538692474365:72.926551818847656] [8.2352943420410156:100] [13.932374954223633:91.38519287109375] [0.0027695093303918839:0.32520842552185059] [0.0098953470587730408:1.0748013257980347] [0.4207901656627655:0.99998319149017334] [0.0012480113655328751:0.97407132387161255] [0.0052387691102921963:0.99873512983322144] [1.6837399016367272e-05:0.24456465244293213] [1.685897950665094e-05:0.57920980453491211] [2.3245811462402344e-06:0.99611508846282959] [-10.746102333068848:67.853218078613281] [-3.2225465774536133:2.9970831871032715] [0.74930542707443237:1220.5860595703125] [0.17288254201412201:6.2001333236694336] [0.0099945068359375:4.0399932861328125] [-0.0999908447265625:3.9499969482421875] [-0.160003662109375:1.4399871826171875] [0:357.14285278320312] [35.333137512207031:339.67361450195312] [0:78.823532104492188] [2.7140538692474365:72.926551818847656] [8.2352943420410156:100] [13.932374954223633:91.38519287109375] [0.013266933150589466:0.32770994305610657] [0.17729389667510986:1.0816779136657715] [0.35923510789871216:0.99998414516448975] [0.0092192823067307472:0.98548901081085205] [0.0042550638318061829:0.95786511898040771] [1.0030238627223298e-05:0.27153158187866211] [1.5893538147793151e-05:0.64076489210128784] [1.3709068298339844e-06:0.99899917840957642] [-13.774330139160156:38.850639343261719] [-47.729038238525391:6.7863502502441406] [2.7563228607177734:1503.3489990234375] [0.73620724678039551:462.66946411132812] [0.0399932861328125:5.160003662109375] [-0.279998779296875:5.1999969482421875] [-0.25:3.4199981689453125] [0:357.14285278320312] [35.333137512207031:339.67361450195312] [0:78.823532104492188] [2.7140538692474365:72.926551818847656] [8.2352943420410156:100] [13.932374954223633:91.38519287109375]
tree_sizes=241 1798 1786 241 241 1788 241 241 241 241 242 242 242 242 242 242 242 242 242 242 1785 224 1790 1781 224 224 1785 224 224 224 224 224 224 224 224 224 224 224 224 224 224 1783 224 1799 1789 224 224 1795 224 224 224 224 224 224 224 224 224 224 224 224 224 224 1791 224 1796 1794 224 224 1790 224 224 224 224 224 224 224 224 224 224 224 224 224 224 1787 224 1791 1793 224 224 1787 224 224 224 224 224 224 224 224 224 224 225 225 225 225 1788 225 1808 1799 225 225 1796 225 225 225 225 225 225 225 225 225 225 225 225 225 225 1792 225 1796 1792 225 225 1791 225 225 225 225 225 225 225 225 225 225 225 225 225 225 1788 225 1809 1799 225 225 1801 225 225 225 225 225 225 225 225 225 225 225 225 225 225 1786 225 1800 1796 225 225 1803 225 225 225 225 225 225 225 225 225 225 225 225 225 225 1793 225 1810 1807 225 225 1798 225 225 225 225 225 225 225 225 225 225 225 225 225 225 1797 225 1808 1807 225 225 1816 225 225 225 225 225 225 225 225 225 225 225 225 225 225 1810 225 1816 1810 225 225 1797 225 225 225 225 225 225 225 225 225 225 225 225 225 225 1810 225 1820 1806 225 225 1805 225 225 225 225 225 225 225 225 225 225 225 225 225 225 1799 225 1823 1817 225 225 1811 225 225 225 225 225 225 225 225 225 225 225 225 225 225 1808 225 1825 1813 225 225 1800 225 225 225 225 225 225 225 225 225 225 225 225 225 225 1806 225 1816 1817 225 225 1813 225 225 225 225 225 225 225 225 225 225 225 225 225 225 1817 225 1815 1806 225 225 1816 225 225 225 225 225 225 225 225 225 225 225 225 225 225 1813 225 1822 1820 225 225 1825 225 225 225 225 225 225 225 225 225 225 225 225 225 225 1828 225 1826 1818 225 225 1822 225 225 225 225 225 225 225 225 225 225 225 225 225 225 1826 225 1835 1809 225 225 1825 225 225 225 225 225 225 225 225 225 225 225 225 225 225 1813 225 1829 1810 225 225 1834 225 225 225 225 225 225 225 225 225 225 225 225 225 225 1821 225 1832 1811 225 225 1837 225 225 225 225 225 225 225 225 225 225 225 225 225 225 1833 225 1825 1814 225 225 1838 225 225 225 225 225 225 225 225 225 225 225 225 225 225 1831 225 1836 1828 225 225 1839 225 225 225 225 225 225 225 225 225 225 225 225 225 225 1841 225 1845 1824 225 225 1853 225 225 225 225 225 225 225 225 225 225 225 225 225 225 1839 225 1846 1830 225 225 1849 225 225 225 225 225 225 225 225 225 225 225 225 225 225 1841 225 1827 1822 225 225 1855 225 225 225 225 225 225 225 225 225 225 225 225 225 225 1852 225 1863 1843 225 225 1844 225 225 225 225 225 225 225 225 225 225 225 225 225 225 1850 225 1845 1843 225 225 1847 225 225 225 225 225 225 225 225 225 225 225 225 225 225 1850 225 1843 1839 225 225 1863 225 225 225 225 225 225 225 225 225 225 225 225 225 225 1857 225 1835 1849 225 225 1865 225 225 225 225 225 225 225 225 225 225 225 225 225 225 1869 225 1850 1838 225 225 1858 225 225 225 225 225 225 225 225 225 225 225 225 225 225 1871 225 1861 1847 225 225 1868 225 225 225 225 225 225 225 225 225 225 225 225 225 225 1866 225 1836 1824 225 225 1876 225 225 225 225 225 225 225 225 225 225 225 225 225 225 1875 225 1843 1835 225 225 1872 225 225 225 225 225 225 225 225 225 225 225 225 225 225 1875 225 1850 1842 225 225 1886 225 225 225 225 225 225 225 225 225 225 225 225 225 225 1881 225 1839 1846 225 225 1892 225 225 225 225 225 225 225 225 225 225 225 225 225 225 1871 225 1847 1846 225 225 1877 225 225 225 225 225 225 225 225 225 225 225 225 225 225 1882 225 1851 1838 225 225 1881 225 225 225 225 225 225 225 225 225 225 225 225 225 225 1895 225 1858 1855 225 225 1900 225 225 225 225 225 225 225 225 225 225 225 225 225 225 1887 225 1860 1852 225 225 1901 225 225 225 225 225 225 225 225 225 225 225 225 225 225 1888 225 1868 1858 225 225 1899 225 225 225 225 225 225 225 225 225 225 225 225 225 225 1890 225 1854 1850 225 225 1901 225 225 225 225 225 225 225 225 225 225 225 225 225 225 1905 225 1874 1864 225 225 1895 225 225 225 225 225 225 225 225 225 225 225 225 225 225 1904 225 1848 1850 225 225 1898 225 225 225 225 225 225 225 225 225 225 225 225 225 225 1905 225 1861 1852 225 225 1895 225 225 225 225 225 225 225 225 225 225 225 225 225 225 1900 225 1865 1868 225 225 1904 225 225 225 225 225 225 225 225 225 225 225 225 225 225 1910 225 1863 1863 225 225 1900 225 225 225 225 225 225 225 226 226 226 226 226 226 226 1919 226 1868 1867 226 226 1910 226 226 226 226 226 226 226 226 226 226 226 226 226 226 1911 226 1866 1854 226 226 1910 226 226 226 226 226 226 226 226 226 226 226 226 226 226 1932

Tree=0
num_leaves=1
num_cat=0
split_feature=
split_gain=
threshold=
decision_type=
left_child=
right_child=
leaf_value=-34.538776391283193
leaf_weight=0
leaf_count=0
internal_value=
internal_weight=
internal_count=
is_linear=0
shrinkage=1


Tree=1
num_leaves=16
num_cat=0
split_feature=96 89 84 16 16 85 91 89 17 97 18 98 95 89 16
split_gain=6399.35 827.677 469.804 167.801 194.179 110.811 93.2506 240.469 133.34 60.7222 59.8133 30.0914 27.5727 39.6359 21.6648
threshold=0.41500091552734381 0.0022762060398235921 0.045957844704389579 161.5341720581055 77.392238616943374 0.4542877078056336 0.031402140855789192 0.0033957271371036772 16.321160316467289 0.59000396728515636 26.65632247924805 0.23000335693359378 2.9412815570831303 0.0010613945778459313 78.324813842773452
decision_type=2 2 2 2 2 2 2 2 2 2 2 2 2 2 2
left_child=1 12 -2 4 11 -5 7 -4 9 -9 -6 -3 13 -1 -10
right_child=2 3 6 5 10 -7 -8 8 14 -11 -12 -13 -14 -15 -16
leaf_value=-0.63758277793295171 -0.64392564122663964 -0.62438962228208061 -0.65517365213411316 -1.6402626073991604 -0.76291775661622774 -0.63258214635560528 -1.6293626826661447 -0.80366132553803593 -1.3458066696840649 -1.6026376820244539 -1.5262618983461218 -1.1477181297666368 -0.64412539602157382 -1.1239992870937592 -1.6075628332001131
leaf_weight=15.159375458955767 20.475000619888306 13.584375411272051 12.993750393390654 5.3156251609325436 4.3312501311302176 24.412500739097595 1284.4125388860703 13.387500405311586 13.584375411272047 5.31562516093254 78.946877390146255 6.4968751966953269 385.08751165866852 12.009375363588331 183.48750555515289
leaf_count=77 104 69 66 27 22 124 6524 68 69 27 401 33 1956 61 932
internal_value=-1.38629 -0.797858 -1.59553 -1.23151 -1.35195 -0.812763 -1.60841 -1.49077 -1.54109 -1.03074 -1.48656 -0.793702 -0.657864 -0.852593 -1.58952
internal_weight=0 545.344 1533.66 133.088 103.359 29.7281 1513.18 228.769 215.775 18.7031 83.2781 20.0813 412.256 27.1688 197.072
internal_count=10560 2770 7790 676 525 151 7686 1162 1096 95 423 102 2094 138 1001
is_linear=0
shrinkage=1


Tree=2
num_leaves=16
num_cat=0
split_feature=16 89 20 89 15 96 16 84 18 19 20 96 97 16 95
split_gain=5288.88 3157.61 182.686 114.205 95.8493 64.6297 46.7615 65.6014 38.3397 29.7323 30.296 28.1528 27.1652 14.9354 13.4298
threshold=182.86145782470706 0.0033498608972877268 61.21197700500489 0.0014195380499586465 78.276779174804702 0.78500366210937511 76.797466278076186 0.13374260812997821 20.178909301757816 41.372549057006843 56.854003906250007 0.21499633789062503 0.065002441406250014 108.2036476135254 3.4461592435836796
decision_type=2 2 2 2 2 2 2 2 2 2 2 2 2 2 2
left_child=1 3 6 -1 14 13 7 12 -8 -6 -11 -10 -3 -4 -5
right_child=-2 2 5 4 9 -7 8 -9 11 10 -12 -13 -14 -15 -16
leaf_value=-1.6198087889068704 -1.6369946336418906 -0.96301395065444073 -1.6402626073991606 -1.2048884709204122 -1.3580756670888605 -0.80216739467756948 -1.2847070626081825 -0.67582622912345158 -1.1544103101692527 -0.71536332244181911 -1.2886142663970943 -0.65335459582467492 -1.6064001745619245 -1.1831197640964746 -1.5933761619322184
leaf_weight=205.34063121676445 1285.2000389099121 4.7250001430511492 10.434375315904619 4.1343751251697567 7.0875002145767239 7.8750002384185782 3.9375001192092887 15.553125470876692 4.5281251370906821 13.190625399351122 5.1187501549720755 476.43751442432404 5.9062501788139343 3.9375001192092887 25.593750774860382
leaf_count=1043 6528 24 53 21 36 40 20 79 23 67 26 2420 30 20 130
internal_value=-1.38629 -0.980399 -0.701639 -1.55119 -1.29559 -1.26268 -0.677218 -0.937553 -0.66316 -1.01026 -0.875627 -0.658072 -1.32045 -1.51502 -1.53935
internal_weight=0 793.8 533.334 260.466 55.125 22.2469 511.088 26.1844 484.903 25.3969 18.3094 480.966 10.6313 14.3719 29.7281
internal_count=10560 4032 2709 1323 280 113 2596 133 2463 129 93 2443 54 73 151
is_linear=0
shrinkage=1


Tree=3
num_leaves=1
num_cat=0
split_feature=
split_gain=
threshold=
decision_type=
left_child=
right_child=
leaf_value=-34.538776391283193
leaf_weight=0
leaf_count=0
internal_value=
internal_weight=
internal_count=
is_linear=0
shrinkage=1


Tree=4
num_leaves=1
num_cat=0
split_feature=
split_gain=
threshold=
decision_type=
left_child=
right_child=
leaf_value=-34.538776391283193
leaf_weight=0
leaf_count=0
internal_value=
internal_weight=
internal_count=
is_linear=0
shrinkage=1


Tree=5
num_leaves=16
num_cat=0
split_feature=18 91 20 16 89 70 70 94 68 96 96 18 16 74 18
split_gain=3740.98 2590.63 873.137 475.168 514.269 256.782 245.948 165.128 156.33 299.074 141.08 59.5198 22.8947 22.241 10.8727
threshold=19.009456634521488 0.041139364242553718 79.818908691406264 233.8413009643555 0.027741782367229465 0.042653828859329231 0.13053745031356814 10.41866445541382 0.024949755519628528 1.254997253417969 1.1800003051757815 46.729232788085945 218.54286193847659 0.4427629709243775 20.542367935180668
decision_type=2 2 2 2 2 2 2 2 2 2 2 2 2 2 2
left_child=1 10 8 14 5 -5 11 -6 13 -10 -1 -7 -11 -3 -2
right_child=3 2 -4 4 7 6 -8 -9 9 12 -12 -13 -14 -15 -16
leaf_value=-1.6324104490600915 -1.4767887937021591 -1.0541820390623835 -1.6132925281482646 -1.6402626073991606 -1.6297742432460345 -0.63655576581641671 -1.5853505541495887 -0.71888943485111112 -1.6300012641151498 -1.1323261148406205 -0.62438962228208039 -1.4370880103757446 -0.62438962228208039 -0.63457892002648442 -1.6373663194872088
leaf_weight=203.76563116908073 17.12812551856041 5.1187501549720755 44.493751347064972 19.687500596046448 133.48125404119492 65.756251990795135 14.56875044107437 8.4656252562999708 19.490625590085983 3.9375001192092887 5.709375172853469 3.9375001192092887 36.028126090764999 392.56876188516617 1104.8625334501266
leaf_count=1035 87 26 226 100 678 334 74 43 99 20 29 20 183 1994 5612
internal_value=-1.38629 -1.0142 -0.767521 -1.57973 -1.32794 -0.98995 -0.838008 -1.57545 -0.685202 -0.987682 -1.60494 -0.681784 -0.674433 -0.63998 -1.63491
internal_weight=0 711.113 501.638 1367.89 245.897 103.95 84.2625 141.947 457.144 59.4563 209.475 69.6938 39.9656 397.688 1121.99
internal_count=10560 3612 2548 6948 1249 528 428 721 2322 302 1064 354 203 2020 5699
is_linear=0
shrinkage=1


Tree=6
num_leaves=1
num_cat=0
split_feature=
split_gain=
threshold=
decision_type=
left_child=
right_child=
leaf_value=-34.538776391283193
leaf_weight=0
leaf_count=0
internal_value=
internal_weight=
internal_count=
is_linear=0
shrinkage=1


Tree=7
num_leaves=1
num_cat=0
split_feature=
split_gain=
threshold=
decision_type=
left_child=
right_child=
leaf_value=-34.538776391283193
leaf_weight=0
leaf_count=0
internal_value=
internal_weight=
internal_count=
is_linear=0
shrinkage=1


Tree=8
num_leaves=1
num_cat=0
split_feature=
split_gain=
threshold=
decision_type=
left_child=
right_child=
leaf_value=-34.538776391283193
leaf_weight=0
leaf_count=0
internal_value=
internal_weight=
internal_count=
is_linear=0
shrinkage=1


Tree=9
num_leaves=1
num_cat=0
split_feature=
split_gain=
threshold=
decision_type=
left_child=
right_child=
leaf_value=-34.538776391283193
leaf_weight=0
leaf_count=0
internal_value=
internal_weight=
internal_count=
is_linear=0
shrinkage=1


Tree=10
num_leaves=1
num_cat=0
split_feature=
split_gain=
threshold=
decision_type=
left_child=
right_child=
leaf_value=-34.538776391283193
leaf_weight=0
leaf_count=0
internal_value=
internal_weight=
internal_count=
is_linear=0
shrinkage=1


Tree=11
num_leaves=1
num_cat=0
split_feature=
split_gain=
threshold=
decision_type=
left_child=
right_child=
leaf_value=-34.538776391283193
leaf_weight=0
leaf_count=0
internal_value=
internal_weight=
internal_count=
is_linear=0
shrinkage=1


Tree=12
num_leaves=1
num_cat=0
split_feature=
split_gain=
threshold=
decision_type=
left_child=
right_child=
leaf_value=-34.538776391283193
leaf_weight=0
leaf_count=0
internal_value=
internal_weight=
internal_count=
is_linear=0
shrinkage=1


Tree=13
num_leaves=1
num_cat=0
split_feature=
split_gain=
threshold=
decision_type=
left_child=
right_child=
leaf_value=-34.538776391283193
leaf_weight=0
leaf_count=0
internal_value=
internal_weight=
internal_count=
is_linear=0
shrinkage=1


Tree=14
num_leaves=1
num_cat=0
split_feature=
split_gain=
threshold=
decision_type=
left_child=
right_child=
leaf_value=-34.538776391283193
leaf_weight=0
leaf_count=0
internal_value=
internal_weight=
internal_count=
is_linear=0
shrinkage=1


Tree=15
num_leaves=1
num_cat=0
split_feature=
split_gain=
threshold=
decision_type=
left_child=
right_child=
leaf_value=-34.538776391283193
leaf_weight=0
leaf_count=0
internal_value=
internal_weight=
internal_count=
is_linear=0
shrinkage=1


Tree=16
num_leaves=1
num_cat=0
split_feature=
split_gain=
threshold=
decision_type=
left_child=
right_child=
leaf_value=-34.538776391283193
leaf_weight=0
leaf_count=0
internal_value=
internal_weight=
internal_count=
is_linear=0
shrinkage=1


Tree=17
num_leaves=1
num_cat=0
split_feature=
split_gain=
threshold=
decision_type=
left_child=
right_child=
leaf_value=-34.538776391283193
leaf_weight=0
leaf_count=0
internal_value=
internal_weight=
internal_count=
is_linear=0
shrinkage=1


Tree=18
num_leaves=1
num_cat=0
split_feature=
split_gain=
threshold=
decision_type=
left_child=
right_child=
leaf_value=-34.538776391283193
leaf_weight=0
leaf_count=0
internal_value=
internal_weight=
internal_count=
is_linear=0
shrinkage=1


Tree=19
num_leaves=1
num_cat=0
split_feature=
split_gain=
threshold=
decision_type=
left_child=
right_child=
leaf_value=-34.538776391283193
leaf_weight=0
leaf_count=0
internal_value=
internal_weight=
internal_count=
is_linear=0
shrinkage=1


Tree=20
num_leaves=16
num_cat=0
split_feature=97 96 15 75 16 18 18 28 96 17 18 89 54 16 70
split_gain=3870.53 1783.08 1382.72 851.112 387.803 249.382 223.271 168.024 146.348 65.7371 54.506 36.9434 28.7149 51.2345 22.194
threshold=0.58499908447265636 1.409996032714844 130.74866485595706 0.69499969482421886 223.58647918701175 58.805635452270515 15.198544025421144 0.20063132047653201 1.3249893188476565 68.63492584228517 53.633787155151374 0.0093017038889229315 0.45999908447265631 219.85260772705081 0.03471344709396363
decision_type=2 2 2 2 2 2 2 2 2 2 2 2 2 2 2
left_child=3 2 -2 5 -5 9 7 -4 -6 12 -3 -8 -1 -14 -7
right_child=1 10 6 4 8 14 11 -9 -10 -11 -12 -13 13 -15 -16
leaf_value=-1.6283638821399555 -1.6290374915415133 -1.6330167230545309 -1.6402626073991606 -1.6402626073991606 -0.64703647226876693 -1.1831197640964746 -1.2246782043967186 -0.62438962228208039 -1.4921144637362531 -0.87835786856135045 -0.87835786856135045 -0.63750706398373569 -1.6402626073991606 -0.72597692079378862 -0.62438962228208039
leaf_weight=1294.2562891840935 71.268752157688141 138.0093791782856 16.340625494718555 27.759375840425491 61.818751871585846 3.9375001192092887 4.3312501311302176 10.828125327825544 9.4500002861022931 4.7250001430511466 3.9375001192092887 411.66563746333122 6.496875196695326 3.9375001192092896 10.237500309944151
leaf_count=6574 362 701 83 141 314 20 22 55 48 24 20 2091 33 20 52
internal_value=-1.38629 -0.984546 -0.811391 -1.57166 -1.0061 -1.61397 -0.679899 -1.23539 -0.759091 -1.623 -1.61208 -0.643621 -1.6257 -1.29525 -0.779592
internal_weight=0 656.381 514.434 1422.62 99.0281 1323.59 443.166 27.1688 71.2688 1309.42 141.947 415.997 1304.69 10.4344 14.175
internal_count=10560 3334 2613 7226 503 6723 2251 138 362 6651 721 2113 6627 53 72
is_linear=0
shrinkage=1


Tree=21
num_leaves=1
num_cat=0
split_feature=
split_gain=
threshold=
decision_type=
left_child=
right_child=
leaf_value=0
leaf_weight=0
leaf_count=0
internal_value=
internal_weight=
internal_count=
is_linear=0
shrinkage=1


Tree=22
num_leaves=16
num_cat=0
split_feature=96 84 89 91 89 19 16 17 15 65 33 70 98 20 84
split_gain=2878.3 229.756 200.999 78.4736 125.562 73.0143 58.4019 53.9436 27.0435 23.1297 19.7649 18.3617 18.0363 14.5781 13.3212
threshold=0.41500091552734381 0.045957844704389579 0.0021538531873375182 0.031402140855789192 0.0055535326246172198 58.627450942993171 161.5341720581055 16.321160316467289 77.032032012939467 0.99405723810195934 0.084999084472656264 0.033275723457336433 0.23500061035156253 57.536407470703132 0.19161020964384082
decision_type=2 2 2 2 2 2 2 2 2 2 2 2 2 2 2
left_child=2 -2 -1 4 9 6 8 10 12 -3 -6 13 -4 -7 -12
right_child=1 3 5 -5 7 11 -8 -9 -10 -11 14 -13 -14 -15 -16
leaf_value=0.38659347050769977 0.39330827005675467 -0.01464602601007953 0.38711014970368185 -0.21792908792053228 0.44160346531294081 0.11304934244156978 0.32904349337261934 -0.18228677436488502 -0.12685427669818267 0.41879928646346826 0.21420351508839075 -0.078506441332031413 -0.099111066976105458 0.40015765505495121 -0.2397433176873226
leaf_weight=538.63282234966755 27.137828707695007 6.433921322226527 7.6903698295354825 1000.816739782691 7.2100073993206051 8.6895204037427884 18.400479570031166 152.68334138393402 59.39944551885128 20.990403026342392 5.7825590223073942 4.4470733255147925 5.0593002438545227 38.052063792943954 4.6773480623960495
leaf_count=2067 104 36 34 6524 28 45 76 962 346 83 24 26 26 150 29
internal_value=0 -0.182151 0.33083 -0.19518 -0.0800615 0.118917 0.0109892 -0.144 -0.0701254 0.31711 0.186829 0.309835 0.194169 0.346783 0.0112125
internal_weight=0 1225.73 680.371 1198.59 197.778 141.738 90.5496 170.353 72.1491 27.4243 17.6699 51.1887 12.7497 46.7416 10.4599
internal_count=10560 7790 2770 7686 1162 703 482 1043 406 119 81 221 60 195 53
is_linear=0
shrinkage=0.2


Tree=23
num_leaves=16
num_cat=0
split_feature=16 89 20 85 16 90 16 89 18 19 73 96 92 96 20
split_gain=2699.18 1078.78 75.1547 36.9163 28.259 53.6232 26.9137 25.2943 19.2093 17.3019 14.0339 10.3419 9.17846 8.37262 6.83185
threshold=182.86145782470706 0.0021538531873375182 62.237915039062507 0.8598066270351411 77.392238616943374 0.012175485026091339 80.713195800781264 0.0011465371935628357 18.595746040344242 47.254901885986335 2.1913529634475712 0.20999908447265628 4.6508512496948251 0.19499969482421878 63.705011367797859
decision_type=2 2 2 2 2 2 2 2 2 2 2 2 2 2 2
left_child=1 6 4 14 5 -3 -1 12 -6 -9 13 -10 -8 -11 -4
right_child=-2 2 3 -5 8 -7 7 9 11 10 -12 -13 -14 -15 -16
leaf_value=-0.23088965341655673 -0.22739490769367299 -0.16285222382993186 0.061875813572648965 0.4153248807140118 -0.084621128472921303 0.352644541719562 -0.19226268260863327 -0.20796456278985134 0.15742110159267539 0.5088194087093717 -0.0706808837923944 0.38644976551061666 0.13331235479413889 0.14782628336344275 -0.23093178092126143
leaf_weight=127.63009740412235 996.08292244374752 11.218578323721884 4.313178136944777 6.274381846189498 3.5226099640130988 28.774423658847809 35.671152740716934 4.9631669372320202 7.9834053814411154 5.8624713122844678 4.5389840155839911 649.34060557186604 3.8360731601715079 4.5758793950080872 12.211536541581152
leaf_count=826 6528 62 23 25 18 115 233 28 35 28 27 2495 25 22 70
internal_value=0 0.248991 0.359667 0.00231397 0.371292 0.208041 -0.179118 -0.0679663 0.381172 0.115664 0.222907 0.383668 -0.16065 0.35057 -0.154505
internal_weight=0 910.717 723.639 22.7991 700.84 39.993 187.078 59.4477 660.847 19.9405 14.9773 657.324 39.5072 10.4384 16.5247
internal_count=10560 4032 2843 118 2725 177 1189 363 2548 105 77 2530 258 50 93
is_linear=0
shrinkage=0.2


Tree=24
num_leaves=1
num_cat=0
split_feature=
split_gain=
threshold=
decision_type=
left_child=
right_child=
leaf_value=0
leaf_weight=0
leaf_count=0
internal_value=
internal_weight=
internal_count=
is_linear=0
shrinkage=1


Tree=25
num_leaves=1
num_cat=0
split_feature=
split_gain=
threshold=
decision_type=
left_child=
right_child=
leaf_value=0
leaf_weight=0
leaf_count=0
internal_value=
internal_weight=
internal_count=
is_linear=0
shrinkage=1


Tree=26
num_leaves=16
num_cat=0
split_feature=18 91 20 16 89 70 94 70 96 68 96 20 16 95 74
split_gain=1850.28 950.627 317.217 311.854 223.933 90.1319 89.0346 79.8851 70.1824 53.9199 143.166 20.2574 11.2829 10.6315 5.24908
threshold=20.178909301757816 0.041139364242553718 80.582118988037124 233.8413009643555 0.027741782367229465 0.042653828859329231 10.41866445541382 0.13053745031356814 1.1800003051757815 0.019015097059309486 1.2250061035156252 54.727701187133796 218.278678894043 6.0313544273376474 0.45978167653083807
decision_type=2 2 2 2 2 2 2 2 2 2 2 2 2 2 2
left_child=1 8 9 -2 5 -5 13 11 -1 14 -11 -7 -12 -6 -3
right_child=3 2 -4 4 6 7 -8 -9 -10 10 12 -13 -14 -15 -16
leaf_value=-0.22186201139108272 -0.22735529477470928 0.23282352040587814 -0.22747189178585328 -0.23166473118838429 -0.2326879621067337 0.3996961954157483 0.37997529904409294 -0.17180213478742895 0.40008102392156258 -0.21632222553670499 0.075633103710671307 -0.030485967728026832 0.40484402484892368 0.14006680342181674 0.39628938101851707
leaf_weight=163.28950393199921 858.91905549913645 7.9775193035602561 37.664404541254044 14.209718391299246 97.490196377038956 80.336019441485405 10.932190880179403 12.161247938871382 7.5950680077075949 22.038327917456627 4.503481224179267 4.6310365200042716 55.272788092494011 3.1597989052534095 522.64939899742603
leaf_count=1066 5632 32 242 93 630 308 43 74 29 134 20 23 213 19 2002
internal_value=0 0.225546 0.335884 -0.172651 0.0381273 0.238801 -0.162107 0.307629 -0.194219 0.37053 0.2194 0.37625 0.380042 -0.220986 0.393832
internal_weight=0 820.99 650.106 1081.84 222.92 111.338 111.582 97.1283 170.885 612.442 81.8146 84.9671 59.7763 100.65 530.627
internal_count=10560 3738 2643 6822 1190 498 692 405 1095 2401 367 331 233 649 2034
is_linear=0
shrinkage=0.2


Tree=27
num_leaves=1
num_cat=0
split_feature=
split_gain=
threshold=
decision_type=
left_child=
right_child=
leaf_value=0
leaf_weight=0
leaf_count=0
internal_value=
internal_weight=
internal_count=
is_linear=0
shrinkage=1


Tree=28
num_leaves=1
num_cat=0
split_feature=
split_gain=
threshold=
decision_type=
left_child=
right_child=
leaf_value=0
leaf_weight=0
leaf_count=0
internal_value=
internal_weight=
internal_count=
is_linear=0
shrinkage=1


Tree=29
num_leaves=1
num_cat=0
split_feature=
split_gain=
threshold=
decision_type=
left_child=
right_child=
leaf_value=0
leaf_weight=0
leaf_count=0
internal_value=
internal_weight=
internal_count=
is_linear=0
shrinkage=1


Tree=30
num_leaves=1
num_cat=0
split_feature=
split_gain=
threshold=
decision_type=
left_child=
right_child=
leaf_value=0
leaf_weight=0
leaf_count=0
internal_value=
internal_weight=
internal_count=
is_linear=0
shrinkage=1


Tree=31
num_leaves=1
num_cat=0
split_feature=
split_gain=
threshold=
decision_type=
left_child=
right_child=
leaf_value=0
leaf_weight=0
leaf_count=0
internal_value=
internal_weight=
internal_count=
is_linear=0
shrinkage=1


Tree=32
num_leaves=1
num_cat=0
split_feature=
split_gain=
threshold=
decision_type=
left_child=
right_child=
leaf_value=0
leaf_weight=0
leaf_count=0
internal_value=
internal_weight=
internal_count=
is_linear=0
shrinkage=1


Tree=33
num_leaves=1
num_cat=0
split_feature=
split_gain=
threshold=
decision_type=
left_child=
right_child=
leaf_value=0
leaf_weight=0
leaf_count=0
internal_value=
internal_weight=
internal_count=
is_linear=0
shrinkage=1


Tree=34
num_leaves=1
num_cat=0
split_feature=
split_gain=
threshold=
decision_type=
left_child=
right_child=
leaf_value=0
leaf_weight=0
leaf_count=0
internal_value=
internal_weight=
internal_count=
is_linear=0
shrinkage=1


Tree=35
num_leaves=1
num_cat=0
split_feature=
split_gain=
threshold=
decision_type=
left_child=
right_child=
leaf_value=0
leaf_weight=0
leaf_count=0
internal_value=
internal_weight=
internal_count=
is_linear=0
shrinkage=1


Tree=36
num_leaves=1
num_cat=0
split_feature=
split_gain=
threshold=
decision_type=
left_child=
right_child=
leaf_value=0
leaf_weight=0
leaf_count=0
internal_value=
internal_weight=
internal_count=
is_linear=0
shrinkage=1


Tree=37
num_leaves=1
num_cat=0
split_feature=
split_gain=
threshold=
decision_type=
left_child=
right_child=
leaf_value=0
leaf_weight=0
leaf_count=0
internal_value=
internal_weight=
internal_count=
is_linear=0
shrinkage=1


Tree=38
num_leaves=1
num_cat=0
split_feature=
split_gain=
threshold=
decision_type=
left_child=
right_child=
leaf_value=0
leaf_weight=0
leaf_count=0
internal_value=
internal_weight=
internal_count=
is_linear=0
shrinkage=1


Tree=39
num_leaves=1
num_cat=0
split_feature=
split_gain=
threshold=
decision_type=
left_child=
right_child=
leaf_value=0
leaf_weight=0
leaf_count=0
internal_value=
internal_weight=
internal_count=
is_linear=0
shrinkage=1


Tree=40
num_leaves=1
num_cat=0
split_feature=
split_gain=
threshold=
decision_type=
left_child=
right_child=
leaf_value=0
leaf_weight=0
leaf_count=0
internal_value=
internal_weight=
internal_count=
is_linear=0
shrinkage=1


Tree=41
num_leaves=16
num_cat=0
split_feature=97 96 15 75 89 16 18 16 94 18 18 18 76 16 98
split_gain=1939.49 655.528 584.267 308.883 134.215 115.611 95.9389 61.3039 57.5969 75.9055 44.0526 43.2181 31.345 26.7562 25.108
threshold=0.51499938964843761 1.409996032714844 137.39495849609378 0.69499969482421886 0.0093017038889229315 224.12480163574222 56.838407516479499 265.00675964355474 10.41866445541382 49.088159561157234 10.074658393859865 60.337705612182624 0.29000091552734381 191.16934204101565 0.97499847412109386
decision_type=2 2 2 2 2 2 2 2 2 2 2 2 2 2 2
left_child=3 2 -2 6 12 -5 -1 -8 10 -10 -6 -3 -4 -12 -7
right_child=1 11 4 5 8 14 7 -9 9 -11 13 -13 -14 -15 -16
leaf_value=-0.21861766513242464 -0.21780734150621228 -0.22447260147204343 -0.2341648500503217 -0.2328218786983979 -0.10945446659334801 0.38189238579421592 -0.23942621898255628 0.4723664159832125 -0.21657246519557255 0.40718477338235587 -0.16245884458283585 0.45872892040737656 0.44073108477748307 0.40325572230740142 -0.091866919462797236
leaf_weight=967.08783105015755 77.723395645618439 117.37352794408798 18.020186305046085 18.3118786662817 6.8703090995550147 53.967467218637466 7.5957008749246624 13.340409457683561 14.646086230874063 16.703887775540352 3.3636799156665793 3.824310600757598 3.2489675581455222 576.69031527638435 4.8791754096746436
leaf_count=6283 503 758 115 118 42 207 46 54 84 64 17 15 14 2213 27
internal_value=0 0.227291 0.299984 -0.179351 0.362911 0.206045 -0.209448 0.214125 0.379904 0.115778 0.394012 -0.202915 -0.131071 0.399975 0.342611
internal_weight=0 838.465 717.267 1065.18 639.543 77.1585 988.024 20.9361 618.274 31.35 586.924 121.198 21.2692 580.054 58.8466
internal_count=10560 3825 3052 6735 2549 352 6383 100 2420 148 2272 773 129 2230 234
is_linear=0
shrinkage=0.2


Tree=42
num_leaves=1
num_cat=0
split_feature=
split_gain=
threshold=
decision_type=
left_child=
right_child=
leaf_value=0
leaf_weight=0
leaf_count=0
internal_value=
internal_weight=
internal_count=
is_linear=0
shrinkage=1


Tree=43
num_leaves=16
num_cat=0
split_feature=96 16 89 84 70 18 97 19 16 63 18 15 70 44 87
split_gain=1645.95 143.354 93.0021 65.3334 55.2375 88.6263 52.913 36.9246 30.7731 28.6553 32.3698 18.3167 15.5455 11.519 10.0972
threshold=0.41500091552734381 78.324813842773452 0.0021538531873375182 0.13374260812997821 0.028761625289916996 19.758565902709964 0.93499755859375011 58.235294342041023 145.37573242187503 0.070997703820467009 44.317203521728523 77.032032012939467 0.035810351371765144 0.99760797619819652 0.19108405709266665
decision_type=2 2 2 2 2 2 2 2 2 2 2 2 2 2 2
left_child=2 3 -1 -2 5 6 -3 8 11 10 -7 13 -10 -4 -9
right_child=1 4 7 -5 -6 9 -8 14 12 -11 -12 -13 -14 -15 -16
leaf_value=0.28841011115288712 0.35383290454732508 0.37518060834916844 0.34180072804364664 -0.13802758681196478 -0.20276930167490326 0.50071091075030549 -0.21771474618370715 -0.22182740352287389 0.31576120732724267 -0.18802780802080107 -0.15096204902136875 -0.11985223303901521 -0.099146186049728191 -0.050867294787123207 0.24669621692117791
leaf_weight=511.10663326084614 30.042382672429085 23.931590050458912 6.3745761066675168 16.866943337023258 768.24224465340376 5.4297509491443616 8.0450255870819074 1.9096519649028767 16.002413213253025 98.421498045325279 6.9531819373369217 45.811340898275375 4.6651652902364722 5.6253621876239777 50.385745689272881
leaf_count=2067 126 102 30 122 6484 27 70 15 67 808 51 316 29 27 219
internal_value=0 -0.163982 0.249902 0.176977 -0.181538 -0.0673042 0.226014 0.0993993 0.0126468 -0.151952 0.134788 -0.0622353 0.222107 0.157725 0.229587
internal_weight=0 957.933 641.881 46.9093 911.023 142.781 31.9766 130.774 78.4789 110.804 12.3829 57.8113 20.6676 11.9999 52.2954
internal_count=10560 7790 2770 248 7542 1058 172 703 469 886 78 373 96 57 234
is_linear=0
shrinkage=0.2


Tree=44
num_leaves=16
num_cat=0
split_feature=16 89 20 16 98 20 70 84 16 15 75 17 86 33 97
split_gain=1638.68 541.387 38.0804 26.3586 20.7459 18.6195 21.8546 18.0539 31.3749 14.3634 18.7184 13.8035 14.3607 13.5437 13.5085
threshold=182.86145782470706 0.0021538531873375182 62.237915039062507 80.713195800781264 0.44499969482421881 49.402292251586921 0.0028749704360961918 0.13374260812997821 77.392238616943374 84.202037811279311 0.15499877929687503 20.486865997314457 0.98881664872169506 0.040000915527343757 0.065002441406250014
decision_type=2 2 2 2 2 2 2 2 2 2 2 2 2 2 2
left_child=1 3 7 -1 -4 -5 -7 8 14 10 13 12 -10 -8 -3
right_child=-2 2 4 5 -6 6 9 -9 11 -11 -12 -13 -14 -15 -16
leaf_value=-0.216730943078706 -0.21329245826945914 0.16030416180760979 -0.160315805409597 -0.21159156605455159 0.25012809116764839 -0.16880571069444439 0.47074927102418818 0.2942315984358212 0.24250785055612509 0.41487016866854276 -0.23071896586860749 0.26074150690485248 -0.24981689495613321 -0.0019813581484415268 -0.21859018763774865
leaf_weight=96.747458957135677 757.28950169682503 6.6546458080410948 12.646597050130369 16.692043855786324 8.0686568617820722 12.131717026233671 4.7271465361118334 497.77182872593403 5.0686078369617444 6.5104841813445082 5.6062792390584937 148.5347284078598 4.4511130303144455 4.9761002361774445 8.6642893925309163
leaf_count=826 6528 29 86 132 32 91 30 2005 21 34 41 594 21 35 55
internal_value=0 0.192487 0.266629 -0.155538 -0.000446611 -0.038639 0.0463914 0.274873 0.219291 0.166039 0.0602217 0.245778 0.0123128 0.22832 -0.053996
internal_weight=0 839.252 691.86 147.391 20.7153 50.6438 33.9517 671.145 173.373 21.82 15.3095 158.054 9.51972 9.70325 15.3189
internal_count=10560 4032 2843 1189 118 363 231 2725 720 140 106 636 42 65 84
is_linear=0
shrinkage=0.2


Tree=45
num_leaves=1
num_cat=0
split_feature=
split_gain=
threshold=
decision_type=
left_child=
right_child=
leaf_value=0
leaf_weight=0
leaf_count=0
internal_value=
internal_weight=
internal_count=
is_linear=0
shrinkage=1


Tree=46
num_leaves=1
num_cat=0
split_feature=
split_gain=
threshold=
decision_type=
left_child=
right_child=
leaf_value=0
leaf_weight=0
leaf_count=0
internal_value=
internal_weight=
internal_count=
is_linear=0
shrinkage=1


Tree=47
num_leaves=16
num_cat=0
split_feature=18 91 16 20 89 96 70 20 96 49 18 77 77 95 77
split_gain=1113.92 515.295 208.23 168.965 127.873 64.8407 57.6511 47.6975 44.1186 34.0533 81.2686 22.5426 19.0909 12.134 10.8286
threshold=20.912832260131839 0.041139364242553718 230.39087677001956 80.582118988037124 0.027741782367229465 1.439994812011719 0.042653828859329231 54.847087860107429 1.1800003051757815 0.21865105628967288 9.6778712272644061 0.63500213623046886 0.30500030517578131 4.8789784908294687 0.45999908447265631
decision_type=2 2 2 2 2 2 2 2 2 2 2 2 2 2 2
left_child=1 8 -2 9 6 11 -4 12 -1 14 -11 -6 -8 -12 -3
right_child=2 3 4 -5 5 -7 7 -9 -10 10 13 -13 -14 -15 -16
leaf_value=-0.20618963779946453 -0.21689443733778538 0.29806580947194949 -0.2187427037820604 -0.21274806485495212 -0.21794902529953342 0.41044683851648411 0.31121671076765339 -0.21521437062343321 0.30493085341739884 0.29563622576336279 -0.23002577928799917 0.24886313658325621 -0.056097058226917046 0.16232596756062323 0.074042853347051116
leaf_weight=127.51901209354401 633.77922560274601 506.38236878812313 12.88284696638584 29.668779522180557 83.930995233356953 7.6937457770109168 73.033845156431198 8.5223428755998594 7.1330222785472861 46.962892197072506 18.979291602969173 4.3524751216173163 6.135424628853797 3.7810567170381537 8.7803684920072538
leaf_count=1088 5477 2064 111 250 701 32 300 59 29 192 143 19 39 16 40
internal_value=0 0.175235 -0.161119 0.252875 0.0187298 -0.146406 0.176317 0.234356 -0.179114 0.276494 0.145317 -0.194935 0.282751 -0.164846 0.294248
internal_weight=0 749.207 830.331 614.555 196.552 95.9772 100.574 87.6916 134.652 584.886 69.7232 88.2835 79.1693 22.7603 515.163
internal_count=10560 3822 6738 2705 1261 752 509 398 1117 2455 351 720 339 159 2104
is_linear=0
shrinkage=0.2


Tree=48
num_leaves=1
num_cat=0
split_feature=
split_gain=
threshold=
decision_type=
left_child=
right_child=
leaf_value=0
leaf_weight=0
leaf_count=0
internal_value=
internal_weight=
internal_count=
is_linear=0
shrinkage=1


Tree=49
num_leaves=1
num_cat=0
split_feature=
split_gain=
threshold=
decision_type=
left_child=
right_child=
leaf_value=0
leaf_weight=0
leaf_count=0
internal_value=
internal_weight=
internal_count=
is_linear=0
shrinkage=1


Tree=50
num_leaves=1
num_cat=0
split_feature=
split_gain=
threshold=
decision_type=
left_child=
right_child=
leaf_value=0
leaf_weight=0
leaf_count=0
internal_value=
internal_weight=
internal_count=
is_linear=0
shrinkage=1


Tree=51
num_leaves=1
num_cat=0
split_feature=
split_gain=
threshold=
decision_type=
left_child=
right_child=
leaf_value=0
leaf_weight=0
leaf_count=0
internal_value=
internal_weight=
internal_count=
is_linear=0
shrinkage=1


Tree=52
num_leaves=1
num_cat=0
split_feature=
split_gain=
threshold=
decision_type=
left_child=
right_child=
leaf_value=0
leaf_weight=0
leaf_count=0
internal_value=
internal_weight=
internal_count=
is_linear=0
shrinkage=1


Tree=53
num_leaves=1
num_cat=0
split_feature=
split_gain=
threshold=
decision_type=
left_child=
right_child=
leaf_value=0
leaf_weight=0
leaf_count=0
internal_value=
internal_weight=
internal_count=
is_linear=0
shrinkage=1


Tree=54
num_leaves=1
num_cat=0
split_feature=
split_gain=
threshold=
decision_type=
left_child=
right_child=
leaf_value=0
leaf_weight=0
leaf_count=0
internal_value=
internal_weight=
internal_count=
is_linear=0
shrinkage=1


Tree=55
num_leaves=1
num_cat=0
split_feature=
split_gain=
threshold=
decision_type=
left_child=
right_child=
leaf_value=0
leaf_weight=0
leaf_count=0
internal_value=
internal_weight=
internal_count=
is_linear=0
shrinkage=1


Tree=56
num_leaves=1
num_cat=0
split_feature=
split_gain=
threshold=
decision_type=
left_child=
right_child=
leaf_value=0
leaf_weight=0
leaf_count=0
internal_value=
internal_weight=
internal_count=
is_linear=0
shrinkage=1


Tree=57
num_leaves=1
num_cat=0
split_feature=
split_gain=
threshold=
decision_type=
left_child=
right_child=
leaf_value=0
leaf_weight=0
leaf_count=0
internal_value=
internal_weight=
internal_count=
is_linear=0
shrinkage=1


Tree=58
num_leaves=1
num_cat=0
split_feature=
split_gain=
threshold=
decision_type=
left_child=
right_child=
leaf_value=0
leaf_weight=0
leaf_count=0
internal_value=
internal_weight=
internal_count=
is_linear=0
shrinkage=1


Tree=59
num_leaves=1
num_cat=0
split_feature=
split_gain=
threshold=
decision_type=
left_child=
right_child=
leaf_value=0
leaf_weight=0
leaf_count=0
internal_value=
internal_weight=
internal_count=
is_linear=0
shrinkage=1


Tree=60
num_leaves=1
num_cat=0
split_feature=
split_gain=
threshold=
decision_type=
left_child=
right_child=
leaf_value=0
leaf_weight=0
leaf_count=0
internal_value=
internal_weight=
internal_count=
is_linear=0
shrinkage=1


Tree=61
num_leaves=1
num_cat=0
split_feature=
split_gain=
threshold=
decision_type=
left_child=
right_child=
leaf_value=0
leaf_weight=0
leaf_count=0
internal_value=
internal_weight=
internal_count=
is_linear=0
shrinkage=1


Tree=62
num_leaves=16
num_cat=0
split_feature=97 15 96 54 89 17 16 18 49 89 16 97 76 16 17
split_gain=1169.82 380.512 330.007 154.878 131.822 48.2964 44.4194 32.2539 54.3567 28.6365 118.037 29.6889 24.6287 20.9618 15.7012
threshold=0.48999786376953131 137.39495849609378 1.4599990844726565 0.45500183105468756 0.0093017038889229315 68.63492584228517 225.46815490722659 15.198544025421144 0.2868224978446961 0.022153319790959362 191.16934204101565 0.099998474121093764 0.44499969482421881 182.86145782470706 28.800079345703129
decision_type=2 2 2 2 2 2 2 2 2 2 2 2 2 2 2
left_child=3 -2 4 5 12 9 -5 8 -6 -1 -11 -12 -3 -9 -13
right_child=1 2 -4 6 7 -7 -8 13 -10 10 11 14 -14 -15 -16
leaf_value=-0.2173900707684705 -0.20732985130560469 -0.22104848699836324 -0.21633198518224292 -0.22221578368440281 -0.22056466052822535 0.2813131107585507 0.29008058493572569 -0.24239176642167784 0.3025204319273247 -0.21856816371391929 -0.21539495163979394 0.10617164450003221 0.37643849050486755 0.29963245816211082 0.42339880053351986
leaf_weight=604.81508757174015 93.283511869609356 25.222571186721328 62.309928201138973 8.3571399971842748 13.214351952075956 8.4805175960063917 35.648337915539742 2.8683761134743682 19.932829931378365 104.98194846510887 5.2304370626807239 9.9260666817426699 3.0986120402812949 568.93406910449266 16.810528717935085
leaf_count=5162 787 213 530 69 111 36 149 19 82 896 35 53 12 2329 77
internal_value=0 0.171972 0.222839 -0.171876 0.266051 -0.193265 0.19279 0.285795 0.093989 -0.198691 -0.116108 0.220378 -0.155678 0.296913 0.305627
internal_weight=0 788.864 695.581 794.25 633.271 750.245 44.0055 604.95 33.1472 741.764 136.949 31.967 28.3212 571.802 26.7366
internal_count=10560 4083 3296 6477 2766 6259 218 2541 193 6223 1061 165 225 2348 130
is_linear=0
shrinkage=0.2


Tree=63
num_leaves=1
num_cat=0
split_feature=
split_gain=
threshold=
decision_type=
left_child=
right_child=
leaf_value=0
leaf_weight=0
leaf_count=0
internal_value=
internal_weight=
internal_count=
is_linear=0
shrinkage=1


Tree=64
num_leaves=16
num_cat=0
split_feature=91 89 84 18 97 16 84 16 97 54 18 96 95 16 20
split_gain=1007.91 146.569 53.1547 49.8842 31.5495 22.5925 26.7834 16.9739 16.6464 26.2045 28.2702 13.5514 13.4917 13.9189 13.349
threshold=0.018845319747924808 0.0036917893448844556 0.043776461854577071 33.900278091430671 0.54499816894531261 78.324813842773452 0.13571907579898837 73.864425659179702 0.31999969482421881 0.079994201660156264 40.612106323242195 0.21499633789062503 3.8580683469772343 145.37573242187503 54.605838775634773
decision_type=2 2 2 2 2 2 2 2 2 2 2 2 2 2 2
left_child=1 -1 -2 4 12 6 -4 -5 9 10 -7 -9 13 14 -3
right_child=2 3 5 7 -6 8 -8 11 -10 -11 -12 -13 -14 -15 -16
leaf_value=0.23537132182504517 0.26585851244296216 -0.22685955318087486 0.38166788428971787 0.17598844972670249 -0.1742299392954956 0.65156513122172444 -0.15525069008499548 0.31716524592811768 -0.20572328903084763 -0.14918773724498161 -0.12194735503449544 -0.1226682749242301 0.34521833638672078 0.30432742996487339 0.24373550103277852
leaf_weight=487.67662334442139 10.889437198638914 6.1736183315515536 6.1775337457656851 9.3675436303019506 8.8898677304387075 3.4712955430150023 9.3275259211659414 2.9009313434362403 451.90985163673759 160.05300315469503 4.1488035768270493 82.163259029388428 22.559193760156631 8.4713262021541578 3.9561579152941704
leaf_count=2354 54 52 28 46 95 19 89 17 5128 1720 43 742 115 39 19
internal_value=0 0.182954 -0.172275 0.00602542 0.167447 -0.179787 0.0586687 -0.0795302 -0.185755 -0.131936 0.230422 -0.107669 0.241243 0.115142 -0.0430699
internal_weight=0 632.159 645.977 144.482 50.0502 635.088 15.5051 94.4317 619.583 167.673 7.6201 85.0642 41.1603 18.6011 10.1298
internal_count=10560 3479 7081 1125 320 7027 117 805 6910 1782 62 759 225 110 71
is_linear=0
shrinkage=0.2


Tree=65
num_leaves=16
num_cat=0
split_feature=16 86 16 89 18 75 67 96 86 16 20 20 95 7 96
split_gain=1037.02 299.049 37.3313 41.378 21.1834 11.218 10.8857 20.9817 10.2454 8.81812 14.9884 37.0393 11.2976 8.43629 7.91375
threshold=182.86145782470706 0.99778372049331676 77.85089492797853 0.0078516388311982172 18.235101699829105 0.090003967285156264 0.78663408756256115 1.730003356933594 0.97016531229019176 80.713195800781264 54.492303848266609 56.327117919921882 4.150904893875123 0.0029855966567993168 0.76999664306640636
decision_type=2 2 2 2 2 2 2 2 2 2 2 2 2 2 2
left_child=1 2 3 -1 8 13 -2 -8 -4 -3 -11 -12 -13 -6 -7
right_child=6 9 4 -5 5 14 7 -9 -10 10 11 12 -14 -15 -16
leaf_value=-0.17590198719133127 -0.20691807565831899 -0.20961846569641818 0.21282304501707605 0.19123137975160207 -0.22380512170272288 0.21237999198760715 -0.13284993652895258 0.57892975926209633 -0.23784655467810795 -0.21407566958636945 0.65202125278942147 0.24404105106972851 -0.21573871005736975 0.18521269001267715 0.26067028412532278
leaf_weight=19.945536844432354 550.29151338338852 64.748726330697536 3.1109727025032026 31.949145399034023 3.698845222592352 279.2638992369175 9.8419670946896058 1.9918288961052883 5.7421175241470337 16.075537368655208 3.3316278010606757 2.8217802345752707 8.8179460242390615 4.4364237636327744 264.13591215014458
leaf_count=174 6408 752 13 146 22 1303 104 16 40 166 23 18 86 22 1267
internal_value=0 0.160997 0.212408 0.050125 0.227436 0.232363 -0.202837 -0.0130453 -0.0794814 -0.1676 -0.0799704 0.0640256 -0.104276 -0.000754557 0.235853
internal_weight=0 708.078 612.283 51.8947 560.388 551.535 562.125 11.8338 8.85309 95.7956 31.0469 14.9714 11.6397 8.13527 543.4
internal_count=10560 4032 2987 320 2667 2614 6528 120 53 1045 293 127 104 44 2570
is_linear=0
shrinkage=0.2


Tree=66
num_leaves=1
num_cat=0
split_feature=
split_gain=
threshold=
decision_type=
left_child=
right_child=
leaf_value=0
leaf_weight=0
leaf_count=0
internal_value=
internal_weight=
internal_count=
is_linear=0
shrinkage=1


Tree=67
num_leaves=1
num_cat=0
split_feature=
split_gain=
threshold=
decision_type=
left_child=
right_child=
leaf_value=0
leaf_weight=0
leaf_count=0
internal_value=
internal_weight=
internal_count=
is_linear=0
shrinkage=1


Tree=68
num_leaves=16
num_cat=0
split_feature=18 91 16 20 89 96 97 20 96 85 96 18 70 74 76
split_gain=702.454 305.895 151.441 99.6681 78.1431 46.9943 36.3481 34.1795 27.9419 22.6707 60.1188 24.4381 19.3581 15.5449 12.0494
threshold=20.912832260131839 0.044832378625869758 230.39087677001956 80.582118988037124 0.027741782367229465 1.3249893188476565 0.40000152587890631 55.071958541870124 1.1800003051757815 0.73519259691238414 1.254997253417969 9.7891454696655291 0.45459422469139105 0.55718824267387401 0.46999359130859381
decision_type=2 2 2 2 2 2 2 2 2 2 2 2 2 2 2
left_child=1 8 -2 9 6 -6 -4 14 -1 -3 11 -11 -7 -12 -8
right_child=2 3 4 -5 5 12 7 -9 -10 10 13 -13 -14 -15 -16
leaf_value=-0.18879175826078382 -0.20781627896775767 0.25683089064934633 -0.22715598763873701 -0.20184316469408908 -0.2128558714604335 0.30660557524229193 0.26228782934584627 -0.21465421979998056 0.2588990080721813 0.16327041472949466 -0.099553311664888428 -0.24097759977628891 -0.22103203508097727 0.25234842989809686 -0.11672643354140562
leaf_weight=97.868472017347813 470.38136260211468 367.86748173087835 9.0352204814553243 22.126990906894207 58.376326575875282 11.662474311888216 63.537900328636169 7.2567361146211615 5.913425847887992 8.9666719436645526 5.3221135511994353 17.969496697187424 3.6523495689034453 88.798904299736023 3.5422234758734694
leaf_count=1098 5477 1788 97 250 663 55 310 73 29 44 25 161 34 427 29
internal_value=0 0.149764 -0.151039 0.213336 0.0190013 -0.13105 0.151629 0.197669 -0.163283 0.232126 0.157051 -0.106409 0.180772 0.23245 0.242274
internal_weight=0 614.834 627.445 511.052 157.063 73.6912 83.3721 74.3369 103.782 488.925 121.057 26.9362 15.3148 94.121 67.0801
internal_count=10560 3822 6738 2695 1261 752 509 412 1127 2445 657 205 89 452 339
is_linear=0
shrinkage=0.2


Tree=69
num_leaves=1
num_cat=0
split_feature=
split_gain=
threshold=
decision_type=
left_child=
right_child=
leaf_value=0
leaf_weight=0
leaf_count=0
internal_value=
internal_weight=
internal_count=
is_linear=0
shrinkage=1


Tree=70
num_leaves=1
num_cat=0
split_feature=
split_gain=
threshold=
decision_type=
left_child=
right_child=
leaf_value=0
leaf_weight=0
leaf_count=0
internal_value=
internal_weight=
internal_count=
is_linear=0
shrinkage=1


Tree=71
num_leaves=1
num_cat=0
split_feature=
split_gain=
threshold=
decision_type=
left_child=
right_child=
leaf_value=0
leaf_weight=0
leaf_count=0
internal_value=
internal_weight=
internal_count=
is_linear=0
shrinkage=1


Tree=72
num_leaves=1
num_cat=0
split_feature=
split_gain=
threshold=
decision_type=
left_child=
right_child=
leaf_value=0
leaf_weight=0
leaf_count=0
internal_value=
internal_weight=
internal_count=
is_linear=0
shrinkage=1


Tree=73
num_leaves=1
num_cat=0
split_feature=
split_gain=
threshold=
decision_type=
left_child=
right_child=
leaf_value=0
leaf_weight=0
leaf_count=0
internal_value=
internal_weight=
internal_count=
is_linear=0
shrinkage=1


Tree=74
num_leaves=1
num_cat=0
split_feature=
split_gain=
threshold=
decision_type=
left_child=
right_child=
leaf_value=0
leaf_weight=0
leaf_count=0
internal_value=
internal_weight=
internal_count=
is_linear=0
shrinkage=1


Tree=75
num_leaves=1
num_cat=0
split_feature=
split_gain=
threshold=
decision_type=
left_child=
right_child=
leaf_value=0
leaf_weight=0
leaf_count=0
internal_value=
internal_weight=
internal_count=
is_linear=0
shrinkage=1


Tree=76
num_leaves=1
num_cat=0
split_feature=
split_gain=
threshold=
decision_type=
left_child=
right_child=
leaf_value=0
leaf_weight=0
leaf_count=0
internal_value=
internal_weight=
internal_count=
is_linear=0
shrinkage=1


Tree=77
num_leaves=1
num_cat=0
split_feature=
split_gain=
threshold=
decision_type=
left_child=
right_child=
leaf_value=0
leaf_weight=0
leaf_count=0
internal_value=
internal_weight=
internal_count=
is_linear=0
shrinkage=1


Tree=78
num_leaves=1
num_cat=0
split_feature=
split_gain=
threshold=
decision_type=
left_child=
right_child=
leaf_value=0
leaf_weight=0
leaf_count=0
internal_value=
internal_weight=
internal_count=
is_linear=0
shrinkage=1


Tree=79
num_leaves=1
num_cat=0
split_feature=
split_gain=
threshold=
decision_type=
left_child=
right_child=
leaf_value=0
leaf_weight=0
leaf_count=0
internal_value=
internal_weight=
internal_count=
is_linear=0
shrinkage=1


Tree=80
num_leaves=1
num_cat=0
split_feature=
split_gain=
threshold=
decision_type=
left_child=
right_child=
leaf_value=0
leaf_weight=0
leaf_count=0
internal_value=
internal_weight=
internal_count=
is_linear=0
shrinkage=1


Tree=81
num_leaves=1
num_cat=0
split_feature=
split_gain=
threshold=
decision_type=
left_child=
right_child=
leaf_value=0
leaf_weight=0
leaf_count=0
internal_value=
internal_weight=
internal_count=
is_linear=0
shrinkage=1


Tree=82
num_leaves=1
num_cat=0
split_feature=
split_gain=
threshold=
decision_type=
left_child=
right_child=
leaf_value=0
leaf_weight=0
leaf_count=0
internal_value=
internal_weight=
internal_count=
is_linear=0
shrinkage=1


Tree=83
num_leaves=16
num_cat=0
split_feature=97 15 96 75 89 16 18 16 94 18 18 76 16 18 75
split_gain=743.408 230.448 202.232 105.35 77.16 74.0505 32.5266 40.9364 22.2622 31.3131 18.0451 16.0303 15.6944 14.8155 7.70572
threshold=0.48999786376953131 130.74866485595706 1.439994812011719 0.60499572753906261 0.0093017038889229315 225.46815490722659 53.633787155151374 265.00675964355474 10.41866445541382 36.402790069580085 60.337705612182624 0.44499969482421881 182.86145782470706 9.7891454696655291 0.64499664306640636
decision_type=2 2 2 2 2 2 2 2 2 2 2 2 2 2 2
left_child=3 -2 4 6 11 -5 -1 -8 12 -10 -4 -3 -6 -14 -7
right_child=1 2 10 5 8 14 7 -9 9 -11 -12 -13 13 -15 -16
leaf_value=-0.20139447244910003 -0.19888397336109093 -0.21250310973195671 -0.20990069702170372 -0.21115912251861269 -0.22678890583200256 0.50572199079365532 -0.21172508131660597 0.30991226299096564 -0.24270053755928689 0.22797090408626405 0.27221133395582875 0.29845830214397423 -0.088421765679533429 0.25898728914004482 0.203959334048777
leaf_weight=511.18161395564675 68.491846278309822 18.554413281381134 50.444692045450211 23.460459232330322 2.7160891816020003 3.6989752054214469 12.659884355962278 11.469738677144049 8.8830800130963343 15.553395323455332 3.309159278869628 2.83067363500595 4.9621148258447638 468.90513667464256 39.860971331596375
leaf_count=5814 776 213 558 264 23 16 140 52 74 77 15 12 47 2288 191
internal_value=0 0.147937 0.189166 -0.161088 0.227175 0.0753021 -0.190683 0.0362292 0.243055 0.0568737 -0.180221 -0.144869 0.252602 0.255349 0.229584
internal_weight=0 644.651 576.159 602.332 522.405 67.0204 535.311 24.1296 501.02 24.4365 53.7539 21.3851 476.583 473.867 43.5599
internal_count=10560 4083 3307 6477 2734 471 6006 192 2509 151 573 225 2358 2335 207
is_linear=0
shrinkage=0.2


Tree=84
num_leaves=1
num_cat=0
split_feature=
split_gain=
threshold=
decision_type=
left_child=
right_child=
leaf_value=0
leaf_weight=0
leaf_count=0
internal_value=
internal_weight=
internal_count=
is_linear=0
shrinkage=1


Tree=85
num_leaves=16
num_cat=0
split_feature=91 86 84 18 15 97 95 17 97 94 16 51 16 89 84
split_gain=630.616 87.2771 35.197 30.8988 20.8459 20.659 20.5972 39.6736 18.6464 15.4172 11.9936 14.6459 11.757 11.5137 10.8418
threshold=0.018845319747924808 0.99677941203117382 0.043776461854577071 33.900278091430671 77.032032012939467 0.31999969482421881 3.7884390354156499 29.094635009765629 0.56000518798828136 7.1681194305419931 105.08269500732423 0.25489382445812231 76.797466278076186 0.0078516388311982172 0.10890126600861551
decision_type=2 2 2 2 2 2 2 2 2 2 2 2 2 2 2
left_child=1 3 -2 8 13 6 14 9 -1 -8 -9 -12 -7 -5 -4
right_child=2 -3 5 4 -6 12 7 10 -10 -11 11 -13 -14 -15 -16
leaf_value=0.19392047867448425 0.24418049413630505 0.21546234386819152 -0.1985510118337068 0.23035625144427035 -0.073196159789583215 0.10944437014492091 0.13421074929549182 -0.16210150756929576 -0.17527189137389249 0.59949621338250314 -0.072125608401229058 0.62735052552847725 -0.1980372770684195 -0.050298010346349967 -0.05517791797193039
leaf_weight=53.097591906785965 8.4985039085149747 349.72317442297935 65.920436136424541 16.838757947087291 82.126835286617279 5.050316020846366 6.8681894615292531 25.442934364080433 6.1007674410939208 4.867254339158535 3.4814172759652129 1.8250849246978758 329.81891110539436 8.9571845382451993 31.027162041515112
leaf_count=322 54 2105 962 86 812 39 62 345 90 34 37 15 5131 64 402
internal_value=0 0.158649 -0.159238 0.0397582 -0.0239336 -0.166466 -0.101779 0.0143396 0.155873 0.327187 -0.105058 0.168448 -0.1934 0.132904 -0.152666
internal_weight=0 516.844 482.8 167.121 107.923 474.302 139.432 42.4849 59.1984 11.7354 30.7494 5.3065 334.869 25.7959 96.9476
internal_count=10560 3479 7081 1374 962 7027 1857 493 412 96 397 52 5170 150 1364
is_linear=0
shrinkage=0.2


Tree=86
num_leaves=16
num_cat=0
split_feature=16 86 15 89 18 76 96 22 70 20 17 19 18 5 16
split_gain=675.833 178.885 25.5464 21.8362 14.0537 10.2869 9.59716 12.0543 17.8046 9.84332 15.6916 11.3569 10.5241 14.6475 8.98077
threshold=191.16934204101565 0.99778372049331676 73.534755706787124 0.0065419902093708524 54.451318740844734 0.99000549316406261 0.76999664306640636 0.84835734963417064 0.059683591127395637 58.980804443359382 41.035209655761726 62.15686225891114 34.166021347045906 0.0092814243398606795 80.713195800781264
decision_type=2 2 2 2 2 2 2 10 2 2 2 2 2 2 2
left_child=1 2 3 -1 6 -2 7 9 -9 12 11 -11 13 -4 -3
right_child=5 14 4 -5 -6 -7 -8 8 -10 10 -12 -13 -14 -15 -16
leaf_value=-0.15806184774291479 -0.19798367996534491 -0.20369457682205414 -0.12493520649760514 0.13530993415458906 -0.20489665069799934 0.37602135439748613 0.23109215257823457 0.17561941991975796 -0.38457845011079861 0.29044702638976355 -0.18371421431034402 -0.1090447295215896 0.21040543388687893 0.19338051639531986 -0.058345835145686115
leaf_weight=14.958788890391586 408.1103004552424 47.163997031748295 9.3958396986126917 31.558929212391376 3.4621045291423789 1.2526958249509323 208.93352104350924 5.6675955206155759 3.784952849149704 10.000063769519331 7.3822561949491492 3.9790692664682856 190.15117848664522 15.035571813583372 26.590721394866705
leaf_count=156 6479 752 54 172 19 7 1282 31 21 47 54 28 1066 84 308
internal_value=0 0.139634 0.182182 0.0409698 0.196531 -0.196227 0.19959 0.172768 -0.0486928 0.18164 0.0521673 0.176734 0.194529 0.0709626 -0.151292
internal_weight=0 578.065 504.31 46.5177 457.792 409.363 454.33 245.397 9.45255 235.944 21.3614 13.9791 214.583 24.4314 73.7547
internal_count=10560 4074 3014 328 2686 6486 2667 1385 52 1333 129 75 1204 138 1060
is_linear=0
shrinkage=0.2


Tree=87
num_leaves=1
num_cat=0
split_feature=
split_gain=
threshold=
decision_type=
left_child=
right_child=
leaf_value=0
leaf_weight=0
leaf_count=0
internal_value=
internal_weight=
internal_count=
is_linear=0
shrinkage=1


Tree=88
num_leaves=1
num_cat=0
split_feature=
split_gain=
threshold=
decision_type=
left_child=
right_child=
leaf_value=0
leaf_weight=0
leaf_count=0
internal_value=
internal_weight=
internal_count=
is_linear=0
shrinkage=1


Tree=89
num_leaves=16
num_cat=0
split_feature=18 91 16 20 89 96 97 20 16 96 85 96 87 84 49
split_gain=459.092 190.926 107.31 61.764 49.6213 32.5086 24.7216 21.4215 20.4959 19.049 16.0038 42.1195 18.0792 14.3613 11.4557
threshold=20.912832260131839 0.041139364242553718 230.39087677001956 81.393989562988295 0.027741782367229465 1.3249893188476565 0.40000152587890631 55.071958541870124 169.49693298339847 1.1800003051757815 0.72593799233436596 1.254997253417969 0.25262622535228735 0.13374260812997821 0.49486231803894049
decision_type=2 2 2 2 2 2 2 2 2 2 2 2 2 2 2
left_child=1 9 -2 8 6 -6 -4 -8 -3 -1 -10 12 -12 -14 -7
right_child=2 3 4 -5 5 14 7 -9 10 -11 11 -13 13 -15 -16
leaf_value=-0.18240869429326617 -0.20144296186968091 -0.29446293132581108 -0.22603976758414335 -0.20477536711440855 -0.20673957584338831 0.26683758700151861 0.21467689284209801 -0.20720252266989775 0.23192989689895327 0.23517494957604784 0.25823607987400993 0.21125407043619304 0.23884720208820012 -0.2600638285102303 -0.15383393860993708
leaf_weight=71.362632993608713 344.72230110689998 3.2707816734910002 6.7988763339817515 15.36146881431341 42.478216305375099 9.5899940803647024 53.56504362821579 5.2897290289401999 289.07138721644878 4.6546447128057471 4.554707974195483 74.436123177409172 2.7052145451307323 15.711792256683109 3.5471246987581244
leaf_count=1088 5477 19 97 238 663 50 339 73 1787 29 25 444 16 176 39
internal_value=0 0.134006 -0.144518 0.188582 0.0172978 -0.121704 0.135047 0.176759 0.204086 -0.156839 0.208305 0.138194 -0.0985449 -0.18678 0.153253
internal_weight=0 481.129 465.991 405.111 121.269 55.6153 65.6536 58.8548 389.75 76.0173 386.479 97.4078 22.9717 18.417 13.1371
internal_count=10560 3822 6738 2705 1261 752 509 412 2467 1117 2448 661 217 192 89
is_linear=0
shrinkage=0.2


Tree=90
num_leaves=1
num_cat=0
split_feature=
split_gain=
threshold=
decision_type=
left_child=
right_child=
leaf_value=0
leaf_weight=0
leaf_count=0
internal_value=
internal_weight=
internal_count=
is_linear=0
shrinkage=1


Tree=91
num_leaves=1
num_cat=0
split_feature=
split_gain=
threshold=
decision_type=
left_child=
right_child=
leaf_value=0
leaf_weight=0
leaf_count=0
internal_value=
internal_weight=
internal_count=
is_linear=0
shrinkage=1


Tree=92
num_leaves=1
num_cat=0
split_feature=
split_gain=
threshold=
decision_type=
left_child=
right_child=
leaf_value=0
leaf_weight=0
leaf_count=0
internal_value=
internal_weight=
internal_count=
is_linear=0
shrinkage=1


Tree=93
num_leaves=1
num_cat=0
split_feature=
split_gain=
threshold=
decision_type=
left_child=
right_child=
leaf_value=0
leaf_weight=0
leaf_count=0
internal_value=
internal_weight=
internal_count=
is_linear=0
shrinkage=1


Tree=94
num_leaves=1
num_cat=0
split_feature=
split_gain=
threshold=
decision_type=
left_child=
right_child=
leaf_value=0
leaf_weight=0
leaf_count=0
internal_value=
internal_weight=
internal_count=
is_linear=0
shrinkage=1


Tree=95
num_leaves=1
num_cat=0
split_feature=
split_gain=
threshold=
decision_type=
left_child=
right_child=
leaf_value=0
leaf_weight=0
leaf_count=0
internal_value=
internal_weight=
internal_count=
is_linear=0
shrinkage=1


Tree=96
num_leaves=1
num_cat=0
split_feature=
split_gain=
threshold=
decision_type=
left_child=
right_child=
leaf_value=0
leaf_weight=0
leaf_count=0
internal_value=
internal_weight=
internal_count=
is_linear=0
shrinkage=1


Tree=97
num_leaves=1
num_cat=0
split_feature=
split_gain=
threshold=
decision_type=
left_child=
right_child=
leaf_value=0
leaf_weight=0
leaf_count=0
internal_value=
internal_weight=
internal_count=
is_linear=0
shrinkage=1


Tree=98
num_leaves=1
num_cat=0
split_feature=
split_gain=
threshold=
decision_type=
left_child=
right_child=
leaf_value=0
leaf_weight=0
leaf_count=0
internal_value=
internal_weight=
internal_count=
is_linear=0
shrinkage=1


Tree=99
num_leaves=1
num_cat=0
split_feature=
split_gain=
threshold=
decision_type=
left_child=
right_child=
leaf_value=0
leaf_weight=0
leaf_count=0
internal_value=
internal_weight=
internal_count=
is_linear=0
shrinkage=1


Tree=100
num_leaves=1
num_cat=0
split_feature=
split_gain=
threshold=
decision_type=
left_child=
right_child=
leaf_value=0
leaf_weight=0
leaf_count=0
internal_value=
internal_weight=
internal_count=
is_linear=0
shrinkage=1


Tree=101
num_leaves=1
num_cat=0
split_feature=
split_gain=
threshold=
decision_type=
left_child=
right_child=
leaf_value=0
leaf_weight=0
leaf_count=0
internal_value=
internal_weight=
internal_count=
is_linear=0
shrinkage=1


Tree=102
num_leaves=1
num_cat=0
split_feature=
split_gain=
threshold=
decision_type=
left_child=
right_child=
leaf_value=0
leaf_weight=0
leaf_count=0
internal_value=
internal_weight=
internal_count=
is_linear=0
shrinkage=1


Tree=103
num_leaves=1
num_cat=0
split_feature=
split_gain=
threshold=
decision_type=
left_child=
right_child=
leaf_value=0
leaf_weight=0
leaf_count=0
internal_value=
internal_weight=
internal_count=
is_linear=0
shrinkage=1


Tree=104
num_leaves=16
num_cat=0
split_feature=97 15 96 75 89 16 17 94 18 18 89 15 98 76 18
split_gain=485.645 145.01 128.268 70.4067 47.4909 45.6096 23.9083 14.2321 20.2367 12.0008 10.9147 39.795 21.8529 10.6695 10.0922
threshold=0.48999786376953131 130.74866485595706 1.439994812011719 0.59999847412109386 0.0093017038889229315 225.46815490722659 65.68921279907228 10.41866445541382 49.088159561157234 60.337705612182624 0.022153319790959362 168.66071319580081 0.37000274658203131 0.44499969482421881 9.9454083442688006
decision_type=2 2 2 2 2 2 2 2 2 2 2 2 2 2 2
left_child=3 -2 4 6 13 -5 10 14 -9 -4 -1 -12 -13 -3 -6
right_child=1 2 9 5 7 -7 -8 8 -10 -11 11 12 -14 -15 -16
leaf_value=-0.20367012448574806 -0.18877094850096707 -0.20657971784353976 -0.20236221689545453 -0.20537280498073474 -0.065608812572052519 0.18387933363328424 0.18391703836568554 -0.17121722829001776 0.23824377980508871 0.24110245568943003 -0.20513758642524396 0.34759560072054163 -0.12931113743361211 0.25708499913398808 0.22939941782622009
leaf_weight=326.06133922934532 50.17380203306675 13.372689563781021 37.117873840034008 17.744148071855307 4.697824850678443 37.460813872516155 7.0045138634741297 8.93097046390176 10.509521350264547 2.6127266138792029 47.493293464183807 9.7150930315256137 6.3588475137948981 2.3312425762414923 367.38518074527383
leaf_count=5105 776 213 558 274 50 209 40 87 64 15 737 51 61 12 2308
internal_value=0 0.133624 0.169814 -0.152853 0.20328 0.0587647 -0.182306 0.216959 0.0501372 -0.1732 -0.18889 -0.113077 0.158931 -0.137749 0.225675
internal_weight=0 497.132 446.958 451.838 407.227 55.205 396.633 391.523 19.4405 39.7306 389.629 63.5672 16.0739 15.7039 372.083
internal_count=10560 4083 3307 6477 2734 483 5994 2509 151 573 5954 849 112 225 2358
is_linear=0
shrinkage=0.2


Tree=105
num_leaves=1
num_cat=0
split_feature=
split_gain=
threshold=
decision_type=
left_child=
right_child=
leaf_value=0
leaf_weight=0
leaf_count=0
internal_value=
internal_weight=
internal_count=
is_linear=0
shrinkage=1


Tree=106
num_leaves=16
num_cat=0
split_feature=91 86 97 70 17 18 95 96 69 63 16 84 31 15 91
split_gain=394.432 54.4811 28.1446 24.4134 25.4591 17.5634 16.6752 16.5275 16.0744 15.1983 10.8042 10.3359 11.5687 15.778 9.09932
threshold=0.018845319747924808 0.99677941203117382 0.31999969482421881 0.03635945916175843 29.094635009765629 19.009456634521488 3.1471050977706914 0.23999786376953128 0.0030269017443060879 0.27967116236686712 76.797466278076186 0.097317725419998183 0.12457970902323724 130.74866485595706 0.0017037689685821535
decision_type=2 2 2 2 2 2 2 2 2 2 2 2 2 2 2
left_child=1 5 3 4 -2 -1 -7 -8 -6 11 -4 -5 13 -13 -9
right_child=2 -3 10 9 8 6 7 14 -10 -11 -12 12 -14 -15 -16
leaf_value=0.21310455906647655 0.34261709662083767 0.19307757598684719 0.098464046330911256 -0.19844611120310685 0.20510974809531476 -0.11744712652033702 0.23411367949973877 -0.12006464495962693 -0.1646610107672789 0.57697965242011551 -0.1911707634881244 -0.013353434359555751 -0.10984520273140004 0.62874674760991445 0.049589073840086921
leaf_weight=20.479257147759199 10.317196447402241 268.99525389075279 5.2655248790979376 43.851206671446562 7.0729594193398979 29.749610934406519 16.799013741314411 15.80495662987232 14.031432561576365 1.2307798191905011 238.36730794049799 5.6086416915059081 33.402005679905415 2.1053669899702072 63.262627393007278
leaf_count=162 72 2105 43 895 66 313 98 164 237 13 5132 91 505 27 637
internal_value=0 0.139679 -0.146123 -0.06578 0.0851374 0.0413607 0.0133613 0.0539541 -0.0407355 -0.120794 -0.184911 -0.130901 -0.0588628 0.161894 0.0156767
internal_weight=0 415.091 361.252 117.62 31.4216 146.095 125.616 95.8666 21.1044 86.198 243.633 84.9672 41.116 7.71401 79.0676
internal_count=10560 3479 7081 1906 375 1374 1212 899 303 1531 5175 1518 623 118 801
is_linear=0
shrinkage=0.2


Tree=107
num_leaves=16
num_cat=0
split_feature=16 84 16 98 67 16 18 18 54 96 22 70 16 16 18
split_gain=444.736 104.021 23.0546 20.9281 14.4819 17.6291 11.1352 9.81139 8.46846 6.59529 9.01763 11.4247 6.27874 9.96423 23.5955
threshold=169.49693298339847 0.063054062426090254 78.324813842773452 0.23500061035156253 0.78663408756256115 222.40311431884768 54.451318740844734 15.948688030242922 0.044998168945312507 0.76999664306640636 0.84835734963417064 0.059683591127395637 80.713195800781264 83.947525024414077 47.379009246826179
decision_type=2 2 2 2 2 2 2 2 2 2 10 2 2 2 2
left_child=1 12 3 -3 -2 -6 7 -4 -9 10 -10 -12 -1 14 -14
right_child=4 2 6 -5 5 -7 -8 8 9 -11 11 -13 13 -15 -16
leaf_value=-0.19968300058604807 -0.19296956101051174 -0.20055865255530581 -0.15477454591397899 0.10830262826116627 0.37574631890855903 -0.17956442411095949 -0.19034525982674932 -0.03223519558212451 0.17197254959600994 0.21782108694093624 0.17134932211414941 -0.28471728622845693 0.55658906671259933 -0.16793876813890235 -0.21027162201708804
leaf_weight=32.219094110652804 295.82750146836042 12.162011269479988 3.4807036705315104 31.512948822230101 4.0246984474360925 5.2955881115049124 3.2878076061606398 7.189262092113494 186.68547827005386 155.24556395411491 4.8704964071512205 4.0027550160884857 3.0009983479976681 10.751711070537565 3.4499696753919125
leaf_count=714 6445 172 31 204 38 87 20 51 1252 1252 31 20 21 173 49
internal_value=0 0.126455 0.159616 0.0222951 -0.185236 0.0602306 0.176058 0.17939 0.182639 0.187043 0.162609 -0.0343839 -0.147594 -0.0500351 0.146473
internal_weight=0 457.859 408.437 43.675 305.148 9.32029 364.762 361.474 357.994 350.804 195.559 8.87325 49.4218 17.2027 6.45097
internal_count=10560 3990 3033 376 6570 125 2657 2637 2606 2555 1303 51 957 243 70
is_linear=0
shrinkage=0.2


Tree=108
num_leaves=1
num_cat=0
split_feature=
split_gain=
threshold=
decision_type=
left_child=
right_child=
leaf_value=0
leaf_weight=0
leaf_count=0
internal_value=
internal_weight=
internal_count=
is_linear=0
shrinkage=1


Tree=109
num_leaves=1
num_cat=0
split_feature=
split_gain=
threshold=
decision_type=
left_child=
right_child=
leaf_value=0
leaf_weight=0
leaf_count=0
internal_value=
internal_weight=
internal_count=
is_linear=0
shrinkage=1


Tree=110
num_leaves=16
num_cat=0
split_feature=18 70 16 20 96 89 97 97 16 70 68 96 84 77 67
split_gain=303.415 120.587 75.9184 43.9835 31.9674 39.0264 26.2772 15.8048 13.6445 13.4621 10.086 17.31 21.5538 9.42613 7.70718
threshold=20.912832260131839 0.032116591930389411 230.39087677001956 81.393989562988295 1.439994812011719 0.015549417119473221 1.194999694824219 0.40000152587890631 169.49693298339847 0.1084512770175934 0.0083818701095879095 1.254997253417969 0.11008570343255998 0.54000091552734386 0.85377687215805065
decision_type=2 2 2 2 2 2 2 2 2 2 2 2 2 2 2
left_child=1 6 -2 8 5 7 -1 -4 -3 -9 14 12 -12 -7 -10
right_child=2 3 4 -5 -6 13 -8 9 10 -11 11 -13 -14 -15 -16
leaf_value=-0.18362559409641407 -0.19655609124433251 -0.26519556754414114 -0.22449809411334695 -0.20092188741490938 0.25385281435003731 -0.20452459194541223 0.2185310203765862 0.22076471395922803 0.21689883993666625 -0.23758190152074832 0.21094608057975381 0.20305566654303303 -0.19413071425946662 0.10271553837037084 -0.10525281743765223
leaf_weight=53.317014705389738 251.1871104426682 2.6135474964976302 4.6008996292948714 12.005137555301188 18.06946624815464 37.147406212985516 7.4011940583586684 25.659751683473591 226.84100331366062 2.8476677387952796 9.1027279570698756 36.667313866317272 12.427660956978796 4.4754999764263621 3.0099530816078177
leaf_count=1064 5477 21 91 258 128 762 63 211 1872 30 76 269 185 39 14
internal_value=0 0.122624 -0.139447 0.174226 0.0151341 -0.0425864 -0.134605 0.119466 0.189721 0.174979 0.193849 0.119474 -0.0228703 -0.171489 0.21268
internal_weight=0 363.386 343.988 302.667 92.8007 74.7312 60.7182 33.1083 290.662 28.5074 288.049 58.1977 21.5304 41.6229 229.851
internal_count=10560 3822 6738 2695 1261 1133 1127 332 2437 241 2416 530 261 801 1886
is_linear=0
shrinkage=0.2


Tree=111
num_leaves=1
num_cat=0
split_feature=
split_gain=
threshold=
decision_type=
left_child=
right_child=
leaf_value=0
leaf_weight=0
leaf_count=0
internal_value=
internal_weight=
internal_count=
is_linear=0
shrinkage=1


Tree=112
num_leaves=1
num_cat=0
split_feature=
split_gain=
threshold=
decision_type=
left_child=
right_child=
leaf_value=0
leaf_weight=0
leaf_count=0
internal_value=
internal_weight=
internal_count=
is_linear=0
shrinkage=1


Tree=113
num_leaves=1
num_cat=0
split_feature=
split_gain=
threshold=
decision_type=
left_child=
right_child=
leaf_value=0
leaf_weight=0
leaf_count=0
internal_value=
internal_weight=
internal_count=
is_linear=0
shrinkage=1


Tree=114
num_leaves=1
num_cat=0
split_feature=
split_gain=
threshold=
decision_type=
left_child=
right_child=
leaf_value=0
leaf_weight=0
leaf_count=0
internal_value=
internal_weight=
internal_count=
is_linear=0
shrinkage=1


Tree=115
num_leaves=1
num_cat=0
split_feature=
split_gain=
threshold=
decision_type=
left_child=
right_child=
leaf_value=0
leaf_weight=0
leaf_count=0
internal_value=
internal_weight=
internal_count=
is_linear=0
shrinkage=1


Tree=116
num_leaves=1
num_cat=0
split_feature=
split_gain=
threshold=
decision_type=
left_child=
right_child=
leaf_value=0
leaf_weight=0
leaf_count=0
internal_value=
internal_weight=
internal_count=
is_linear=0
shrinkage=1


Tree=117
num_leaves=1
num_cat=0
split_feature=
split_gain=
threshold=
decision_type=
left_child=
right_child=
leaf_value=0
leaf_weight=0
leaf_count=0
internal_value=
internal_weight=
internal_count=
is_linear=0
shrinkage=1


Tree=118
num_leaves=1
num_cat=0
split_feature=
split_gain=
threshold=
decision_type=
left_child=
right_child=
leaf_value=0
leaf_weight=0
leaf_count=0
internal_value=
internal_weight=
internal_count=
is_linear=0
shrinkage=1


Tree=119
num_leaves=1
num_cat=0
split_feature=
split_gain=
threshold=
decision_type=
left_child=
right_child=
leaf_value=0
leaf_weight=0
leaf_count=0
internal_value=
internal_weight=
internal_count=
is_linear=0
shrinkage=1


Tree=120
num_leaves=1
num_cat=0
split_feature=
split_gain=
threshold=
decision_type=
left_child=
right_child=
leaf_value=0
leaf_weight=0
leaf_count=0
internal_value=
internal_weight=
internal_count=
is_linear=0
shrinkage=1


Tree=121
num_leaves=1
num_cat=0
split_feature=
split_gain=
threshold=
decision_type=
left_child=
right_child=
leaf_value=0
leaf_weight=0
leaf_count=0
internal_value=
internal_weight=
internal_count=
is_linear=0
shrinkage=1


Tree=122
num_leaves=1
num_cat=0
split_feature=
split_gain=
threshold=
decision_type=
left_child=
right_child=
leaf_value=0
leaf_weight=0
leaf_count=0
internal_value=
internal_weight=
internal_count=
is_linear=0
shrinkage=1


Tree=123
num_leaves=1
num_cat=0
split_feature=
split_gain=
threshold=
decision_type=
left_child=
right_child=
leaf_value=0
leaf_weight=0
leaf_count=0
internal_value=
internal_weight=
internal_count=
is_linear=0
shrinkage=1


Tree=124
num_leaves=1
num_cat=0
split_feature=
split_gain=
threshold=
decision_type=
left_child=
right_child=
leaf_value=0
leaf_weight=0
leaf_count=0
internal_value=
internal_weight=
internal_count=
is_linear=0
shrinkage=1


Tree=125
num_leaves=16
num_cat=0
split_feature=97 16 96 89 15 89 96 94 18 98 97 96 18 76 54
split_gain=322.852 96.168 86.7125 51.9318 70.0315 33.6828 12.4283 12.0404 16.6522 12.5364 11.311 23.3821 8.06789 7.60231 7.2961
threshold=0.48999786376953131 191.16934204101565 1.439994812011719 0.022153319790959362 168.66071319580081 0.0093017038889229315 1.3750000000000002 9.3517746925354022 33.677473068237312 0.54999542236328136 0.31999969482421881 1.0300064086914065 60.337705612182624 0.44499969482421881 0.45500183105468756
decision_type=2 2 2 2 2 2 2 2 2 2 2 2 2 2 2
left_child=3 -2 5 14 -5 13 10 -7 -9 -10 11 -6 -4 -3 -1
right_child=1 2 12 4 6 7 -8 8 9 -11 -12 -13 -14 -15 -16
leaf_value=-0.19826952469136441 -0.18513496510670613 -0.20235369053367822 -0.19619683451743244 -0.20091309740751651 -0.26856577739900028 0.21534592596825083 -0.21930852347766142 -0.18973523449956362 0.22337899465851652 -0.22024926751680099 0.24476974722033501 0.2369312532031308 0.22307366931693395 0.23663211477088955 0.22384948279414763
leaf_weight=241.13702830299735 36.446152018383145 10.431455280631779 27.884532686322931 44.640918884426355 6.1322168838232747 265.90870603173971 3.4646830782294264 6.968849744647744 19.252120077610019 2.9366208836436263 30.086349695920944 9.0797336027026159 1.9652087241411198 1.8592423051595677 1.6490759514272202
leaf_count=5165 751 232 571 941 55 2241 40 85 156 20 211 53 15 12 12
internal_value=0 0.123492 0.156849 -0.146647 -0.0199155 0.188455 0.145782 0.201968 0.0799618 0.164666 0.173706 0.0331561 -0.168593 -0.135947 -0.195402
internal_weight=0 373.653 337.207 336.19 93.4039 307.357 48.763 295.066 29.1576 22.1887 45.2983 15.212 29.8497 12.2907 242.786
internal_count=10560 4083 3332 6477 1300 2746 359 2502 261 176 319 108 586 244 5177
is_linear=0
shrinkage=0.2


Tree=126
num_leaves=1
num_cat=0
split_feature=
split_gain=
threshold=
decision_type=
left_child=
right_child=
leaf_value=0
leaf_weight=0
leaf_count=0
internal_value=
internal_weight=
internal_count=
is_linear=0
shrinkage=1


Tree=127
num_leaves=16
num_cat=0
split_feature=91 89 97 56 18 95 16 97 97 22 22 18 95 20 42
split_gain=244.958 37.784 24.8121 17.2101 16.2214 17.4309 11.9162 11.4367 12.1215 10.2451 10.1094 10.063 8.79438 8.77033 11.1261
threshold=0.018845319747924808 0.0011465371935628357 0.31999969482421881 0.079994201660156264 18.595746040344242 3.1471050977706914 82.967536926269545 0.25499725341796881 0.11499786376953126 0.83416065573692333 0.91387969255447399 43.712976455688484 1.9588219523429873 52.035579681396491 0.10766093432903291
decision_type=2 2 2 2 2 2 2 2 2 8 8 2 2 2 2
left_child=1 -1 3 11 -3 6 -6 8 13 -9 -5 12 -2 14 -7
right_child=2 4 -4 10 5 7 -8 9 -10 -11 -12 -13 -14 -15 -16
leaf_value=0.18855866247935274 -0.17288855755691612 0.20368586638999778 -0.17718670849539775 -0.11123353066799549 0.2424777823290615 0.32315071713548948 -0.14604026925643351 -0.11219078558584628 0.19969006252140575 0.30812577740155417 0.43934173478045224 -0.11369066875472167 0.23077159817015191 -0.010070221556120848 -0.028457309090940727
leaf_weight=172.12725374102592 2.5163077637553277 24.498164761811495 175.91087311692536 68.737337693572044 3.5546432286500957 8.3920857794582826 28.280790409073234 19.370966915041212 30.841113641858101 2.635215923190116 1.360395099967717 6.739800374954938 15.1998931504786 37.332883480936289 6.3040533214807501
leaf_count=1837 65 244 5175 1531 25 74 323 308 275 28 14 128 168 292 73
internal_value=0 0.123394 -0.132775 -0.0501493 0.053816 0.02696 -0.10266 0.0663063 0.10034 -0.0618583 -0.100548 0.0943086 0.173438 0.0414492 0.172325
internal_weight=0 333.337 270.465 94.5537 161.21 136.712 31.8354 104.876 82.8701 22.0062 70.0977 24.456 17.7162 52.029 14.6961
internal_count=10560 3479 7081 1906 1642 1398 348 1050 714 336 1545 361 233 439 147
is_linear=0
shrinkage=0.2


Tree=128
num_leaves=16
num_cat=0
split_feature=16 89 91 15 75 16 18 95 18 66 96 20 65 97 96
split_gain=292.056 62.5973 21.0762 15.6559 12.9574 23.6928 12.5312 10.6042 15.2464 12.0293 11.3663 10.2528 9.57403 9.10999 8.10681
threshold=191.16934204101565 0.0011465371935628357 0.018845319747924808 72.075950622558608 1.1149978637695315 233.8413009643555 53.176124572753913 3.2192177772521977 36.245595932006843 0.7293497920036317 0.31999969482421881 58.980804443359382 0.99694460630416881 0.11499786376953126 0.43500518798828131
decision_type=2 2 2 2 2 2 2 2 2 2 2 2 2 2 2
left_child=1 -1 3 -3 -2 -6 7 -5 9 10 13 -10 -4 -9 -12
right_child=4 2 12 6 5 -7 -8 8 11 -11 14 -13 -14 -15 -16
leaf_value=-0.13213669472071449 -0.19170541666286942 -0.086889714542753127 0.19401463538154379 0.20564454007796559 0.54285144769497728 -0.21548318801574495 -0.2682619250451172 -0.01412050313356064 0.14455248633667481 -0.35437643134423391 0.26291382168616362 -0.17625606422378542 -0.013256057345022271 -0.50342797406440787 -0.077600685827688559
leaf_weight=38.50825315900147 208.43648060970008 19.053929096087813 172.21374825760722 38.059085469692945 2.7443109322339287 4.1252611447125673 3.4744869004935017 3.9302103891968789 67.67719367146492 4.5219948403537265 7.0456159524619562 4.2341416068375102 9.400735527276991 2.4839051105082035 4.6374069973826408
leaf_count=990 6356 205 1744 283 32 98 30 31 531 30 45 48 88 18 31
internal_value=0 0.10942 0.137044 0.0829025 -0.182798 0.0874623 0.10668 0.116505 0.0806162 -0.0625987 0.0103088 0.125663 0.183286 -0.203608 0.127752
internal_weight=0 375.241 336.732 155.118 215.306 6.86957 136.064 132.59 94.5305 22.6191 18.0971 71.9113 181.614 6.41412 11.683
internal_count=10560 4074 3084 1252 6486 130 1047 1017 734 155 125 579 1832 49 76
is_linear=0
shrinkage=0.2


Tree=129
num_leaves=1
num_cat=0
split_feature=
split_gain=
threshold=
decision_type=
left_child=
right_child=
leaf_value=0
leaf_weight=0
leaf_count=0
internal_value=
internal_weight=
internal_count=
is_linear=0
shrinkage=1


Tree=130
num_leaves=1
num_cat=0
split_feature=
split_gain=
threshold=
decision_type=
left_child=
right_child=
leaf_value=0
leaf_weight=0
leaf_count=0
internal_value=
internal_weight=
internal_count=
is_linear=0
shrinkage=1


Tree=131
num_leaves=16
num_cat=0
split_feature=16 91 18 85 96 76 20 26 18 74 18 18 28 96 70
split_gain=208.158 71.6801 54.7 37.1663 73.3687 14.0625 13.4106 40.3765 13.2902 9.73 7.95764 5.29007 4.525 3.97918 2.84035
threshold=230.39087677001956 0.034234076738357551 9.9454083442688006 0.74379777908325206 1.3050003051757815 0.014999389648437502 78.427425384521499 0.00053522901725955318 20.912832260131839 0.53745418787002575 46.888658523559577 11.34546995162964 0.03533944487571717 1.1800003051757815 0.10244974493980409
decision_type=2 2 2 2 2 2 2 2 2 2 2 2 2 2 2
left_child=2 6 9 10 -5 8 13 -8 -4 -1 14 -7 -11 -2 -3
right_child=1 3 5 4 -6 11 7 -9 -10 12 -12 -13 -14 -15 -16
leaf_value=-0.31003809879168748 -0.19208485849615542 0.20576476870009081 0.20091977231080782 -0.20202535311960337 0.20043345843285595 -0.47868768773226872 1.6612242351035029 -0.19706574074023275 -0.19820215268749086 -0.11670870336301838 -0.2090524039843219 -0.19054975630843343 0.22890743658329438 0.14096828841885747 0.12928749233913256
leaf_weight=1.62908395752311 34.936762498691678 157.19399414025247 7.2499749995768052 32.352915834635496 41.182148538529873 2.5830277632921925 0.64575054496526663 1.696169310249388 6.1834370642900467 1.6585262212902332 1.9582340084016312 191.84215266630054 17.543243022635579 1.4963746760040511 22.164210496470332
leaf_count=9 1013 1778 74 881 432 24 19 51 177 39 32 5601 166 20 244
internal_value=0 0.104752 -0.149739 0.143297 0.0233653 -0.180704 -0.148585 0.315331 0.0172028 0.159241 0.191936 -0.194378 0.199055 -0.178406 0.196314
internal_weight=0 293.627 228.689 254.852 73.5351 207.859 38.7751 2.34192 13.4334 20.8309 181.316 194.425 19.2018 36.4331 179.358
internal_count=10560 4470 6090 3367 1313 5876 1103 70 251 214 2054 5625 205 1033 2022
is_linear=0
shrinkage=0.2


Tree=132
num_leaves=1
num_cat=0
split_feature=
split_gain=
threshold=
decision_type=
left_child=
right_child=
leaf_value=0
leaf_weight=0
leaf_count=0
internal_value=
internal_weight=
internal_count=
is_linear=0
shrinkage=1


Tree=133
num_leaves=1
num_cat=0
split_feature=
split_gain=
threshold=
decision_type=
left_child=
right_child=
leaf_value=0
leaf_weight=0
leaf_count=0
internal_value=
internal_weight=
internal_count=
is_linear=0
shrinkage=1


Tree=134
num_leaves=1
num_cat=0
split_feature=
split_gain=
threshold=
decision_type=
left_child=
right_child=
leaf_value=0
leaf_weight=0
leaf_count=0
internal_value=
internal_weight=
internal_count=
is_linear=0
shrinkage=1


Tree=135
num_leaves=1
num_cat=0
split_feature=
split_gain=
threshold=
decision_type=
left_child=
right_child=
leaf_value=0
leaf_weight=0
leaf_count=0
internal_value=
internal_weight=
internal_count=
is_linear=0
shrinkage=1


Tree=136
num_leaves=1
num_cat=0
split_feature=
split_gain=
threshold=
decision_type=
left_child=
right_child=
leaf_value=0
leaf_weight=0
leaf_count=0
internal_value=
internal_weight=
internal_count=
is_linear=0
shrinkage=1


Tree=137
num_leaves=1
num_cat=0
split_feature=
split_gain=
threshold=
decision_type=
left_child=
right_child=
leaf_value=0
leaf_weight=0
leaf_count=0
internal_value=
internal_weight=
internal_count=
is_linear=0
shrinkage=1


Tree=138
num_leaves=1
num_cat=0
split_feature=
split_gain=
threshold=
decision_type=
left_child=
right_child=
leaf_value=0
leaf_weight=0
leaf_count=0
internal_value=
internal_weight=
internal_count=
is_linear=0
shrinkage=1


Tree=139
num_leaves=1
num_cat=0
split_feature=
split_gain=
threshold=
decision_type=
left_child=
right_child=
leaf_value=0
leaf_weight=0
leaf_count=0
internal_value=
internal_weight=
internal_count=
is_linear=0
shrinkage=1


Tree=140
num_leaves=1
num_cat=0
split_feature=
split_gain=
threshold=
decision_type=
left_child=
right_child=
leaf_value=0
leaf_weight=0
leaf_count=0
internal_value=
internal_weight=
internal_count=
is_linear=0
shrinkage=1


Tree=141
num_leaves=1
num_cat=0
split_feature=
split_gain=
threshold=
decision_type=
left_child=
right_child=
leaf_value=0
leaf_weight=0
leaf_count=0
internal_value=
internal_weight=
internal_count=
is_linear=0
shrinkage=1


Tree=142
num_leaves=1
num_cat=0
split_feature=
split_gain=
threshold=
decision_type=
left_child=
right_child=
leaf_value=0
leaf_weight=0
leaf_count=0
internal_value=
internal_weight=
internal_count=
is_linear=0
shrinkage=1


Tree=143
num_leaves=1
num_cat=0
split_feature=
split_gain=
threshold=
decision_type=
left_child=
right_child=
leaf_value=0
leaf_weight=0
leaf_count=0
internal_value=
internal_weight=
internal_count=
is_linear=0
shrinkage=1


Tree=144
num_leaves=1
num_cat=0
split_feature=
split_gain=
threshold=
decision_type=
left_child=
right_child=
leaf_value=0
leaf_weight=0
leaf_count=0
internal_value=
internal_weight=
internal_count=
is_linear=0
shrinkage=1


Tree=145
num_leaves=1
num_cat=0
split_feature=
split_gain=
threshold=
decision_type=
left_child=
right_child=
leaf_value=0
leaf_weight=0
leaf_count=0
internal_value=
internal_weight=
internal_count=
is_linear=0
shrinkage=1


Tree=146
num_leaves=16
num_cat=0
split_feature=89 16 96 70 97 96 94 18 15 18 18 18 7 91 13
split_gain=218.501 152.688 68.6041 22.8853 13.1323 17.2103 8.86997 11.9739 6.51849 5.06956 4.10814 3.93557 4.70773 2.90532 2.07459
threshold=0.016194691881537441 191.16934204101565 1.439994812011719 0.13659814000129702 0.31000518798828131 1.0300064086914065 9.8671970367431658 36.402790069580085 219.27922058105472 61.025959014892585 60.337705612182624 9.7891454696655291 0.49255043268203741 0.24992448091506961 0.15999603271484378
decision_type=2 2 2 2 2 2 2 2 2 2 2 2 2 2 2
left_child=3 14 4 9 5 -3 11 -8 -5 -1 -4 12 -6 -7 -2
right_child=1 2 10 8 6 13 7 -9 -10 -11 -12 -13 -14 -15 -16
leaf_value=-0.19879293018010924 -0.19498962828367694 -0.25463235035945503 -0.19252083487338559 -0.19921406922431861 -0.2018972893364869 0.25213384819630918 -0.20815962951643618 0.18701219476230377 0.17710720233864341 0.20245706625217383 0.21196734897452107 0.2111445294707763 0.22718681029207488 0.0046528297110283549 0.025915092584592361
leaf_weight=176.608213968575 61.720505129545927 6.0765625070780507 22.0448866263032 2.3237307760864487 2.0408799424767485 6.4680320844054204 4.9283596202731124 8.1210595890879613 8.8655485212802869 1.2685534395277489 1.0523120537400235 216.32645186781883 2.0503005757927895 2.685158297419548 1.7487015556544054
leaf_count=5226 1792 55 589 65 38 43 79 87 84 12 11 2396 17 24 42
internal_value=0 0.0904012 0.155624 -0.178479 0.186246 0.00630437 0.197984 0.0377681 0.0989548 -0.195931 -0.174092 0.207469 0.0131388 0.179533 -0.188903
internal_weight=0 335.263 271.794 189.066 248.697 15.2298 233.467 13.0494 11.1893 177.877 23.0972 220.418 4.09118 9.15319 63.4692
internal_count=10560 5173 3339 5387 2739 122 2617 166 149 5238 600 2451 55 67 1834
is_linear=0
shrinkage=0.2


Tree=147
num_leaves=1
num_cat=0
split_feature=
split_gain=
threshold=
decision_type=
left_child=
right_child=
leaf_value=0
leaf_weight=0
leaf_count=0
internal_value=
internal_weight=
internal_count=
is_linear=0
shrinkage=1


Tree=148
num_leaves=16
num_cat=0
split_feature=91 89 97 84 16 17 16 19 42 49 96 84 68 98 2
split_gain=149.238 36.4299 15.1009 17.5302 16.1788 14.8297 12.4974 15.1903 27.709 12.6335 11.3997 16.6458 10.2525 9.29984 8.6696
threshold=0.034234076738357551 0.0011465371935628357 0.31999969482421881 0.097317725419998183 126.89434814453126 15.678957939147951 78.324813842773452 31.568627357482914 0.086136136204004302 0.0020565688610076909 1.0300064086914065 0.11193200945854188 0.019015097059309486 0.52500152587890636 0.82158717513084423
decision_type=2 2 2 2 2 2 2 2 2 2 2 2 2 2 2
left_child=1 -1 3 -2 -5 -3 13 8 -8 -9 11 -6 -12 -7 -11
right_child=2 5 -4 4 10 6 7 9 -10 14 12 -13 -14 -15 -16
leaf_value=0.17541951459526259 -0.18041205690474635 0.16753510185781476 -0.17487509180503324 -0.1045111421306241 -0.12524846463005432 0.16061649074512671 0.50090636019118195 0.1336796567428547 -0.010632728752637512 0.35346520327249248 0.42273903494046206 0.44775726008997091 -0.1296401001762727 -0.14954901743996094 -0.10644500203652385
leaf_weight=133.17617818340659 25.000229109078646 27.955053875222802 118.55937002971768 16.776678184047341 2.7225886844098586 27.527388498187065 5.7135158516466644 11.090486567467449 16.375831622630358 1.6787839531898487 1.7026089504361133 7.947575144469738 6.3820382840931416 4.4987056702375403 70.075123017653823
leaf_count=1901 899 314 4899 460 83 239 51 117 249 20 8 57 83 46 1134
internal_value=0 0.0976157 -0.133378 -0.0521002 0.0381809 0.0347856 0.00768992 -0.0256864 0.121679 -0.0649794 0.165823 0.30155 -0.0133103 0.117048 -0.0956848
internal_weight=0 298.091 179.091 60.5317 35.5315 164.915 136.96 104.934 22.0893 82.8444 18.7548 10.6702 8.08465 32.0261 71.7539
internal_count=10560 4071 6489 1590 691 2170 1856 1571 300 1271 231 140 91 285 1154
is_linear=0
shrinkage=0.2


Tree=149
num_leaves=16
num_cat=0
split_feature=16 16 89 75 96 75 16 18 18 95 69 16 17 96 20
split_gain=190.503 36.9774 20.9105 15.6941 11.9251 9.65811 11.5559 9.36697 11.8952 15.9322 11.3951 9.67111 8.48924 7.56713 7.53231
threshold=191.16934204101565 78.324813842773452 0.0046333107165992269 0.090003967285156264 0.76999664306640636 1.1149978637695315 219.85260772705081 54.451318740844734 43.902708053588874 3.4267069101333623 0.098561912775039687 81.344711303710952 22.816552162170414 0.19499969482421878 55.539596557617195
decision_type=2 2 2 2 2 2 2 2 2 2 2 2 2 2 2
left_child=1 2 -1 -3 7 -2 -7 8 9 13 11 -11 -13 -5 -15
right_child=5 3 -4 4 -6 6 -8 -9 -10 10 -12 12 -14 14 -16
leaf_value=-0.19540896958239473 -0.18731681923498633 -0.14392657977120712 0.062227976759898863 0.33956331796816319 0.19269887066075775 0.44469723995117666 -0.12348233443277075 -0.25648482235345998 0.17834949295184022 -0.35750099113840339 -0.39226250668262169 -0.17184401360848028 0.069890896401256494 0.14006965606411886 -0.2615517064267141
leaf_weight=24.207048455253243 149.16239576786757 8.3282691650092584 26.282611437141895 7.415571888908743 90.996843535453081 2.1217523068189612 4.4033889845013618 2.8698620572686186 59.140234779566526 2.6658040508627883 2.9436086416244498 6.8154835775494567 39.427562085911632 31.650347111746669 1.9850554838776577
leaf_count=806 6356 144 202 36 1299 10 120 47 657 23 20 100 392 331 17
internal_value=0 0.0950419 -0.0612949 0.126089 0.135234 -0.176898 0.0612702 0.101479 0.108235 0.063602 -0.0100915 0.0129097 0.034263 0.156686 0.116367
internal_weight=0 304.728 50.4897 254.239 245.91 155.688 6.52514 154.914 152.044 92.9034 51.8525 48.9088 46.243 41.051 33.6354
internal_count=10560 4074 1008 3066 2922 6486 130 1623 1576 919 535 515 492 384 348
is_linear=0
shrinkage=0.2


Tree=150
num_leaves=1
num_cat=0
split_feature=
split_gain=
threshold=
decision_type=
left_child=
right_child=
leaf_value=0
leaf_weight=0
leaf_count=0
internal_value=
internal_weight=
internal_count=
is_linear=0
shrinkage=1


Tree=151
num_leaves=1
num_cat=0
split_feature=
split_gain=
threshold=
decision_type=
left_child=
right_child=
leaf_value=0
leaf_weight=0
leaf_count=0
internal_value=
internal_weight=
internal_count=
is_linear=0
shrinkage=1


Tree=152
num_leaves=16
num_cat=0
split_feature=18 70 16 20 96 89 97 70 16 89 20 18 49 68 18
split_gain=141.705 53.7755 34.6916 19.0037 16.0151 15.901 11.3324 11.1595 9.04369 7.71005 17.9356 7.52493 6.47115 4.98401 5.15687
threshold=20.912832260131839 0.032116591930389411 230.39087677001956 81.393989562988295 1.439994812011719 0.015549417119473221 1.194999694824219 0.10244974493980409 204.81666564941409 6.2957300542620956e-05 78.117504119873061 10.074658393859865 0.023679107427597049 0.0055519142188131818 9.7891454696655291
decision_type=2 2 2 2 2 2 2 2 2 2 2 2 2 2 2
left_child=1 6 -2 8 5 7 9 12 11 10 -1 -3 -4 -10 -15
right_child=2 3 4 -5 -6 -7 -8 -9 13 -11 -12 -13 -14 14 -16
leaf_value=-0.19514738430927447 -0.18880439949061445 0.17406934978960872 -0.19481903854969673 -0.19625748572544846 0.22405155976609584 -0.16258897358217253 0.20319742912454594 -0.28024593382305713 0.19911102700896896 -0.18465851277450093 1.1518353903738765 -0.1907502199925265 0.20107143972060412 0.17877937667461677 0.032768525718975629
leaf_weight=1.2204748075455452 133.61030198261142 4.1054463088512403 1.8788371421396757 5.9936656318604937 10.528636030852793 23.094093498773873 3.8696927130222312 2.8053627982735625 113.96485546976328 29.152578366920352 0.58491956628859032 5.0353580862283707 13.652134135365484 22.773574505001307 16.822936518117785
leaf_count=50 5477 50 86 258 128 801 63 35 1726 1006 8 52 211 291 318
internal_value=0 0.106773 -0.134878 0.153485 0.00379033 -0.0521842 -0.119486 0.0868674 0.166368 -0.15982 0.241254 -0.0268973 0.153179 0.177873 0.116745
internal_weight=0 203.524 185.569 168.696 51.9591 41.4304 34.8277 18.3363 162.702 30.958 1.80539 9.1408 15.531 153.561 39.5965
internal_count=10560 3822 6738 2695 1261 1133 1127 332 2437 1064 58 102 297 2335 609
is_linear=0
shrinkage=0.2


Tree=153
num_leaves=1
num_cat=0
split_feature=
split_gain=
threshold=
decision_type=
left_child=
right_child=
leaf_value=0
leaf_weight=0
leaf_count=0
internal_value=
internal_weight=
internal_count=
is_linear=0
shrinkage=1


Tree=154
num_leaves=1
num_cat=0
split_feature=
split_gain=
threshold=
decision_type=
left_child=
right_child=
leaf_value=0
leaf_weight=0
leaf_count=0
internal_value=
internal_weight=
internal_count=
is_linear=0
shrinkage=1


Tree=155
num_leaves=1
num_cat=0
split_feature=
split_gain=
threshold=
decision_type=
left_child=
right_child=
leaf_value=0
leaf_weight=0
leaf_count=0
internal_value=
internal_weight=
internal_count=
is_linear=0
shrinkage=1


Tree=156
num_leaves=1
num_cat=0
split_feature=
split_gain=
threshold=
decision_type=
left_child=
right_child=
leaf_value=0
leaf_weight=0
leaf_count=0
internal_value=
internal_weight=
internal_count=
is_linear=0
shrinkage=1


Tree=157
num_leaves=1
num_cat=0
split_feature=
split_gain=
threshold=
decision_type=
left_child=
right_child=
leaf_value=0
leaf_weight=0
leaf_count=0
internal_value=
internal_weight=
internal_count=
is_linear=0
shrinkage=1


Tree=158
num_leaves=1
num_cat=0
split_feature=
split_gain=
threshold=
decision_type=
left_child=
right_child=
leaf_value=0
leaf_weight=0
leaf_count=0
internal_value=
internal_weight=
internal_count=
is_linear=0
shrinkage=1


Tree=159
num_leaves=1
num_cat=0
split_feature=
split_gain=
threshold=
decision_type=
left_child=
right_child=
leaf_value=0
leaf_weight=0
leaf_count=0
internal_value=
internal_weight=
internal_count=
is_linear=0
shrinkage=1


Tree=160
num_leaves=1
num_cat=0
split_feature=
split_gain=
threshold=
decision_type=
left_child=
right_child=
leaf_value=0
leaf_weight=0
leaf_count=0
internal_value=
internal_weight=
internal_count=
is_linear=0
shrinkage=1


Tree=161
num_leaves=1
num_cat=0
split_feature=
split_gain=
threshold=
decision_type=
left_child=
right_child=
leaf_value=0
leaf_weight=0
leaf_count=0
internal_value=
internal_weight=
internal_count=
is_linear=0
shrinkage=1


Tree=162
num_leaves=1
num_cat=0
split_feature=
split_gain=
threshold=
decision_type=
left_child=
right_child=
leaf_value=0
leaf_weight=0
leaf_count=0
internal_value=
internal_weight=
internal_count=
is_linear=0
shrinkage=1


Tree=163
num_leaves=1
num_cat=0
split_feature=
split_gain=
threshold=
decision_type=
left_child=
right_child=
leaf_value=0
leaf_weight=0
leaf_count=0
internal_value=
internal_weight=
internal_count=
is_linear=0
shrinkage=1


Tree=164
num_leaves=1
num_cat=0
split_feature=
split_gain=
threshold=
decision_type=
left_child=
right_child=
leaf_value=0
leaf_weight=0
leaf_count=0
internal_value=
internal_weight=
internal_count=
is_linear=0
shrinkage=1


Tree=165
num_leaves=1
num_cat=0
split_feature=
split_gain=
threshold=
decision_type=
left_child=
right_child=
leaf_value=0
leaf_weight=0
leaf_count=0
internal_value=
internal_weight=
internal_count=
is_linear=0
shrinkage=1


Tree=166
num_leaves=1
num_cat=0
split_feature=
split_gain=
threshold=
decision_type=
left_child=
right_child=
leaf_value=0
leaf_weight=0
leaf_count=0
internal_value=
internal_weight=
internal_count=
is_linear=0
shrinkage=1


Tree=167
num_leaves=16
num_cat=0
split_feature=89 16 96 70 97 96 94 18 15 18 74 18 55 18 7
split_gain=150.1 101.844 45.9901 16.1123 11.8913 15.4435 6.71132 7.89516 4.2229 3.47082 2.89526 2.77102 2.72025 2.4919 3.92715
threshold=0.016194691881537441 182.86145782470706 1.439994812011719 0.13659814000129702 0.29000091552734381 1.0300064086914065 9.8671970367431658 36.402790069580085 219.27922058105472 61.025959014892585 0.94550347328186046 60.337705612182624 0.35499572753906256 9.7891454696655291 0.49255043268203741
decision_type=2 2 2 2 2 2 2 2 2 2 2 2 2 2 2
left_child=3 12 4 9 5 -3 13 -8 -5 -1 -7 -4 -2 14 -6
right_child=1 2 11 8 6 10 7 -9 -10 -11 -12 -13 -14 -15 -16
leaf_value=-0.19688800488689873 -0.19579157107335665 -0.29515907246426204 -0.18672917003043282 -0.19675468671323931 -0.19933232288514169 -0.025404525826121706 -0.19556231982779709 0.16725319630040419 0.15654655311117599 0.18799950350209807 0.23336927507395411 0.20490710144297633 0.09024665508400255 0.20103706995059911 0.22497353999481043
leaf_weight=127.8453465346247 43.872962825931609 4.8125488720834246 16.32050454616547 1.6793687529861907 1.6087283287197345 2.470039237290619 3.856308436021207 6.348929762840271 6.9688142910599709 0.94410434737801452 5.7680503912270069 0.75614101439714332 1.3714759815484274 159.06946939229965 1.9066274166107176
leaf_count=5226 1777 51 600 65 40 24 79 88 84 12 41 11 38 2405 19
internal_value=0 0.0842151 0.144715 -0.176321 0.173577 -0.0105077 0.187481 0.0301541 0.0879399 -0.194067 0.155781 -0.169388 -0.187121 0.197356 0.0307989
internal_weight=0 248.162 202.917 137.438 185.841 13.0506 172.79 10.2052 8.64818 128.789 8.23809 17.0766 45.2444 162.585 3.51536
internal_count=10560 5173 3358 5387 2747 116 2631 167 149 5238 65 611 1815 2464 59
is_linear=0
shrinkage=0.2


Tree=168
num_leaves=1
num_cat=0
split_feature=
split_gain=
threshold=
decision_type=
left_child=
right_child=
leaf_value=0
leaf_weight=0
leaf_count=0
internal_value=
internal_weight=
internal_count=
is_linear=0
shrinkage=1


Tree=169
num_leaves=16
num_cat=0
split_feature=91 84 18 96 70 94 27 97 96 65 95 98 24 96 19
split_gain=92.9501 29.2078 12.9 10.4206 12.4524 24.0011 9.79666 10.0477 12.5591 12.3921 9.47525 8.23876 7.70013 8.28151 6.70159
threshold=0.044832378625869758 0.11689937859773637 37.848432540893562 0.87500000000000011 0.066152572631835951 6.6365492343902597 0.00033313775202259427 0.31999969482421881 0.84999847412109386 0.99669596552848827 3.2523978948593144 0.32499694824218756 0.10422020033001901 1.0250015258789065 60.980392456054695
decision_type=2 2 2 2 2 2 2 2 2 2 2 2 2 2 2
left_child=1 10 3 4 11 -6 -2 8 -8 12 14 -3 -10 -14 -1
right_child=6 2 -4 -5 5 -7 7 -9 9 -11 -12 -13 13 -15 -16
leaf_value=-0.040234143306942763 0.74856118634292623 -0.029728639828531384 -0.10945440425542202 -0.15783373326078934 0.88044385292663729 0.043777083144586421 -0.14170340677239357 -0.17423909635540974 1.7647774902186342 0.6155319995577605 0.1441350318302079 0.21526995144037803 0.19377780548137036 -0.10748759216617446 0.20328770283702308
leaf_weight=20.324114017188553 0.50658120587468047 17.4507704358548 36.057812797836959 7.3163255453109732 2.2627894394099703 3.4817232750356197 25.956768026575446 80.853547661565244 0.10109692066908138 1.5676830783486355 154.48600629158318 8.0105191422626358 6.0998387075960627 9.0869841929525119 5.8131318613886824
leaf_count=257 21 270 908 209 20 44 1155 4714 1 9 2501 78 88 197 88
internal_value=0 0.0818161 -0.02348 0.0569946 0.107362 0.373344 -0.12916 -0.132756 -0.0544122 0.0800119 0.125293 0.0473517 0.0250975 0.0135167 0.0139271
internal_weight=0 255.203 74.5799 38.5221 31.2058 5.74451 124.172 123.666 42.8124 16.8556 180.623 25.4613 15.2879 15.1868 26.1372
internal_count=10560 4375 1529 621 412 64 6185 6164 1450 295 2846 348 286 285 345
is_linear=0
shrinkage=0.2


Tree=170
num_leaves=16
num_cat=0
split_feature=16 96 16 89 97 16 18 20 42 88 75 96 16 65 92
split_gain=122.332 24.0834 20.5392 10.5552 9.6458 9.14638 8.52495 7.987 22.6757 12.993 9.49755 9.58717 8.7159 7.79338 7.77145
